2708 100
0 -1.4699534 -1.9587911 -2.4798148 -2.4211395 -0.5470012 -1.853053 -0.9295346 -1.2007002 -0.9757271 -1.9225038 -1.2990932 -1.477854 -1.8474635 1.0679387 -2.2958286 -1.8491687 -1.0288002 -1.255806 -2.1176817 1.0838685 -1.7361561 -2.2102373 -0.35362384 -1.2947072 -2.5105174 -1.4915065 -2.1860552 -1.2873726 -1.9848019 -1.904704 -1.5727704 8.091587 -1.6195735 -1.2249867 0.7569399 -2.1597955 -0.1637948 -1.9985474 -0.97472113 -1.184579 -1.5223001 -2.3156521 -2.5716438 -2.2949815 -1.5752376 -0.81076616 -0.8704365 -1.9201424 -1.8846987 -1.1617625 -0.9951998 -0.7802453 -0.80452347 -0.14189748 -1.6624533 -1.9419888 -1.9001421 -3.4829533 -0.48484585 -2.0339122 1.1941191 1.775513 -0.08071675 -1.7279447 -0.98945695 -1.1582894 0.003194809 -1.2291521 -1.8848861 -1.805497 -0.37117615 -1.699873 -1.5084674 -3.3894143 -2.23093 -0.56549835 -1.4926003 -1.8438323 -1.8857307 -2.0803041 0.4896878 -1.7857774 0.34088194 -0.12349229 -0.8625199 -2.1296318 -2.264706 -1.7365391 -1.937224 -1.5913258 2.206738 -0.6713703 -2.1353855 -1.9015115 2.810818 28.285166 -1.9416771 -0.071421504 -0.97934276 -1.0850567
633 -2.094674 -2.7670028 -3.708594 -1.9429744 -1.7875588 -2.8591084 -0.8603099 -1.456092 -1.4914303 -3.4608803 -1.8026742 -3.04042 -2.475473 1.5660218 -3.1378155 -2.758702 -1.2543525 -2.3347936 -4.018481 -0.7562442 -2.5460086 -2.8871925 -0.6019144 -1.7924643 -2.7294724 -2.1995094 -2.9582994 -1.658725 -3.7420518 -2.504011 -2.0276575 5.8186507 -2.311037 -1.7291275 -0.64963025 -3.094857 -1.5763538 -1.4417695 -2.5612059 -1.6881297 -2.0466895 -3.0747585 -3.3437855 -3.0057569 -2.155591 -2.4723878 -2.6223264 -2.9066458 -2.5538611 -1.7261184 -1.0603384 -1.1367772 -0.77375287 -0.003908551 -2.2270715 -2.6337166 -2.7208266 -3.906735 -1.9709457 -2.6767585 -0.632261 3.9203777 -0.81500953 -2.2935224 -1.8323869 -1.3544174 0.4821782 -2.8213315 -2.8676872 -2.3495815 -1.7022921 -2.2474058 -1.9355862 -3.4654686 -3.0866566 -0.63705677 -2.1852713 -2.3438625 -2.3051047 -3.1533468 -1.1257668 -2.2510116 -0.8767543 -0.17811975 -0.8322986 -4.006483 -2.933538 -2.2617426 -2.874172 -2.3356898 4.7012706 -2.288515 -2.7761931 -2.9071467 -0.19044729 31.936094 -2.679658 -0.77817285 -1.8351068 -1.2838882
1862 -2.7377486 -2.7265222 -3.3752797 -3.1787167 -1.8450205 -3.451639 -1.6267573 -1.3592511 -2.0407 -3.6704252 -1.7830304 -2.8754873 -2.0056942 5.3831716 -2.8482673 -3.2876976 -1.2611936 -2.2629466 -4.1720505 -0.8808309 -3.028323 -3.5893476 -0.41434842 -1.839255 -3.5887742 -2.2354848 -2.628195 -2.6199176 -3.906649 -1.9266542 -1.6556085 5.3008647 -2.6232417 -1.2843632 -0.7302394 -3.5939996 -1.4500899 -3.357887 -2.2843554 -1.6132227 -2.0053139 -3.4796097 -3.7619698 -2.6017418 -1.9344444 -2.2069316 -2.5300205 -2.753452 -2.287984 -1.7215931 -1.1465753 -0.6791922 -0.62281865 2.8510666 -2.050195 -2.2117336 -2.3465834 -4.413873 -1.6157967 -2.0589206 -0.5686764 6.9855022 -0.98322785 -2.054597 -2.4103634 -1.3507053 -0.25505087 -2.9009364 -3.5112245 -2.7727516 -1.23845 -1.9484646 -1.7529472 -3.6827824 -2.4689949 -0.5301363 -2.3913374 -1.9665577 -1.6981859 -3.3172066 -1.0122471 -1.921497 -0.7816418 2.9264526 -1.1378791 -4.1851745 -2.5340457 -1.9457537 -2.6691997 -1.7409655 8.5920105 -2.179199 -3.2821891 -2.5379515 -0.10901357 32.19215 -2.6025894 -0.8643674 -2.1955497 -1.3564017
2582 -1.9248492 -2.825725 -3.8554814 -2.1897302 -1.6654253 -2.752517 -0.6246815 -1.3568387 -1.2487582 -3.3242657 -1.7476488 -2.8018491 -2.460776 4.434733 -3.2761326 -2.8818712 -1.2935559 -2.1121557 -3.8463123 -0.33640447 -2.2608733 -2.6367433 -0.2119207 -1.5030726 -2.6589258 -2.0602884 -3.0414236 -1.6597344 -3.4947515 -2.4651637 -1.972402 5.2854505 -2.1287642 -1.7905594 -0.2882458 -3.168618 -1.313875 -1.4925929 -2.443545 -1.4788659 -2.0188763 -3.0351512 -3.2334907 -3.1194754 -2.1734653 -2.1688728 -2.340043 -2.6595473 -2.6434748 -1.6362648 -0.73785305 -1.0652307 -0.5226173 0.9014858 -2.242905 -2.719237 -2.6949153 -4.0807943 -1.7745924 -2.7054572 -0.3205676 4.898237 -0.5120203 -2.294442 -1.5092503 -1.2831978 1.3260903 -2.5108566 -2.5613663 -2.4031856 -1.3770305 -2.1827247 -1.9465033 -3.6299088 -3.1989706 -0.5290255 -2.217407 -2.3204238 -2.3467135 -3.1839805 -0.84408456 -2.3039966 -0.48074356 0.5919867 -1.0656695 -3.8113835 -2.9859025 -2.2838728 -2.8790016 -2.204372 5.324111 -2.0995467 -2.511215 -2.900558 1.5404305 32.571026 -2.6803942 -0.44301987 -1.4098152 -1.2960752
1 -1.082187 -2.564248 -2.858486 -1.1916755 -1.5527611 -1.397663 -0.35482666 -1.5640944 -1.173606 -2.3640296 -1.5235771 -2.393287 -2.1805837 -0.69563097 -2.6582115 -1.3753426 -1.4037977 -1.2047294 -2.8516023 -0.9781343 -1.2891303 -1.6997265 -0.80201733 -1.7092447 -1.6082909 -1.6219109 -2.5328386 -0.81094736 -2.7485344 -2.2382345 -1.9948078 8.45482 -1.935565 -1.3741869 -0.81174386 -1.8185443 -1.3034236 0.9200419 -2.1040506 -1.6235886 -1.8273376 -2.0597208 -2.3775828 -2.677694 -2.0690696 -1.9288104 -2.0131452 -2.0186324 -2.3159277 -1.4052256 -1.0792872 -1.3530496 -1.3873624 -0.8934183 -2.0253227 -2.3094954 -2.3500097 -2.2149408 -1.5366386 -2.34467 -0.95055056 -0.25140855 -0.90824646 -2.0991397 -1.0302924 -1.2216085 -0.3419866 -2.0367875 -1.9144753 -1.2431744 -1.5957779 -2.0606484 -1.7631825 -2.407589 -2.6073875 -0.9821526 -1.6711708 -2.1099133 -2.237284 -2.2145169 -0.99190325 -2.1598876 -0.8961237 -1.0333755 -0.7005151 -2.830531 -2.7242293 -2.0528023 -2.5457962 -2.0533075 -0.17587955 -1.7152729 -1.83342 -2.3820128 -0.7759449 21.950043 -2.3239982 -0.8507759 -1.5453371 -1.3916405
2 -2.1034744 -1.6381922 -1.6090863 -3.864622 1.0622578 -1.545891 -1.2948059 -1.1136793 -0.73630697 -1.1683362 -1.1726276 -0.7059629 -1.4877267 -0.33659893 -1.7873547 -1.6623421 -0.67987704 -1.2684463 -1.1720304 3.5206852 -1.6172037 -2.4708412 -0.5915648 -1.1466942 -3.4616916 -1.7320124 -1.9310421 -1.4479357 -1.1009679 -1.8450087 -1.6521899 12.842447 -1.8658688 -0.78550184 2.6213114 -1.9630823 4.88371 -3.3775527 -0.0013475895 -1.4883021 -1.4502202 -1.7700199 -2.1013525 -1.9189156 -1.4894875 1.5090588 0.66650057 -1.2852428 -1.7186493 -1.2163982 -1.5971678 -0.5569253 -0.86557627 -0.14295527 -1.5832927 -1.6687301 -1.684185 -4.485622 3.2989378 -1.8274748 4.336265 1.1987349 1.6454523 -1.5302209 -1.573625 -1.2830962 -0.44838563 -0.55685943 -1.6414299 -1.1341566 1.5194477 -1.5564451 -1.4613007 -4.4323864 -1.7591447 -0.40626222 -1.3295047 -1.7213986 -1.7745113 -1.7616562 4.879055 -1.7746935 2.9487123 -0.31251898 -1.2291137 -1.2251457 -2.0393584 -1.5976629 -1.4163011 -1.5209217 2.1222947 1.630169 -1.895233 -1.5810794 4.671771 31.489382 -1.6757587 1.3295724 -1.1826943 -0.81596655
652 -1.4642577 -1.8146029 -2.1489651 -2.2137234 -0.36145303 -1.4237278 -0.6280144 -0.9447405 -0.47988653 -1.3863691 -1.0805368 -1.0560744 -1.5760185 1.1199393 -1.90985 -1.4099228 -0.9741578 -0.8883547 -1.5430272 1.2639549 -1.3187482 -1.717383 -0.21653466 -0.64272213 -2.1144006 -1.3597878 -1.7866589 -0.8993291 -1.419488 -1.5542616 -1.3202085 4.771256 -1.4916723 -1.1261185 1.3176372 -1.6673317 -0.1355759 -1.4373721 -0.70246667 -0.84883374 -1.2487935 -1.7553118 -1.9068327 -1.8930588 -1.3212656 -0.5934767 -0.753098 -1.6460863 -1.5118195 -0.9435074 -0.7039855 -0.60120595 -0.21746226 0.004317969 -1.3430514 -1.6681114 -1.6128834 -2.9367785 -0.3217747 -1.6416994 1.5565656 1.6452061 0.5100446 -1.4215585 -0.7576178 -0.65221184 0.7291237 -0.90839523 -1.3756536 -1.3044122 -0.2404646 -1.349522 -1.2395431 -2.8390083 -1.8317353 -0.32368913 -1.3207061 -1.5171994 -1.5072447 -1.8702539 0.4460168 -1.4534879 1.5043467 -0.036591757 -0.85285085 -1.5623692 -1.8909906 -1.4310131 -1.7854971 -1.3195088 2.1737714 -0.5164997 -1.5691334 -1.7621355 2.9330294 21.287966 -1.590413 0.6358069 -0.67143625 -1.0032119
654 -1.4571657 -1.778076 -2.6446836 -0.8148789 -1.5328131 -2.39555 0.059476495 -0.64304715 -0.6962229 -2.7286184 -1.1134282 -2.4835148 -1.6836668 2.6832743 -2.3055427 -2.3416388 -0.5353104 -2.0384464 -3.2078083 -0.5871969 -1.7113284 -1.6100696 -0.11531439 -1.0861984 -1.460692 -1.3393992 -2.0601685 -1.0018259 -2.8753335 -1.646003 -1.3016248 2.4114273 -1.3214496 -1.1757197 -0.59503907 -2.4945922 -1.5191722 -0.14746958 -2.3469093 -0.9288808 -1.3120335 -2.0177839 -2.0673037 -2.13218 -1.4265695 -2.1749532 -2.256818 -1.750162 -1.8076357 -1.1138736 -0.46581745 -0.7818541 -0.24633554 1.4352034 -1.442853 -1.9209349 -1.9012486 -2.5752826 -1.7790928 -1.8338126 -0.6877457 3.9227824 -0.7008626 -1.5174972 -1.2503154 -0.75903195 1.0609882 -2.1890967 -1.7822227 -1.6932783 -1.588121 -1.454945 -1.2508967 -2.0369847 -2.307431 0.15616792 -1.4077423 -1.4771956 -1.5547751 -2.1170177 -1.0687975 -1.5216938 -0.82558554 0.69328696 -0.69816476 -3.1553066 -1.9167951 -1.567994 -1.8053957 -1.7067231 5.025113 -2.2607296 -1.570129 -2.0237424 -0.075138904 21.66268 -1.777078 -0.69973904 -1.2428927 -0.57220507
1986 -14.556017 -41.587517 -51.13519 -10.77135 -56.80622 -28.900976 29.170788 -21.427603 -36.836723 -61.842983 -31.702991 -58.22544 -26.429052 -4.579913 -45.19748 -35.084797 -22.953001 -11.562773 -74.93743 -40.45045 -15.220784 -16.967041 -9.259383 -43.22111 -19.56142 -34.61299 -38.69611 -42.71663 -68.10231 -23.52706 -25.174194 35.823452 -38.722973 -18.939941 -35.806713 -39.58428 -45.87523 32.215157 -59.246956 -32.70106 -30.495565 -22.94995 -23.625227 -38.934875 -41.19599 -54.172485 -59.815277 -25.22132 -43.334484 -32.061073 -3.5535188 -17.342884 -30.8219 7.4698896 -31.80227 -33.87623 -46.12866 -22.721495 -51.002632 -29.706488 -39.274796 57.80113 -39.316776 -30.075226 -47.609016 -36.31158 -30.365026 -58.819744 -32.877537 -15.088969 -46.35757 -31.64784 -25.983137 -6.9473596 -36.069584 -15.9689045 -43.21342 -26.04161 -24.73781 -49.534 -41.179287 -30.065374 -36.63142 27.193466 -8.605812 -73.080956 -39.291653 -28.515076 -40.55359 -28.709791 89.72066 -56.246876 -15.416771 -40.559525 -30.036108 206.72607 -41.886497 -33.617874 -35.094864 -24.410742
332 -1.8464625 -2.6857684 -2.9096105 -3.0533855 -1.8064197 -2.3670094 -0.82487243 -1.5357314 -2.0134008 -3.0758412 -1.8948901 -2.9884593 -1.9777956 -0.15515922 -2.9105172 -2.6516871 -1.310197 -1.2311773 -3.303887 -1.0081755 -1.7899532 -2.3949857 -0.71321267 -2.751331 -2.8363638 -2.0889394 -2.7206354 -2.623048 -3.3241417 -1.9838343 -1.929238 12.592713 -2.7202768 -1.1277263 -0.942989 -2.8601308 -1.1429702 -1.6492165 -2.120805 -2.3906255 -2.027949 -2.3030007 -2.622768 -2.775704 -2.7638154 -1.782637 -1.9171072 -1.9073366 -2.7212996 -1.9343151 -1.4412283 -0.83431435 -2.2369719 -0.1922353 -2.2287297 -2.2664096 -3.0098872 -3.9283059 -1.4046693 -2.2373807 -0.8351105 2.07442 -1.1306256 -2.0829313 -2.4776323 -2.3556767 -1.3211988 -2.2984257 -2.6585102 -1.634972 -1.4270356 -2.2352326 -1.8926767 -3.2906804 -2.5116463 -0.31233603 -2.3226194 -2.0360222 -2.1481464 -2.815863 -0.7990678 -2.1739602 -0.7302818 -0.20416307 -1.1450562 -3.31889 -3.1221647 -2.1773355 -2.2981937 -1.9231964 3.680737 -1.6193466 -2.3550599 -2.4090433 -0.29993534 33.478714 -2.6800168 -1.0225018 -2.2515447 -1.3745958
1666 -2.2901638 -2.7788558 -2.6415813 -4.2568626 -0.97722113 -2.6524513 -1.5729439 -1.9883579 -2.3352072 -3.3762574 -2.042011 -2.5755403 -2.1985433 -0.30738595 -2.920115 -2.597827 -1.5834265 -1.8200816 -3.8113022 -0.37432134 -2.3861866 -3.0375173 -0.692081 -2.6395156 -4.15426 -2.4128883 -3.0248792 -2.5701778 -3.7077825 -2.3860474 -2.3223197 17.304039 -3.154894 -0.9529807 -0.34137592 -3.0091507 -0.079272285 -3.479107 -1.8613625 -2.5216844 -2.398917 -2.9436548 -3.324915 -3.0864923 -2.4611094 -0.76528805 -1.0078509 -2.5213797 -2.93905 -2.0731733 -1.964477 -0.8879387 -2.1288054 -0.294441 -2.6345472 -2.5118172 -2.8156812 -4.8818517 -0.43994626 -2.5615766 -0.112196684 2.539143 -0.6534978 -2.563907 -2.3442519 -2.3458595 -1.0458077 -1.8880796 -2.9509199 -2.102042 -0.50545186 -2.4568975 -2.3835835 -4.583062 -2.6868157 -1.079852 -2.3436108 -2.3358953 -2.277015 -2.7515433 0.5252441 -2.53382 -0.44365588 -0.6057545 -1.4857334 -3.7907124 -3.192777 -2.4611614 -2.5121496 -2.1139038 2.8698697 -1.1624959 -2.9603539 -2.296375 0.39995766 38.112553 -2.7549756 -0.5183407 -2.1286256 -1.7805592
1454 -0.54714775 -3.2433858 -5.0309806 9.115368 -5.027674 -3.785664 6.5397534 -1.0430372 -2.3536768 -6.194879 -1.9854258 -6.4251122 -2.68169 2.0286233 -4.2016253 -3.9128702 -1.0328633 -3.2469947 -7.1707315 -3.4700248 -2.0827785 -1.4146597 -0.44034195 -3.401781 1.0796374 -2.014292 -3.5246456 -2.1820233 -6.7858796 -2.3860443 -1.9322249 -0.4150158 -2.2163906 -2.0238965 -3.180571 -4.0917144 -5.444983 18.673084 -6.547996 -2.0226398 -2.2277513 -2.8223789 -2.8694065 -3.6638074 -2.9314368 -6.3817024 -6.3977313 -2.6148884 -3.4074006 -2.1171334 -0.012008912 -1.8761853 -1.8790095 0.22066379 -2.459056 -3.2130604 -3.7454288 -1.5182707 -5.929136 -2.879378 -3.697417 4.495634 -3.2287617 -2.4632623 -2.7993429 -2.2286313 -0.7633262 -5.720977 -3.1073594 -2.3412488 -5.2712107 -2.482334 -1.9098122 -0.10709908 -4.0275364 0.53669304 -2.8273566 -2.203619 -2.3871026 -3.8475606 -4.544454 -2.4070485 -3.6550024 -0.06588479 -0.43079773 -7.0784516 -3.384369 -2.6031394 -3.2681084 -2.9750276 6.3665476 -6.2763658 -1.8803376 -3.664929 -2.4954708 23.259485 -3.31139 -3.1098847 -2.9461179 -1.0612913
3 -1.1866844 -1.1615547 -1.5039482 -1.5017536 -0.4795986 -1.4136204 -0.72527915 -0.58427584 -0.51268303 -1.3133135 -0.82436085 -1.1622394 -1.1103448 0.20951149 -1.4173354 -1.4930506 -0.36149415 -1.2461408 -1.4918603 0.17076755 -1.3340617 -1.6774346 -0.25671315 -0.8188328 -1.6473029 -1.0758013 -1.3694794 -0.75255996 -1.3744713 -1.2374058 -0.9977717 6.0447645 -1.1299906 -0.6110977 -0.035740282 -1.6943676 -0.15716854 -1.4501061 -0.8234364 -0.8285675 -0.97990793 -1.5324411 -1.7257284 -1.3797182 -1.0052744 -0.6337 -0.73169297 -1.2367923 -1.1653817 -0.8379691 -0.9342079 -0.3744795 -0.35494152 0.047685146 -1.0345833 -1.1882528 -1.2248477 -2.414621 -0.37572086 -1.3090338 0.4801067 2.314425 -0.14996509 -1.1174438 -0.81791764 -0.6192301 0.45259464 -1.0320872 -1.3452654 -1.1859865 -0.41635695 -1.0789968 -0.9802947 -2.30315 -1.3599346 -0.1956022 -0.89781725 -1.1416491 -1.1303658 -1.3402992 0.086562276 -1.0971037 -0.049096655 -0.016280545 -0.57297456 -1.4746134 -1.427006 -1.0749044 -1.0673397 -1.0570577 2.681888 -0.61575013 -1.4772738 -1.1956836 1.6740813 18.094969 -1.1529948 -0.18742539 -0.92044777 -0.39316803
2544 -1.7747688 -1.5985832 -1.9585247 -2.202393 -0.86992645 -2.1054533 -0.89106655 -0.76587546 -0.74788725 -1.8524723 -0.8773498 -1.5794675 -1.4575056 2.0680897 -1.8719791 -1.9987392 -0.5839752 -1.6657358 -2.2002294 -0.06974455 -1.8145081 -2.0859303 -0.08100203 -0.87190354 -2.3388612 -0.9981473 -1.7708002 -0.9998819 -1.9928383 -1.4369086 -1.1469549 7.7610807 -1.2154783 -0.7694678 -0.12553547 -2.1932554 -0.41564235 -1.3521761 -1.3379021 -0.7665405 -1.1258382 -2.1244252 -2.2929547 -1.8337831 -1.212049 -0.941449 -1.1011248 -1.36491 -1.4829825 -0.8391302 -1.1434453 -0.5165362 -0.40118653 1.2906462 -1.2598727 -1.5606669 -1.5369279 -3.0514858 -0.64127016 -1.5850691 -0.042427804 3.529571 -0.30129847 -1.3163787 -0.60980606 -0.70270795 1.0258482 -1.2565503 -1.9499581 -1.8166903 -0.67217904 -1.3182497 -1.0583835 -2.8076036 -1.8526448 -0.22836486 -1.0237302 -1.3407364 -1.3810105 -1.5908467 -0.17527416 -1.3516521 -0.17422378 0.7923413 -0.8720002 -2.1586664 -1.7109778 -1.3356669 -1.4752978 -1.3643903 4.059801 -1.0305014 -1.9829121 -1.536212 1.8036368 21.739483 -1.4968411 -0.34902444 -1.2113243 -0.6319687
4 -2.5100334 -3.0049965 -3.5429757 -2.879604 -2.8430939 -4.1113157 -1.2202196 -1.6294907 -2.8334405 -4.557789 -1.9095892 -4.193611 -2.369958 3.5916204 -3.3834198 -3.5845017 -1.3215035 -2.9396555 -5.5384145 -1.7305564 -3.5014687 -3.4800797 -0.3864628 -2.8118763 -3.6309679 -1.935796 -3.202721 -2.8834476 -5.276365 -2.3542058 -1.880682 11.004525 -2.7349432 -1.257234 -1.589626 -3.876955 -2.2542648 -1.741003 -3.7184086 -2.0236092 -2.1363173 -3.7608173 -4.0274005 -3.254446 -2.3561032 -3.1597908 -3.4846253 -2.845497 -2.9765005 -1.934117 -1.7574799 -1.059659 -1.7765799 3.081112 -2.3184927 -2.7511246 -2.7983503 -4.15364 -2.4195392 -2.54448 -1.5816176 7.3745656 -1.8581177 -2.3292904 -2.3303916 -2.1776302 -0.6599393 -3.6335309 -3.9979737 -3.155206 -2.4827516 -2.4118986 -2.095948 -3.1318665 -3.119024 -0.5936453 -2.3628192 -2.0522544 -2.0584605 -3.1208448 -1.7688265 -2.4045815 -1.8603071 1.9711726 -1.0707531 -5.4183707 -2.829795 -2.339229 -2.8864524 -2.4025247 8.282775 -3.2076294 -3.5191524 -2.7417095 -0.90986365 35.905502 -2.9718592 -1.726134 -2.9111657 -1.5038944
2176 -3.032195 -3.095431 -3.8894799 -3.7770824 -0.8141224 -3.8097427 -1.88172 -2.2844787 -2.2497466 -3.630513 -2.3925953 -3.0353858 -3.3105466 2.6856234 -4.0068817 -3.1714602 -1.627202 -3.3864133 -4.482872 -0.01869874 -4.1759458 -4.431181 -0.6021394 -2.2108924 -4.594585 -2.275497 -4.012791 -1.9629253 -4.2908993 -3.6479058 -2.7830849 15.141097 -3.039125 -1.8445605 -0.06547876 -3.702561 -0.38762006 -3.17641 -2.0650325 -2.2068613 -2.8359964 -4.581695 -4.8516383 -4.0939217 -2.3742201 -1.6721414 -1.7565819 -3.6116295 -3.4764926 -2.2595925 -2.2348177 -1.4083633 -1.4301319 -0.310711 -3.010847 -3.5799615 -2.6001408 -5.75099 -0.5299692 -3.5700662 -0.015904283 5.5014935 -0.26608175 -3.2627099 -1.6760463 -1.6304604 1.9810154 -2.326309 -3.8735375 -3.3369374 -1.1237583 -3.1492848 -2.9722612 -5.7478657 -3.7575042 -0.8049575 -2.1617057 -3.1143923 -3.1389225 -3.1561925 0.52870286 -3.2200859 -0.45469853 -0.6386336 -1.492907 -4.5399275 -3.4073353 -3.191053 -3.4879215 -3.071964 4.9139867 -1.4711345 -4.3211384 -3.0714064 0.36018324 48.84645 -3.3073692 -0.15504661 -2.357113 -1.8262848
1016 -1.8259767 -2.8108115 -3.6040218 -1.5273993 -2.1959429 -3.166744 -0.45566425 -1.6965922 -2.0137823 -3.8446481 -1.8808228 -3.5725725 -2.663018 0.68548226 -3.42432 -2.73167 -1.4444067 -2.4552422 -4.72604 -1.3555834 -2.7518165 -2.5117097 -0.6067355 -2.2295861 -2.5164 -1.7929543 -3.1611865 -1.8135628 -4.4511657 -2.6584418 -2.0800192 7.6613836 -2.2868817 -1.6407951 -1.2914145 -3.055667 -2.0487785 -0.2938335 -3.2741477 -1.7167912 -2.1633415 -3.2082036 -3.4528599 -3.3125265 -2.094539 -3.052767 -3.1291373 -2.8144042 -2.8691127 -1.7885939 -1.1974113 -1.4678117 -1.3904971 -0.09153839 -2.2761924 -2.884311 -2.623194 -3.269486 -2.310884 -2.7633219 -1.4450593 3.434329 -1.4115582 -2.4154098 -1.6515869 -1.5132312 0.13379967 -3.1480622 -3.0445766 -2.5770972 -2.362522 -2.4545734 -2.1146567 -2.785142 -3.3428166 -0.70481724 -2.1267977 -2.2794328 -2.3800068 -2.8351 -1.5833219 -2.4407938 -1.6052659 -0.28257313 -0.91697514 -4.6151423 -2.7423315 -2.3980432 -3.0673988 -2.5508027 4.5060787 -2.9554405 -2.8504493 -2.8593524 -1.0006106 31.35629 -2.886298 -1.2939857 -2.1595745 -1.5730928
1761 -2.298621 -4.744329 -6.0401363 -2.9218254 -3.682179 -4.726814 -1.0762833 -2.5575778 -2.87346 -5.8977737 -2.8466747 -5.4426446 -4.1027203 6.001345 -5.4447894 -4.493374 -2.386657 -3.1944873 -6.903961 -1.5681905 -3.7564228 -3.965836 0.101539254 -3.2229028 -3.5986917 -2.3097422 -5.0377364 -3.21517 -6.5316405 -3.8585737 -3.1591132 12.181684 -3.1423604 -2.4845624 -1.6212181 -4.952445 -2.8136737 -0.5975777 -4.893307 -2.5112317 -3.3947945 -5.2390327 -5.5810556 -5.1661577 -3.6877522 -4.0909486 -4.351139 -3.8093896 -4.4520764 -2.724283 -1.491705 -1.7711893 -1.9565858 1.5340252 -3.6327088 -4.5318084 -4.4284534 -5.235394 -3.4953897 -4.2504234 -1.6429663 7.901452 -1.9603138 -3.7552705 -1.792387 -2.6478598 -0.21681416 -4.5090694 -4.6957393 -4.3300786 -2.834266 -3.7148957 -3.2798157 -4.5157886 -5.1948853 -0.8289734 -3.384744 -3.6438675 -3.7283268 -4.483219 -2.2327137 -3.8645256 -1.5708131 1.1715534 -1.0673748 -6.658362 -4.726622 -3.7858303 -4.658567 -3.5186756 7.8485584 -4.210832 -4.584612 -4.582869 -0.60388106 49.988457 -4.5843234 -1.8851441 -2.981692 -2.503264
1256 -2.9054155 -3.5601518 -4.2071357 -3.043117 -2.4433515 -4.270009 -1.39437 -2.2827168 -2.988535 -4.780725 -2.4539645 -4.490705 -3.1828606 2.7028606 -4.159504 -3.532222 -1.8299235 -3.4404142 -5.9329267 -1.5097923 -4.077487 -4.097745 -0.63200665 -2.8327646 -4.037074 -2.3633182 -3.982727 -2.5606163 -5.6964684 -3.336137 -2.5758162 12.825768 -3.3046696 -1.820088 -1.3269672 -4.008167 -2.0401802 -1.7747841 -3.7473164 -2.4190385 -2.8280933 -4.413823 -4.6565256 -4.1347094 -2.7324393 -3.1891096 -3.4608135 -3.6607225 -3.6321647 -2.3782902 -2.0884063 -1.5055624 -1.8919185 0.8541273 -2.9824913 -3.554343 -3.0754614 -4.8845286 -2.0595803 -3.3147447 -1.4282174 6.7007637 -1.6113656 -3.1023014 -2.322387 -2.0552561 -0.29422215 -3.7195337 -4.2561264 -3.361199 -2.4791515 -3.095768 -2.8811347 -4.3190446 -3.8584049 -0.954751 -2.505493 -2.8116755 -2.8295996 -3.5274956 -1.4173816 -3.1317613 -1.704523 -0.18218379 -1.247341 -5.901424 -3.4591672 -3.0522807 -3.7963452 -3.0532618 7.008445 -3.115411 -4.1102376 -3.353278 -1.0464213 43.553688 -3.611982 -1.3771406 -2.963181 -2.0362365
2175 -2.28701 -2.8712401 -3.1587563 -3.0695515 -1.675478 -3.043708 -1.1403197 -1.8711207 -2.2219646 -3.3660705 -1.8862991 -3.0386696 -2.5066729 1.8899302 -3.1643996 -2.5147417 -1.6021737 -2.1872709 -4.1416755 -0.8169441 -2.811905 -2.978228 -0.4090275 -2.1673343 -3.4507759 -1.6615337 -3.0524704 -2.1953533 -3.9524632 -2.517508 -2.062146 12.2753935 -2.4533324 -1.3820891 -0.7777872 -2.853875 -1.0132141 -1.6482601 -2.5852613 -1.8171017 -2.1928415 -3.2146237 -3.5178497 -3.1651022 -2.1883433 -1.8626477 -2.084164 -2.5461318 -2.8192852 -1.8249696 -1.7227831 -1.0885856 -1.5458782 1.1175653 -2.30584 -2.7252786 -2.592758 -4.011908 -1.1637071 -2.6008115 -0.7511433 4.6995544 -1.0413018 -2.3956468 -1.5328865 -1.735783 -0.39053482 -2.3577373 -3.0938504 -2.5971744 -1.4082611 -2.433212 -2.1712797 -3.6393821 -3.0209854 -1.0055221 -2.0703738 -2.244521 -2.28377 -2.6641607 -0.6745786 -2.482948 -0.9078669 0.3356802 -1.0677611 -4.0152755 -2.738713 -2.3674128 -2.8851473 -2.2881365 5.4663095 -1.9114363 -3.077056 -2.5951648 -0.40031967 34.593727 -2.8533103 -0.9209337 -2.0357277 -1.7337846
5 -2.0982723 -3.4001338 -4.091238 -2.2540836 -2.768491 -3.3185327 -0.8261296 -1.5303911 -2.0115378 -4.186785 -1.8702812 -3.72827 -2.517747 3.960069 -3.3992639 -3.2185624 -1.5744424 -2.430975 -4.95335 -1.4311575 -2.495371 -2.8749168 -0.3015623 -2.0489035 -2.7741594 -2.2507577 -3.163881 -2.3647752 -4.6000233 -2.2919319 -2.0615327 4.8759036 -2.7700632 -1.5826879 -1.1839117 -3.5555446 -2.3104966 -0.69873613 -3.437393 -1.8076786 -2.2532496 -3.1742692 -3.3401406 -3.1708875 -2.6751182 -3.0600946 -3.424013 -2.588206 -2.8690753 -1.9164418 -1.1212711 -1.1090348 -0.9158239 2.527481 -2.465744 -2.91964 -3.1325157 -3.7511005 -2.6230843 -2.5412567 -1.2402683 6.0018964 -1.423279 -2.4113984 -2.1438768 -1.7190506 -0.588874 -3.4578655 -3.0966504 -2.418879 -2.1494234 -2.3149118 -2.0350375 -2.9408634 -3.1060655 -0.72519267 -2.742884 -2.1907046 -2.0396826 -3.653734 -1.8263569 -2.3495927 -1.2670974 2.0428805 -1.0189203 -4.8541136 -3.2425122 -2.420962 -3.3492215 -2.2485633 6.564103 -3.2013958 -2.7261999 -3.1777618 -0.5627491 27.443373 -2.9933536 -1.2525243 -2.2577858 -1.6339487
1629 -1.5094583 -2.9750454 -3.7414212 -1.1465187 -2.7301185 -2.8284616 -0.3405905 -1.3210533 -1.675507 -3.8509712 -1.7787155 -3.6163957 -2.3148787 4.3333254 -3.217104 -2.9004414 -1.4239019 -2.0243225 -4.41415 -1.3298774 -2.0694358 -2.1687534 0.66781473 -1.7633489 -1.6695865 -1.7340939 -2.8338149 -2.035057 -4.0733275 -2.0753539 -1.7553511 3.9739218 -2.017193 -1.6147522 -1.1857582 -3.06634 -2.0897362 0.46462184 -3.4119122 -1.4929012 -2.0173004 -2.784229 -2.9515731 -2.921436 -2.402175 -2.7747142 -3.122307 -2.18491 -2.6041446 -1.7218884 -0.6134307 -0.93885595 -0.75144666 2.2063699 -2.1880913 -2.6821408 -2.7474556 -2.938369 -2.5614781 -2.3498232 -1.2552475 6.460464 -1.3942734 -2.1503327 -1.5051998 -1.456135 -0.39040086 -2.9462469 -2.6152732 -2.428267 -2.00639 -2.1228187 -1.8654851 -2.3267295 -3.0805435 -0.24264088 -2.1806479 -2.0452673 -2.0011017 -2.927812 -1.6897856 -2.0835001 -0.9078924 2.2081897 -0.5947325 -4.266971 -2.874264 -2.1932008 -2.8897653 -2.0287466 6.6344705 -3.0656884 -2.3761978 -2.8774824 -0.37872577 25.460081 -2.7424371 -1.2557687 -1.6849177 -1.4894631
2546 -1.9904253 -3.1125703 -3.1360586 -3.0481756 -1.3028834 -1.7680415 -1.1620296 -1.828364 -0.9635245 -2.2008882 -1.7071387 -1.7569741 -2.4535997 1.538488 -2.9494026 -1.9678357 -1.9379224 -0.66751236 -2.5295134 -0.14947788 -1.6881548 -2.3525472 0.6251348 -0.73805124 -2.7369468 -1.4843853 -2.7530708 -1.5270989 -2.3264387 -2.272761 -1.9634501 10.133551 -2.037048 -1.5263171 -0.09574666 -2.2141235 -0.26875013 -1.4616076 -1.5142573 -1.1694634 -2.057531 -2.7871366 -3.0297782 -2.921848 -2.113407 -0.8028221 -1.3111787 -2.0097523 -2.3594573 -1.3459486 -1.086896 -0.81802243 -0.38287973 0.17147404 -2.2094612 -2.5495648 -2.3675754 -3.6203468 -0.65229493 -2.4055622 -0.01278646 3.8698316 -0.45147476 -2.2004232 -0.27065107 -0.89719677 -0.09077046 -1.465289 -2.175811 -2.3754272 -0.35954124 -2.184288 -1.9997491 -3.9575844 -2.9306285 -1.0127232 -1.7795657 -2.2863252 -2.2782109 -2.3220127 -0.1158376 -2.2692719 2.3014812 -0.057127476 -0.9259079 -2.3633611 -2.8089538 -2.1908548 -2.9378095 -1.6867148 3.562508 -1.0844357 -2.678395 -2.7035186 2.476261 25.960321 -2.6990106 -0.31563956 -0.88095963 -2.0476215
1659 -1.2640808 -2.4092846 -2.8846571 -1.3858507 -1.3986367 -1.7071794 -0.33074293 -1.211963 -0.9080526 -2.393095 -1.4136513 -2.238483 -1.9207398 1.1894312 -2.4732206 -1.893718 -1.1715796 -1.2136927 -2.7011101 -0.48558527 -1.3475384 -1.6917658 -0.214468 -1.2408768 -1.65646 -1.5104331 -2.2847164 -1.1737487 -2.5469031 -1.859939 -1.6282128 5.174608 -1.7646859 -1.3242396 -0.39318004 -2.089371 -1.0603113 -0.54188585 -1.8996321 -1.3014979 -1.6586685 -2.065633 -2.2593188 -2.353545 -1.9454855 -1.5675601 -1.7439498 -1.7667913 -2.0417743 -1.3527861 -0.5793237 -0.9276871 -0.6367656 -0.2422565 -1.8343474 -2.1350315 -2.2090588 -2.6432395 -1.4236882 -2.0025115 -0.40765905 1.936566 -0.50588745 -1.8196427 -1.0573952 -1.0502584 -0.114618994 -1.7875677 -1.8042091 -1.6150903 -1.0396829 -1.7661632 -1.5824535 -2.5019925 -2.4098365 -0.36230236 -1.7180741 -1.8237553 -1.79716 -2.2980883 -0.7307049 -1.8029101 -0.23989515 -0.2275424 -0.8152016 -2.6280344 -2.4727836 -1.845348 -2.3040953 -1.6386932 2.1679692 -1.5954565 -1.7705506 -2.2805948 0.32783866 22.681479 -2.1270149 -0.47069207 -1.122098 -1.1838051
6 -2.6948934 -2.5345917 -2.7540548 -3.399943 -1.4635184 -3.2182229 -1.0277961 -1.4001855 -1.7463888 -3.3042233 -1.6735452 -2.7792451 -2.211268 1.6050322 -2.9594371 -3.3751945 -1.0143197 -2.154354 -3.7238624 -0.32934967 -2.5064123 -2.9654827 -0.20380154 -1.9079529 -3.704993 -1.9793558 -2.9105453 -2.5102983 -3.3908544 -2.2403142 -1.992039 15.175889 -2.4989889 -0.89786017 -0.5440493 -3.5466936 -0.49512035 -2.7989826 -2.099258 -1.9052941 -2.014987 -2.9768772 -3.173843 -2.9435983 -2.304054 -1.4213867 -1.8002542 -2.0421817 -2.645129 -1.884092 -1.6776345 -0.7271501 -1.2082084 1.6120471 -2.2623253 -2.6122751 -2.5860488 -4.8666334 -0.9652068 -2.3960884 -0.274248 5.9436455 -0.8336193 -2.1492925 -2.043578 -1.7862977 -0.6039988 -2.3189373 -2.8421733 -2.5528972 -1.099914 -2.2652948 -1.9488827 -4.2660804 -2.8647346 -0.34028745 -1.8870634 -2.1650121 -2.243993 -2.5578635 -0.35688996 -2.4852786 -0.4153841 0.6554869 -1.3259104 -3.4882562 -2.7959752 -2.293941 -2.228105 -2.1569743 7.492258 -1.6397628 -2.9083383 -2.2816303 2.3189096 37.195145 -2.6727858 -0.89307636 -2.0246682 -1.125727
1416 -9.126921 -11.466448 -13.647423 -5.7234116 -10.290171 -9.559854 0.36575997 -6.423687 -6.6614876 -15.216791 -9.127589 -13.609258 -9.639598 -0.3150327 -13.623227 -11.326449 -5.308027 -6.4868975 -18.378153 -5.7784853 -6.589035 -7.2352295 -1.5317945 -7.948588 -8.581413 -9.712462 -12.849457 -9.3377495 -16.528883 -10.390071 -9.72044 33.406345 -10.519985 -5.157529 -5.880188 -12.256682 -6.9239655 -0.99546957 -12.766451 -8.987003 -10.242587 -9.023674 -8.860481 -12.733569 -11.359298 -11.187789 -12.767459 -9.034117 -12.842773 -9.283478 -4.654514 -4.191753 -5.266939 3.0366373 -11.043042 -12.269993 -12.112367 -12.201435 -8.951529 -11.153272 -5.5387135 17.826132 -6.7670226 -10.748443 -9.473263 -7.002787 -4.882292 -13.861365 -7.769279 -5.6529465 -8.431725 -10.201256 -9.972634 -9.883329 -13.15994 -3.635784 -8.406488 -9.72441 -10.239532 -11.626006 -6.1668577 -11.152754 -5.6765456 -0.5385496 -1.6896724 -17.427053 -12.142864 -10.746184 -11.821086 -9.919003 27.99764 -12.839034 -7.6050334 -11.928779 -3.0382054 102.875084 -12.071889 -5.8931766 -7.319247 -5.9009953
1602 -3.3636212 -3.7903612 -4.4887457 -4.43625 -1.7017788 -3.520364 -1.1479793 -2.3762789 -2.0439923 -3.8837864 -2.819492 -3.0435522 -3.5225568 -0.37106344 -4.5660644 -3.992047 -1.921667 -1.975005 -4.489425 -0.24580227 -3.2392838 -3.682626 -0.61371386 -2.4963014 -5.015949 -3.0623813 -4.371771 -3.214782 -3.9295368 -3.8381348 -3.0515714 20.082087 -3.3744774 -1.7539719 -0.5171048 -4.4832997 -0.5590915 -3.2527015 -2.2341638 -2.8016193 -3.010941 -4.2115364 -4.5138545 -4.4928675 -3.4149625 -1.8729559 -2.2693996 -3.3564832 -4.0279474 -2.83222 -1.9447985 -1.4225206 -1.7458285 -0.5026976 -3.3549764 -4.026199 -3.98509 -6.594327 -1.4273912 -3.8975022 -0.34336993 3.6882982 -0.9246853 -3.313662 -2.3956776 -2.5700374 -0.8189637 -2.8330033 -3.5694177 -3.341214 -1.4508806 -3.4816048 -3.0323076 -6.0381675 -4.43523 -0.7516281 -2.515322 -3.5216224 -3.6640549 -3.5856888 -0.46255046 -3.6483243 -0.23444894 -0.6120734 -1.9177824 -4.158124 -4.4875927 -3.3437982 -3.7574139 -3.3271687 7.160334 -1.7764891 -4.0598063 -3.724947 3.0724356 54.079224 -3.9882812 -1.0775627 -2.4017785 -2.0995612
1042 -10.152789 -6.0111413 -6.7399697 -13.898087 10.492611 -6.039232 -5.9890466 -5.0003138 -2.6992974 -3.8137329 -6.816936 -0.66976213 -7.735227 -0.17906497 -9.161248 -8.440581 -3.233751 -3.8389366 -4.7438207 23.293947 -7.3030953 -10.000682 -0.89694756 -1.8712496 -14.331016 -7.367553 -9.324065 -6.5404406 -2.49493 -8.962717 -7.1207314 58.152847 -7.0529885 -3.188992 16.397669 -9.58702 32.26812 -16.482985 6.722498 -5.8374553 -7.2973456 -8.804555 -9.548045 -9.059495 -7.027598 13.550115 10.647611 -5.119314 -9.198468 -6.7248087 -6.5825996 -1.2854756 -1.0031613 -1.8636993 -8.115382 -8.139516 -6.385654 -18.674274 26.03773 -9.087638 23.477097 14.58934 8.670237 -8.127812 -4.5131316 -3.5355718 -1.3718735 -0.89304316 -5.8588767 -6.6262536 13.476022 -8.335126 -7.40428 -20.0585 -8.382529 -1.093708 -3.5031269 -8.48204 -9.158184 -5.734233 29.930258 -8.891016 24.333385 -2.0533378 -4.2324696 -3.7674356 -8.862027 -8.122883 -6.4212313 -6.928712 19.363482 12.837128 -9.241984 -6.325694 29.628275 129.9592 -7.8241944 9.393689 -3.031864 -3.607663
373 -1.5711232 -2.8033814 -3.8034399 -0.4844246 -2.7972028 -3.052738 0.08637053 -1.3093314 -1.7836704 -4.1327076 -1.89566 -4.085749 -2.6032023 -0.04858978 -3.552733 -3.1690478 -1.099455 -2.4009833 -4.8506484 -1.7066933 -2.2039335 -2.1369393 -0.5710907 -2.339514 -1.6068872 -1.8777703 -3.2099297 -1.8798935 -4.513611 -2.5383928 -2.037332 5.93798 -2.167793 -1.5222014 -1.6769918 -3.3626328 -2.7059464 3.1215637 -3.8528981 -1.9223675 -2.1445222 -2.8954022 -3.0272062 -3.28115 -2.5496807 -3.646467 -3.737639 -2.3554094 -2.976749 -1.9591736 -0.8639397 -1.5025607 -1.3614885 -0.34784305 -2.3738687 -2.9415598 -2.992777 -2.9206824 -3.0524352 -2.7897246 -1.8048813 2.9750328 -1.8159468 -2.4156175 -1.9211692 -1.7870468 -0.48087588 -3.7044423 -2.7656047 -2.2725763 -2.9509342 -2.4691353 -2.0505903 -2.278237 -3.4527268 -0.2573957 -2.0422728 -2.3206594 -2.4940166 -2.945572 -2.1845586 -2.5025494 -1.834073 -0.48674533 -0.8088237 -4.6573596 -3.0701652 -2.4823732 -2.7981045 -2.658347 4.260694 -3.5279102 -2.414377 -2.9641924 -1.0304571 28.429617 -2.9689112 -1.7662207 -2.242981 -1.115758
7 -1.9913597 -1.8320086 -2.616351 -1.3817332 -1.6365026 -2.5939095 -0.4335452 -0.85388154 -1.0180647 -2.813994 -1.2965012 -2.4749234 -1.8077649 2.1686044 -2.421314 -2.5389102 -0.6627714 -2.2165458 -3.4227638 -0.6528508 -2.0554273 -2.0414646 -0.14168577 -1.188166 -2.1187284 -1.3826016 -2.2403333 -1.3174447 -3.0159874 -1.7844361 -1.4569328 5.662519 -1.4742222 -1.062406 -0.6931451 -2.713978 -1.2359952 -0.5159659 -2.3889153 -1.0684834 -1.4980582 -2.2490137 -2.3161283 -2.2891595 -1.6301879 -2.0013893 -2.1588278 -1.7443517 -2.0411453 -1.2779862 -0.97132 -0.73148364 -0.43932953 1.7491518 -1.6464577 -2.0692992 -1.9993082 -3.0181577 -1.5698522 -2.0249555 -0.70841676 4.7627807 -0.88291055 -1.6915636 -1.274436 -0.882067 -0.014337445 -2.2362647 -2.1077943 -1.9022007 -1.5583662 -1.6918286 -1.4005407 -2.5130653 -2.401285 -0.23105012 -1.3738323 -1.6080557 -1.6966038 -2.054484 -0.9220231 -1.7169081 -0.85491574 1.0629704 -0.66634566 -3.356878 -2.0338712 -1.7214059 -1.87605 -1.8814062 6.2088137 -2.2074606 -1.9429699 -2.0215285 -0.12070669 22.829756 -1.9539136 -0.82340395 -1.5037104 -0.70846885
208 -1.2925262 -1.3768866 -1.9482945 -1.4486507 -0.9404505 -1.9975598 -0.9467397 -0.5886714 -0.69431925 -1.9457258 -0.86683863 -1.5886096 -1.2316949 2.1566527 -1.657691 -1.9517955 -0.4315413 -1.6029733 -2.2539928 -0.1483814 -1.749628 -1.9878651 -0.022686256 -0.8937398 -1.8911012 -0.9923935 -1.5473543 -0.93452644 -2.0094316 -1.3001935 -1.0252086 5.2790065 -1.0260231 -0.75519305 -0.24372232 -2.1203315 -0.63871205 -1.4266429 -1.3654346 -0.70814884 -1.0053428 -2.1451943 -2.3457496 -1.576576 -1.0331818 -1.0964009 -1.2251714 -1.5081717 -1.2667443 -0.8236107 -0.86979026 -0.33602414 -0.20454507 1.0686195 -1.1196146 -1.3626218 -1.3966669 -2.532969 -0.9253187 -1.4164565 -0.10299821 3.693654 -0.37545595 -1.1985353 -0.65441495 -0.63176316 1.3461683 -1.408441 -1.8912979 -1.7960862 -0.6877303 -1.1331755 -0.98038894 -2.321473 -1.6269104 -0.06317974 -0.9991398 -1.2342266 -1.1996509 -1.5224336 -0.42110974 -1.1655947 -0.2672036 0.6190609 -0.4401555 -2.2322626 -1.560202 -1.1670891 -1.2645569 -1.1746638 3.645696 -1.1781796 -1.9811367 -1.3931402 1.5740643 19.70324 -1.3177289 -0.42519552 -1.16458 -0.46888086
8 -1.4356331 -2.5419378 -2.5445077 -2.9959981 -1.251961 -1.5797375 -0.9056488 -1.5569507 -1.4843441 -2.3305013 -1.6383406 -2.175788 -1.7976716 -0.35671884 -2.4461036 -1.8863277 -1.3586423 -0.88960284 -2.4972923 -0.51722413 -1.3589122 -2.2243912 -0.6868777 -2.0629041 -2.6202004 -2.0328805 -2.380728 -1.8299866 -2.505926 -1.9935454 -1.8521506 11.690102 -2.5148008 -1.0661653 -0.41368866 -2.2079751 -0.5883931 -1.9579302 -1.5069828 -2.0151594 -1.8549283 -2.0247037 -2.4198759 -2.3734438 -2.2580059 -1.1258557 -1.4056867 -1.9019194 -2.2735686 -1.6092293 -1.3857758 -0.86549026 -1.7102607 -0.38407284 -2.024595 -2.064756 -2.5193014 -3.430233 -0.9100257 -2.1157157 -0.2258523 0.83694875 -0.597249 -1.9593934 -1.8083134 -1.8844185 -0.894504 -1.7106901 -2.0184057 -1.3061364 -0.8223075 -1.9580075 -1.748161 -3.305592 -2.1945903 -0.8926916 -2.0797591 -1.9743378 -1.9672107 -2.5366762 -0.35835412 -2.005711 -0.27641574 -0.3111001 -1.1079264 -2.4712725 -2.7598627 -1.9136199 -2.242092 -1.6466843 1.2383602 -0.98412704 -1.96941 -2.1734421 0.07831144 27.46141 -2.2759733 -0.5587335 -1.6074638 -1.4503192
281 -3.2489002 -3.229715 -4.3538604 -4.3103857 -1.3579985 -5.0345106 -1.6494559 -1.6717306 -2.0748312 -4.7269115 -2.1540883 -3.524492 -3.2072198 6.774129 -4.369832 -4.8416505 -1.1163304 -3.585687 -5.5172687 2.4050741 -4.174831 -4.387492 -0.3365917 -2.0622299 -5.0929155 -2.6860967 -4.0452337 -3.3206627 -4.9648414 -3.290936 -2.742745 13.84815 -3.0224292 -1.6932049 0.3453436 -5.1398563 -0.34746072 -5.3394637 -2.6435688 -1.8715423 -2.6940591 -4.9292026 -5.2612286 -4.0483475 -2.567971 -1.8823204 -2.1457202 -3.5263817 -3.4547822 -2.3534782 -1.4881186 -0.82791656 -0.340032 3.2301626 -2.9642522 -3.5315342 -3.2510216 -6.818003 -1.0321231 -3.5161226 2.5905838 10.427855 -0.20022526 -3.039635 -2.3713596 -1.6733344 2.603061 -2.7696698 -4.115747 -4.426131 -0.8438892 -3.0874488 -2.492991 -5.995657 -4.067191 -0.25443953 -2.9205961 -3.053917 -3.0782402 -4.0648108 -0.05073135 -3.2506845 -0.16600832 3.184895 -1.7440147 -5.307525 -3.7017865 -3.0963619 -3.071325 -2.8444574 10.7435055 -2.1789649 -4.355486 -3.10261 7.805767 53.51422 -3.5767784 -0.3653449 -2.370222 -1.288853
1996 -1.5476615 -3.9479737 -5.1110106 -0.05261997 -5.6485896 -4.3209095 1.5381655 -1.9917799 -4.0831885 -6.8954825 -2.8225071 -6.8736634 -3.0996974 -0.41489363 -4.6798067 -4.219471 -1.6455091 -3.5230968 -7.9721665 -4.4128165 -3.0451536 -2.69319 -0.8260878 -4.5070376 -1.7496382 -2.8994339 -4.1191397 -4.1217246 -7.5413985 -3.0950325 -2.50434 7.1531177 -3.4923115 -1.9044422 -4.193839 -4.7039704 -5.2348857 9.804205 -6.748562 -3.2685986 -3.137572 -3.3793557 -3.5349557 -4.2248354 -3.8146298 -6.3892674 -6.736132 -2.7022185 -4.239659 -3.2558677 -1.2871374 -2.193223 -3.3548887 0.36743367 -3.2454793 -3.8680866 -4.4118314 -2.4551964 -5.6901107 -3.4130561 -4.3288646 5.6513257 -4.3165545 -3.1293583 -4.593475 -3.6510055 -2.4652276 -6.536613 -4.3138328 -2.4908662 -5.5487485 -3.3927822 -2.7908974 -0.9166323 -4.381117 -0.8536975 -3.2889073 -2.7493293 -2.7873898 -4.341658 -4.7261634 -3.340592 -4.346621 -0.14043008 -0.48055798 -7.885799 -3.8845925 -3.2623613 -3.9026525 -3.7618654 8.530973 -6.2583222 -2.837344 -3.9146519 -3.3489919 30.739681 -4.220073 -4.1605973 -4.52789 -1.8348178
269 -1.7092108 -3.4154441 -4.515544 0.49832243 -6.2938437 -5.125595 1.3536876 -1.3065168 -4.377748 -7.4172273 -2.319283 -7.225358 -2.4931934 2.3670366 -4.2996836 -4.9060793 -1.2232151 -3.6340663 -8.756948 -4.570765 -3.3053071 -2.6214826 -0.42664394 -4.4401846 -1.5399722 -2.0817735 -3.701363 -4.5108123 -8.114734 -2.1155176 -1.8652312 6.2202287 -2.8681598 -1.2011851 -4.535932 -5.0639224 -5.6131516 9.866675 -7.4098024 -2.6318955 -2.5060432 -3.6035264 -3.5876603 -3.7146919 -3.3666248 -6.592908 -7.0042543 -2.4513996 -3.8180397 -2.7228353 -1.1749105 -1.7828597 -2.9446616 3.7734365 -2.671385 -3.2088146 -3.917225 -2.1166618 -6.0664616 -2.7001407 -4.7275653 8.860335 -4.7096624 -2.451884 -4.006381 -3.5690148 -2.3625097 -6.6182046 -4.666714 -3.1651044 -5.792062 -2.717587 -2.0484185 -0.09572732 -3.8409238 -0.24284701 -3.1485467 -1.9922043 -2.0880342 -3.8864715 -4.9981246 -2.7047763 -4.7447042 3.3289053 -0.42239094 -8.453502 -3.0897834 -2.6855674 -3.1539507 -3.1189113 11.981525 -6.844204 -2.9336479 -3.3365285 -3.2800221 25.357592 -3.7426574 -4.4494605 -4.5533175 -1.3788754
9 -0.7320919 -2.036143 -2.4792817 -0.9168693 -2.3177679 -2.4048436 -0.32986322 -0.9557805 -1.8948996 -3.2672448 -1.1590613 -3.3117409 -1.524122 -0.054446377 -2.2703073 -2.456304 -0.7485147 -1.9857693 -3.5080261 -1.6431309 -1.6386312 -1.8025296 -0.5503074 -2.3301756 -1.2639617 -1.2144965 -2.1075664 -1.8936325 -3.5449562 -1.5266148 -1.2579875 7.2220116 -1.7196969 -0.73838466 -1.5701836 -2.6572149 -2.2028863 2.4865854 -2.933544 -1.5871663 -1.4101224 -2.0189054 -2.2056162 -2.1159859 -1.7914107 -2.6801796 -2.747471 -1.3576306 -2.0476182 -1.349905 -0.923601 -1.0787822 -1.7818165 -0.115581684 -1.5972133 -1.8548777 -2.1405075 -2.225408 -2.4325242 -1.7659537 -1.5331073 1.8413645 -1.5953429 -1.5281731 -1.668416 -1.9548973 -0.87294286 -2.834859 -2.2821586 -1.4805717 -2.3546178 -1.5459499 -1.2842664 -1.4965475 -2.1397774 -0.14260188 -1.6180477 -1.4321885 -1.4529198 -2.073779 -1.8523768 -1.6003599 -1.7210134 -0.12556706 -0.5700552 -3.5697353 -2.160837 -1.6626272 -1.8386902 -1.7331599 1.9977095 -2.5614312 -1.8184553 -1.9152144 -1.0815442 20.86347 -1.9778031 -1.591628 -2.1747894 -0.8393121
2614 -1.7211822 -3.1476934 -3.8908353 -1.909679 -3.4864013 -4.238171 -1.1794994 -1.3827372 -2.7081866 -5.0563827 -1.786828 -4.711503 -2.270326 4.6667566 -3.5120263 -4.156507 -1.2440015 -3.1037548 -5.6930537 -2.0509717 -3.1471522 -3.116216 -0.02950393 -2.8021743 -2.5959785 -1.6004841 -3.1896493 -2.9289148 -5.4782953 -2.1621406 -1.8112087 10.784644 -2.4396083 -0.96980256 -2.0827568 -4.3849154 -2.917874 -0.16526073 -4.3748736 -1.8207743 -2.1192224 -3.8668492 -4.1554785 -3.2395267 -2.5343738 -3.6784654 -4.0298586 -2.413713 -2.941074 -1.9547528 -1.6387714 -0.77480644 -1.6150261 3.5245638 -2.3997366 -2.8151083 -3.0756881 -3.8385847 -3.3158898 -2.48444 -1.9175056 8.168869 -2.2771404 -2.3488986 -1.7495064 -2.3405519 -0.83116716 -4.0945735 -3.8675745 -3.2823079 -2.950743 -2.2762878 -1.9799134 -2.6913052 -3.207709 -0.034003902 -2.2771318 -2.0895066 -2.0387776 -2.9554536 -2.5451531 -2.363396 -1.8324469 2.5930738 -0.5235504 -5.5452013 -3.1543064 -2.485449 -2.8944578 -2.198379 7.9780874 -4.0065937 -3.6483808 -2.8995438 -0.88634014 32.304955 -3.0364993 -2.282419 -2.9888034 -1.3892282
723 -0.96034974 -2.032193 -2.285785 -1.4620308 -2.198856 -2.4875934 -0.65512705 -0.9913971 -2.022721 -3.1979046 -1.1253734 -3.0987482 -1.3928479 0.17927709 -2.1048224 -2.458108 -0.7792177 -1.9646882 -3.510191 -1.577609 -1.7888018 -2.0460021 -0.53930104 -2.3071163 -1.731548 -1.3339982 -1.9873762 -2.0751336 -3.4916394 -1.4227505 -1.1755694 8.011797 -1.8881534 -0.6334782 -1.4769554 -2.6995797 -1.9563195 -0.3314198 -2.7369173 -1.5989345 -1.3732828 -2.0918424 -2.3215857 -1.9941086 -1.6614428 -2.395216 -2.5505476 -1.4436141 -1.9431334 -1.3458155 -1.102364 -0.8894602 -1.7433668 0.623294 -1.5591291 -1.7153643 -2.0545905 -2.4321775 -2.10721 -1.6319607 -1.3878616 2.5895143 -1.5483668 -1.4669088 -1.8392597 -1.9632586 -0.93796885 -2.689909 -2.4210129 -1.5164957 -2.1039524 -1.4514614 -1.2378606 -1.6452382 -1.9478962 -0.26086435 -1.662938 -1.3099419 -1.289486 -2.0634615 -1.6503166 -1.521691 -1.6352253 0.22477478 -0.5757391 -3.5597293 -2.0196445 -1.5574864 -1.7589928 -1.5977757 2.8428571 -2.3813145 -1.9480801 -1.7812834 -0.9523104 20.942387 -1.8735361 -1.5037631 -2.2004628 -0.90109986
10 -1.307865 -2.760467 -3.767346 1.9496241 -3.8579297 -2.9878728 2.2123704 -1.0773629 -2.0242426 -4.3402863 -1.6503035 -4.669915 -2.1146467 -0.07223044 -3.1601112 -2.8714995 -1.0033972 -2.316186 -5.2318025 -2.84454 -1.9644251 -1.7104975 -0.6600704 -2.648584 -0.7403321 -1.8061543 -2.6327991 -1.7881317 -4.9329205 -1.8896834 -1.6006978 1.4859251 -2.1458483 -1.5098842 -2.5983276 -3.0673401 -4.0167923 10.225473 -4.6322536 -1.8488833 -1.8180386 -2.3618155 -2.5152617 -2.7741375 -2.3803203 -4.6927333 -4.7867503 -2.2039278 -2.5855794 -1.7113885 -0.6785467 -1.5581392 -1.6772736 -0.05947543 -1.9252805 -2.4595697 -2.9402196 -1.6042315 -4.19501 -2.2097793 -2.8348477 3.1317644 -2.6229203 -1.9397615 -2.2951455 -1.7849438 -0.7536761 -4.377271 -2.9117646 -1.86675 -3.9452198 -2.0159664 -1.5262935 -0.62471306 -2.9894524 -0.18978122 -2.1666806 -1.775531 -1.8988806 -2.9939864 -3.3031876 -1.9113846 -2.7030127 -0.07272353 -0.5199939 -5.0841427 -2.6440077 -2.0065544 -2.677634 -2.4070108 5.205946 -4.4355636 -1.8833182 -2.8858218 -2.0493634 18.495337 -2.6267953 -2.5649316 -2.7552872 -1.0167736
476 -2.4902353 -2.0417936 -1.9448029 -4.216081 -0.3664226 -2.5420082 -1.5663136 -1.2545002 -1.3686246 -2.3992646 -1.4727315 -1.6439259 -1.7893717 -0.08375642 -2.2007062 -2.5122073 -0.72218364 -1.9530891 -2.525824 1.7467761 -2.2295945 -3.0142238 -0.6691353 -1.6848799 -4.122064 -2.0023296 -2.3794382 -1.8912643 -2.468208 -2.0826466 -1.8897771 16.252045 -2.5153086 -0.6579651 0.64174104 -2.801847 2.6688576 -3.837534 -0.79023933 -1.8074477 -1.7355143 -2.4629247 -2.894707 -2.3369272 -1.8003838 -0.32085624 -0.5429163 -1.8524526 -2.0954454 -1.5531273 -2.043207 -0.5431618 -1.2108439 0.024371147 -1.8791348 -2.009432 -2.1579666 -4.8685384 0.9240149 -2.1042993 2.4919157 3.0364747 -0.07909011 -1.9646386 -2.0975902 -1.5393395 -0.60388845 -1.3714098 -2.4741712 -1.7483416 -0.015546942 -1.9204205 -1.820481 -4.631956 -2.0349374 -0.5210056 -1.6700968 -1.9912065 -1.895212 -2.1742053 2.8097973 -2.0800831 0.25884843 -0.22643676 -1.2627038 -2.4715679 -2.3895087 -1.9142573 -1.772822 -1.8070592 4.1192474 -0.48134995 -2.628757 -1.7406235 3.8443806 36.736645 -2.0337043 -0.11627226 -1.7439696 -0.90334505
2545 -1.4482421 -1.6694323 -2.3952591 -1.2575489 -1.1772488 -2.2674518 -0.26090845 -0.7255046 -0.7978596 -2.5759797 -1.1472195 -2.1924608 -1.642326 1.9807162 -2.1915379 -2.3246565 -0.4976459 -1.9967397 -2.9577007 -0.29731333 -1.6765169 -1.741835 -0.22010092 -1.1473337 -1.8281125 -1.367296 -2.0391798 -1.1110317 -2.6667562 -1.6917225 -1.3596511 5.071262 -1.3731854 -0.99446297 -0.3471593 -2.4676645 -0.991967 -0.87203664 -1.986928 -1.000295 -1.3433698 -1.9953507 -2.12492 -2.0885293 -1.3753598 -1.6926682 -1.7805424 -1.6752551 -1.7987744 -1.1413053 -0.6632343 -0.7045972 -0.40122062 0.96723413 -1.4823684 -1.8666407 -1.8206323 -2.8712022 -1.3296038 -1.857248 -0.3485084 3.5040543 -0.47936973 -1.5676936 -1.2454232 -0.86615133 0.669441 -1.9249287 -1.7190564 -1.6567618 -1.1825613 -1.4973996 -1.3028558 -2.463892 -2.1864285 -0.08125872 -1.3204488 -1.5562973 -1.5883718 -1.9493475 -0.6661398 -1.5766224 -0.63060963 0.35664773 -0.7176649 -2.919365 -1.9168986 -1.580511 -1.6827868 -1.6536381 4.4413023 -1.8351395 -1.6842251 -1.8320359 0.8621981 23.491302 -1.7277831 -0.49765965 -1.156769 -0.5615645
11 -0.7797424 -2.9299314 -4.0872607 0.4733218 -3.2896621 -2.8846793 1.0191222 -1.3210791 -1.9476641 -4.3140464 -1.760527 -4.320926 -2.4363413 0.38027963 -3.4646528 -2.9523628 -1.282231 -2.2734597 -4.905376 -2.167125 -2.070853 -1.9338254 -0.4377248 -2.640806 -0.8487154 -1.6379223 -3.059295 -1.8504719 -4.719601 -2.3165312 -1.8349192 2.3500721 -1.9924796 -1.6627436 -2.0274708 -3.1632202 -3.420583 7.8993144 -4.0971966 -1.8325615 -2.0331254 -2.8609192 -2.981429 -3.1645343 -2.456972 -4.176943 -4.202391 -2.3633392 -2.7712488 -1.7666721 -0.4624106 -1.7475643 -1.6880192 -0.45183727 -2.2150486 -2.795278 -3.0649996 -2.0599406 -3.819564 -2.6123495 -2.254204 1.7583357 -2.05203 -2.2375042 -1.8469696 -1.9498034 -0.45795852 -3.9341867 -2.8556535 -2.23327 -3.3122985 -2.2015598 -1.848149 -1.3299116 -3.375496 -0.23342703 -2.2309005 -2.1573465 -2.2448478 -3.0401874 -2.7805688 -2.236837 -2.2081552 -0.48823246 -0.6553206 -4.8569036 -3.0622585 -2.3148384 -2.9439332 -2.4952197 2.496613 -3.894552 -2.2801158 -3.0426009 -1.4835249 25.526194 -2.8254957 -2.022683 -2.3446832 -1.2845613
1655 -6.9366465 -5.898183 -7.065416 -4.765674 -10.079436 -9.935748 -0.68996984 -2.3550174 -7.816954 -11.992016 -5.1229277 -11.462237 -2.9764292 6.6313353 -6.47084 -10.068557 -2.1372166 -6.194593 -14.054532 -7.9107127 -6.4025116 -5.8581243 -1.1980722 -7.702447 -6.6911836 -5.4613366 -5.853812 -9.572982 -13.337178 -2.8531168 -3.2217195 19.176512 -7.2371 -0.90566915 -7.3074718 -9.651715 -8.521539 -0.5101051 -10.4431925 -6.306773 -4.6045365 -5.2836604 -4.867596 -5.617439 -6.895501 -10.233588 -11.356856 -4.0817294 -6.743731 -5.79832 -3.3450983 -1.3942889 -5.660455 12.938619 -4.7662654 -5.0195413 -7.011596 -7.497158 -8.824477 -3.7397263 -7.2698894 20.172146 -7.7368884 -4.263408 -10.152237 -6.4974413 -5.696981 -12.016802 -8.437724 -4.1308494 -8.737333 -4.2430987 -3.979918 -2.3373697 -4.8186927 2.9312568 -5.842301 -2.842358 -2.8775568 -7.098902 -7.6587243 -4.168861 -6.835103 11.841605 -1.6172869 -13.957872 -5.768787 -4.6321645 -5.238493 -4.803351 31.604559 -11.059598 -5.210489 -5.8004584 -4.7192254 58.919483 -6.3092003 -6.9338264 -8.807879 -2.7720401
1839 -2.5681932 -3.2415242 -3.7070305 -3.1965406 -1.5393908 -2.4274373 -1.4037509 -1.9592475 -1.8449671 -3.063649 -2.2650912 -2.2786846 -2.7717552 2.5971935 -3.3398864 -2.4752214 -1.9679316 -1.2356075 -3.8147042 -0.25114295 -2.5666635 -3.2175052 -0.027094632 -1.4970874 -3.5362186 -2.2654545 -3.1639233 -2.5738752 -3.202919 -2.677265 -2.243942 8.392927 -2.5920317 -1.7718868 -0.20317976 -2.7709968 -0.2591353 -3.1689606 -1.9181515 -1.778313 -2.5694084 -3.3730328 -3.6003442 -3.2211766 -2.5732012 -1.1756066 -1.6061165 -2.8349416 -2.7574096 -2.1748102 -1.2738606 -0.9003498 -0.46142808 0.48707557 -2.5202954 -2.9163897 -2.8587558 -4.4400663 -0.8068595 -2.7959075 -0.10302887 6.0615497 -0.66458064 -2.5861745 -1.6046555 -1.7038975 -0.4269952 -1.9345788 -2.8544908 -2.8426595 -0.46715257 -2.5212755 -2.38113 -4.340286 -3.167856 -0.985586 -2.3594682 -2.673523 -2.472499 -3.1521363 -0.079516135 -2.5660074 1.5960103 1.4326556 -0.979869 -3.543265 -3.1555378 -2.5789068 -3.2150714 -2.1616874 7.2760715 -1.3758028 -3.2489192 -2.9974906 3.2013524 33.15982 -3.0952895 -0.46627745 -1.2825769 -1.9765538
12 -2.7365594 -2.251353 -2.616571 -1.7475804 -3.8741899 -3.7103956 -0.1264876 -0.7581243 -2.9387414 -4.549164 -1.7305698 -4.3559623 -1.2829934 0.3124704 -2.4958599 -3.679992 -0.50383526 -2.6933339 -5.4250083 -3.1432674 -2.4746528 -2.2309914 -0.8414074 -3.220558 -2.6690395 -2.4211032 -2.266999 -3.6040688 -4.9619417 -1.3478421 -1.2648139 9.036383 -2.8426418 -0.58625436 -3.053459 -3.6972241 -3.368792 -0.070710674 -4.109668 -2.4579186 -1.6071421 -1.7977139 -1.783305 -2.2108448 -2.5255468 -4.1767645 -4.6337028 -1.6007046 -2.6219625 -2.2340875 -1.5056661 -0.7754289 -2.2866895 4.281279 -1.717018 -2.0264442 -2.8298023 -3.134805 -3.5215204 -1.565677 -2.9081655 6.6750855 -3.1624913 -1.6118449 -4.364875 -2.6564615 -1.979874 -4.6766562 -3.1419892 -1.4393371 -3.8361783 -1.7007267 -1.2599231 -1.140736 -2.1381059 0.9723645 -2.4151514 -1.1957922 -1.2346356 -2.993279 -3.0309978 -1.708292 -2.9561641 4.228943 -0.67591256 -5.2936773 -2.0984125 -1.8212454 -1.8938528 -2.1848826 12.139864 -4.351618 -1.7185487 -2.2781157 -2.06957 22.329187 -2.4024935 -3.0019188 -3.6638832 -0.7963484
2661 -1.8243265 -1.6913489 -2.6379302 -0.90591013 -2.5668466 -3.3670623 -0.112053074 -0.50338554 -1.5325876 -3.8749719 -1.2204626 -3.429381 -1.5147942 3.4762046 -2.3801522 -3.290966 -0.12072319 -2.80852 -4.4987674 -1.430931 -2.2976205 -2.035069 -0.11166155 -1.9713691 -1.8512627 -1.415438 -2.175757 -1.9367917 -4.0476007 -1.5465509 -1.2748895 6.0565963 -1.5372571 -0.7851724 -1.5405102 -3.3269634 -2.2977867 -0.19509448 -3.3497493 -1.2966373 -1.3855163 -2.3846729 -2.380727 -2.1625144 -1.6023806 -3.0638134 -3.2613106 -1.5396029 -2.088824 -1.4730402 -0.97386503 -0.6771084 -0.93969005 2.7899895 -1.5375048 -1.9371904 -2.179673 -2.906547 -2.6614583 -1.773147 -1.5162965 5.733859 -1.6634324 -1.5956832 -2.1090848 -1.5247582 -0.32680598 -3.2491708 -2.6273935 -2.1682575 -2.4461296 -1.484505 -1.2249366 -1.7325066 -2.3084247 1.4155312 -1.6711248 -1.3910046 -1.4561949 -2.2546968 -1.8919677 -1.5882753 -1.7457961 2.5170014 -0.5736171 -4.3945174 -1.8813113 -1.6952738 -1.5619271 -1.9057419 8.696127 -3.2773626 -1.9596001 -1.9952263 -0.6651551 24.506128 -1.9113321 -1.6884121 -2.2650344 -0.26880988
1001 -1.4206767 -2.188613 -2.8157735 -0.9784166 -2.5148492 -2.6637235 -0.49997932 -0.9089121 -1.53673 -3.3027751 -1.3186727 -3.0788152 -1.6539878 2.0755851 -2.4604661 -2.7314012 -0.768751 -1.9845612 -3.950227 -1.5587319 -2.0986125 -2.1339326 -0.18476449 -1.7445405 -1.6099732 -1.4539452 -2.243227 -1.7281554 -3.6214414 -1.6834764 -1.3323475 4.782146 -1.7090291 -1.0082641 -1.4847281 -2.8997433 -2.2524521 -0.25561205 -2.9765708 -1.2790763 -1.5089115 -2.5255477 -2.6550608 -2.245327 -1.6855404 -2.8187559 -3.101684 -1.9009182 -2.03736 -1.3764651 -0.86072916 -0.82361835 -0.8806739 0.9144318 -1.6280432 -1.9878294 -2.1413283 -2.3981643 -2.5024045 -1.8212773 -1.5035462 4.2677197 -1.6066767 -1.6315886 -1.5231228 -1.4315405 -0.34751526 -3.03614 -2.5921922 -2.0612385 -2.242879 -1.569334 -1.3968786 -1.7543529 -2.322136 -0.074914314 -1.6268399 -1.5137733 -1.5484936 -2.2984443 -1.87272 -1.6059493 -1.4193108 0.6130007 -0.491395 -3.8679206 -2.152349 -1.6827719 -2.0685337 -1.7348213 5.336545 -2.8586605 -2.2041743 -2.1481102 -0.8258608 20.891273 -2.0279975 -1.5574572 -2.00738 -0.86474437
1318 -1.8866209 -2.4855957 -2.917157 -1.3561919 -3.1248431 -3.020064 -0.7670793 -1.0318624 -2.072642 -3.6822298 -1.5183183 -3.4738839 -1.6093708 1.6371801 -2.5673292 -3.09098 -0.9366065 -2.020081 -4.526363 -2.2317588 -2.493833 -2.5184743 -0.30427262 -2.1175554 -2.0491989 -1.7796172 -2.3155897 -2.270949 -4.12775 -1.6497202 -1.3193463 5.694879 -2.149905 -0.93090147 -2.0542715 -3.2612789 -2.7524152 -0.50994587 -3.3438153 -1.5902966 -1.5840636 -2.7545006 -2.880203 -2.3266659 -1.9320749 -3.297896 -3.727752 -2.184158 -2.1971729 -1.586491 -1.1347882 -0.79965806 -1.2041357 1.6535116 -1.7047962 -2.0312297 -2.3416784 -2.493202 -2.9113355 -1.7602733 -2.0530145 5.3921585 -2.208051 -1.651488 -2.0751116 -1.7309668 -0.769009 -3.6781929 -3.1560733 -2.210882 -2.7413247 -1.6535033 -1.4677457 -1.6369454 -2.3034723 -0.09620789 -1.8453276 -1.4645418 -1.4652286 -2.568081 -2.3739007 -1.6514235 -1.8206519 1.1920912 -0.51032764 -4.406489 -2.2515295 -1.7133147 -2.2836752 -1.7892208 6.937597 -3.3497446 -2.5446107 -2.2816951 -1.2982454 20.761173 -2.2060869 -2.0804098 -2.5988767 -1.0911249
2662 -2.5796916 -1.1877593 -2.0168746 -1.7421643 -2.3110294 -3.6482828 -0.16530989 -0.25953436 -1.6394554 -3.8393 -1.160814 -3.1615808 -1.1654062 3.4231756 -2.0398805 -3.5054176 1.8333969 -3.1878405 -4.413962 -1.3104174 -2.4049554 -2.1166022 -0.23305777 -2.0559974 -2.6836264 -1.5535239 -1.9549369 -2.3532155 -3.8502648 -1.3378356 -1.187978 9.583902 -1.6270131 -0.36259803 -1.5767332 -3.4734292 -1.8264259 -0.90890914 -3.0470297 -1.4345013 -1.2587008 -1.9802868 -1.8451351 -1.8729181 -1.5059704 -2.69769 -2.9937575 -1.0260094 -2.0908668 -1.6229922 -1.4193383 -0.37366417 -1.0995431 4.5130954 -1.417753 -1.750354 -2.0463798 -3.6560504 -2.1687295 -1.5569321 -1.3584973 6.627552 -1.7046145 -1.4709679 -2.9335325 -1.6863317 -0.7137434 -3.1149986 -2.542226 -1.8650318 -2.293462 -1.3581252 -1.0338113 -2.064406 -1.9404522 2.2896414 -1.6090777 -1.1866692 -1.2310404 -2.0579393 -1.546058 -1.5648634 -1.8189173 4.1258135 -0.6964906 -4.304352 -1.4820435 -1.6359059 -1.0015261 -1.9141337 11.779348 -3.0828578 -1.6477337 -1.6532449 -0.55656475 26.43933 -1.7145213 -1.7580837 -2.598477 0.5355882
13 -1.3178947 -3.1065958 -4.176263 2.3435798 -3.980999 -3.2403715 2.1717496 -1.4856046 -2.5177283 -5.0626144 -2.0383937 -5.2269945 -2.6623476 -0.44641897 -3.599327 -3.0340095 -1.2233349 -2.7538795 -5.875168 -2.9728494 -2.348043 -2.047835 -0.889042 -3.2147 -1.0575551 -2.1294425 -3.1840143 -2.1212208 -5.622059 -2.5167253 -2.0420198 3.410882 -2.495207 -1.7590964 -2.7613392 -3.353833 -4.10693 9.20823 -5.0533276 -2.3220165 -2.2699208 -2.8253667 -3.0169191 -3.316089 -2.7533739 -5.0034413 -5.0648203 -2.687106 -3.0137465 -2.174805 -0.7648401 -1.9502085 -2.0798352 -0.47887164 -2.4259114 -2.9538436 -3.44646 -1.9004549 -4.4099817 -2.8110235 -2.990575 1.6453725 -2.7302957 -2.4097655 -2.7581346 -2.2595232 -0.9639477 -4.6910024 -3.2927113 -2.107374 -4.2132363 -2.5610716 -2.0225663 -1.0594555 -3.5714822 -0.44053766 -2.4960558 -2.3405354 -2.358318 -3.4100215 -3.4226024 -2.434675 -2.969642 -0.59738237 -0.5190576 -5.783585 -3.126308 -2.4933107 -3.133764 -2.9397829 3.9504018 -4.6338515 -2.346429 -3.26835 -2.280902 25.404255 -3.1249092 -2.7135494 -3.0216331 -1.2634931
1810 -11.771184 -24.263582 -29.26457 -5.17234 -40.068104 -32.003544 0.5507301 -8.403567 -26.875525 -43.570534 -16.869627 -43.661457 -12.999305 55.61029 -25.709518 -32.205597 -10.256115 -19.76045 -51.55326 -29.913456 -21.462887 -17.210226 3.814643 -25.800781 -9.870188 -14.499015 -21.862455 -29.04244 -47.96171 -10.209464 -9.091894 14.852658 -18.716387 -6.501873 -28.012959 -32.218513 -35.320515 61.600586 -43.065926 -18.121212 -15.633887 -23.51732 -22.147041 -21.230593 -22.388609 -39.00784 -42.760773 -16.461664 -23.134066 -17.893616 -5.5406394 -6.8165183 -17.99413 43.678165 -16.396618 -20.411554 -23.528536 -13.917808 -36.58425 -13.909543 -28.335505 76.36279 -29.57793 -14.728187 -24.569883 -22.395254 -15.337443 -39.698105 -28.992172 -19.162172 -32.106575 -15.238581 -13.570973 2.7410254 -21.621729 13.006532 -18.940083 -9.869857 -10.226608 -24.8198 -32.719456 -14.6282215 -25.121347 41.29458 -2.8824832 -49.96757 -20.2305 -15.790651 -22.684814 -15.6203985 84.96963 -42.318653 -19.340681 -21.196295 -19.030012 151.85477 -22.366388 -26.704838 -26.113886 -12.062415
1701 -33.386288 -16.544619 -21.437437 -38.662136 -8.1449995 -22.55761 -15.179624 -13.02547 -19.325264 -21.992346 -19.265621 -13.33855 -16.083939 -4.3467417 -21.057407 -20.049875 -8.837269 -21.02324 -27.874952 -4.0324297 -24.904282 -31.614826 -11.085732 -18.260452 -45.116257 -28.323074 -21.956793 -21.865595 -23.261318 -21.072073 -18.294292 135.26364 -26.95348 -9.847758 -2.8853128 -25.834284 4.3102202 -28.747385 -8.706953 -21.728874 -19.174797 -18.27837 -18.40914 -22.140112 -21.545265 -10.541425 -14.204953 -20.795164 -25.318724 -20.02469 -25.33341 -5.7119203 -17.266815 20.32857 -20.051283 -20.845886 -22.055052 -48.088406 -0.2899551 -22.95374 -1.485381 42.577065 -7.3604355 -19.928907 -31.21691 -19.503508 -15.874379 -18.742325 -21.944221 -8.487927 -11.042701 -19.366728 -18.679956 -41.182903 -18.304655 -14.340525 -16.813074 -18.894993 -18.75378 -24.066542 5.971299 -21.881052 -7.042093 7.759896 -4.0234585 -28.787216 -22.25407 -21.42179 -19.115324 -22.381306 76.67906 -8.292541 -19.719913 -19.575413 -1.026124 277.7183 -20.759073 -3.5702293 -19.958029 -11.3455
14 -2.7544208 -2.1334531 -2.4234362 -4.299213 -0.82071877 -2.7483263 -1.8609873 -1.3211582 -1.4941895 -2.6837234 -1.57569 -1.7915516 -1.973224 1.154042 -2.4591036 -3.0038898 -0.9163476 -2.2409205 -3.0319662 2.1166434 -2.6416934 -3.5855114 -0.36592922 -1.4208989 -4.335197 -2.2402902 -2.7245119 -2.2961087 -2.7067819 -2.3526351 -1.9970372 15.315784 -2.4668367 -0.86053354 1.1150024 -3.1465404 2.9021363 -4.576574 -1.0484755 -1.7796421 -1.9117876 -2.8667028 -3.1440723 -2.504295 -1.831597 -0.3511105 -0.78266174 -2.0811722 -2.3937876 -1.7081383 -2.1284478 -0.58231944 -0.730357 1.9884475 -2.1073468 -2.2273936 -2.2552764 -5.3550987 -0.040534116 -2.4955616 2.8794003 6.449876 -0.10199422 -2.1117814 -2.0976837 -1.6600059 -0.16497214 -1.5432642 -2.6365318 -2.4333456 -0.16743802 -2.0894363 -1.866194 -5.068988 -2.413223 -1.1183712 -1.9949547 -2.1517208 -2.0957189 -2.4525778 3.1470842 -2.1931598 1.0805243 0.8163126 -1.1723764 -2.9418113 -2.5038385 -2.0928812 -1.9019995 -1.9794998 6.242131 -0.48188415 -2.905934 -2.0787756 5.5616426 35.846504 -2.223414 -0.1805472 -1.7892741 -0.96645254
2034 -29.241316 -13.132705 -9.511548 -29.002878 -6.928165 -19.29209 -11.045733 -9.062771 -6.6420016 -13.090713 -9.965735 -8.474748 -9.485828 2.8147242 -12.40129 -16.50371 -7.6839013 -9.160888 -20.97985 -1.9387287 -19.723608 -21.340075 -3.1757314 -0.30195197 -30.256397 -15.800403 -12.721857 -9.71682 -15.713371 -9.416733 -8.963811 79.79607 -17.759405 -2.1607552 -2.1693923 -18.464924 5.9158387 -28.614836 -7.2138915 -8.072591 -11.311473 -18.25252 -19.364002 -13.310828 -9.253386 -3.4955456 -8.816105 -14.449846 -12.180282 -9.416841 -16.236475 -1.8862013 7.6210294 15.164073 -11.196191 -11.08285 -9.327243 -27.006332 8.679356 -10.158252 -1.3275031 50.742516 -5.0642667 -10.638541 -10.271514 -1.5891643 -0.76346654 -11.292657 -19.968847 -14.533177 -2.4137866 -10.980479 -10.166197 -27.470905 -11.988555 -7.2726836 -9.679131 -8.5938635 -7.891187 -13.390472 9.702419 -10.217404 -0.32448828 7.1865296 -9.982477 -19.40916 -10.57174 -9.008765 -12.230532 -9.152546 59.17693 -8.56758 -19.05181 -9.850112 0.9751766 124.44924 -12.833777 -4.3640265 -13.1245165 -8.210171
2075 -1.6199114 -1.8061112 -1.5218923 -3.3190434 -0.049742438 -1.4310817 -1.7424277 -1.3647585 -1.0940036 -1.4988971 -1.0879645 -1.0543498 -1.6808207 -1.4118303 -1.7514585 -1.5612879 -1.082964 -1.1755852 -1.736949 0.97792244 -1.5459939 -2.6339257 -1.3820862 -1.5421119 -3.278061 -1.7107657 -2.0016875 -1.0523626 -1.823582 -1.8480581 -1.6351713 14.006179 -2.347266 -0.5178466 1.0709455 -1.7542819 1.9507773 -3.0874512 -0.41259727 -1.6135386 -1.4827247 -2.0397632 -2.570698 -2.0363 -1.3645438 -0.1547238 -0.13424163 -1.6504265 -1.7167454 -1.1438535 -1.9363381 -1.1488004 -1.3340889 -1.0704721 -1.591127 -1.5957125 -1.8155679 -3.624979 0.6417185 -1.9127665 1.663421 -0.43941924 -0.006908584 -1.6135937 -1.2504643 -1.2802997 -0.2325199 -1.0233155 -2.1081426 -1.3924607 -0.16646914 -1.6648773 -1.397448 -4.006563 -1.64997 -1.2735702 -1.431626 -1.7913704 -1.7196144 -1.6039795 2.5901513 -1.6618804 -0.096546054 -1.2736602 -1.1673137 -1.8120186 -2.1582716 -1.4973894 -1.6003662 -1.5910622 -0.52237463 -0.02992103 -2.4365554 -1.4008043 1.2964079 25.126322 -1.7469357 -0.1760911 -1.5495611 -1.1207618
158 -1.8531897 -2.7573411 -3.2069967 -2.7603936 -1.1772193 -2.4644952 -1.2435087 -1.6647452 -1.4673022 -3.0080078 -1.7700738 -2.4961512 -2.46992 -0.15528749 -2.9868016 -2.5074477 -1.3939497 -1.879665 -3.396506 -0.19391172 -2.424653 -3.0063603 -0.5802693 -1.9185603 -3.0563688 -2.078454 -3.049757 -1.5785049 -3.2884471 -2.6848137 -2.2380211 11.76617 -2.402872 -1.4636048 -0.2669566 -2.870726 -0.5431822 -2.461867 -1.8847691 -1.8532552 -2.161083 -3.1732762 -3.6105688 -3.0413194 -2.1252546 -1.4147902 -1.5626898 -2.7199457 -2.5659168 -1.7670087 -1.5552193 -1.1761681 -1.1257371 -0.5469266 -2.3802023 -2.5773335 -2.6763563 -4.145328 -1.1143793 -2.7908216 -0.108290516 2.0764549 -0.37936234 -2.425863 -1.442422 -1.6001037 0.23104072 -2.0355694 -2.7762413 -2.3900268 -0.8381762 -2.35669 -2.1420476 -4.175049 -2.9983747 -0.8947846 -2.152635 -2.5317676 -2.508548 -2.8061254 -0.30975574 -2.40953 -0.21369448 -0.6132868 -1.0407052 -3.3334954 -3.1003382 -2.3153007 -2.7051597 -2.2598836 1.5417769 -1.3490677 -3.0639718 -2.651531 1.3616071 35.325638 -2.6686904 -0.472013 -1.7033513 -1.436009
2077 -1.6617107 -2.85833 -3.437125 -2.0332258 -2.0254638 -2.5093474 -0.5887101 -1.4155555 -1.447503 -3.355402 -1.4901464 -3.245842 -2.4428136 -0.28692266 -3.10097 -2.6389139 -1.2098954 -2.2508953 -3.826597 -0.9301739 -1.761357 -2.4470794 -0.8830349 -1.8992245 -2.40365 -2.0154681 -3.007022 -1.6373436 -3.6802647 -2.4624217 -2.0344155 9.1872225 -2.497035 -1.4021137 -0.8356636 -2.9183233 -1.7336686 -0.6588673 -2.9414644 -1.8093271 -2.0380547 -2.5438821 -2.8027372 -3.07773 -2.2428071 -2.384645 -2.6043966 -2.1117995 -2.7207906 -1.6255124 -1.1092848 -1.5374163 -1.1720598 -0.4162942 -2.2983449 -2.653424 -2.742466 -3.7280452 -2.062741 -2.7365031 -0.8321396 1.2090079 -0.9756735 -2.2911007 -1.8219041 -1.6612564 -0.15820208 -2.801462 -2.531496 -1.8588234 -2.0367723 -2.2956035 -1.8893903 -3.3147047 -3.0616035 -0.8940058 -2.1490939 -2.3224924 -2.3416185 -2.8327954 -1.212874 -2.3213677 -1.2058804 -0.481191 -0.95567816 -3.8107598 -3.0007033 -2.3130524 -2.6419017 -2.4022737 1.2254546 -2.273119 -2.2860296 -2.735933 -0.427723 27.838015 -2.620714 -1.0044565 -1.9674752 -1.2456921
2668 -2.1323986 -2.7126234 -3.3590183 -3.5888727 -1.1505913 -2.7094152 -1.4344013 -1.412115 -1.2686208 -2.9706764 -1.6364866 -2.3695188 -2.3895671 1.143052 -3.074778 -2.949617 -1.2321969 -2.047791 -3.3833692 1.133554 -2.2900882 -3.147762 -0.47498807 -1.6534928 -3.5825856 -2.1463425 -3.0009887 -1.9488629 -3.015843 -2.500722 -2.0233686 11.953547 -2.3232229 -1.4314759 0.598331 -3.2022767 -0.3377547 -2.9800565 -1.7843869 -1.575102 -2.0237908 -3.186292 -3.6118965 -3.052155 -2.1615198 -1.090662 -1.3864937 -2.3382113 -2.5879676 -1.5925406 -1.4223598 -0.93017864 -0.7411896 0.1039027 -2.2304044 -2.6100202 -2.7858374 -4.9444337 -0.8543114 -2.7565176 1.698093 3.8588276 -0.22441493 -2.3288438 -1.4062947 -1.6144361 0.6471102 -1.7981161 -2.8089721 -2.568386 -0.675892 -2.2560608 -1.9420947 -4.829848 -3.021075 -0.775932 -2.1731708 -2.3964994 -2.4622648 -2.877052 -0.018129801 -2.3693712 -0.002461958 0.024783969 -1.1169581 -3.297547 -3.080417 -2.255888 -2.480678 -2.1365492 3.737976 -1.195235 -3.0074842 -2.6428382 4.0798845 35.8327 -2.5754201 -0.22057794 -1.614117 -1.3428442
15 -1.4343971 -2.504445 -3.252938 -1.4112364 -1.8603642 -2.2595437 0.08225918 -1.4939156 -1.3714101 -3.18569 -1.8525952 -2.8534636 -2.406915 -0.20812154 -3.1782494 -2.648989 -1.1658446 -1.5602818 -3.4993317 -0.74718726 -1.8999754 -2.0117764 -0.47776875 -2.013909 -1.8680048 -1.9196123 -2.8730567 -1.7393086 -3.2270901 -2.512268 -2.064868 8.265271 -2.0736847 -1.4995732 -1.0402613 -2.9022968 -1.4992667 -0.61740845 -2.3954105 -1.9121548 -2.1222634 -2.6732426 -2.8199706 -3.0859592 -2.3583362 -2.4246585 -2.495637 -2.015485 -2.6951728 -1.8710078 -0.8746792 -1.6488749 -1.6025152 -0.7524253 -2.2465448 -2.7187471 -2.6052465 -3.1016023 -1.9550123 -2.634469 -1.0566175 0.27135405 -1.0925385 -2.2435486 -1.7807487 -1.7395613 -0.6090915 -2.4759488 -2.388081 -2.0390813 -1.918071 -2.2728672 -1.9090817 -2.9102163 -3.1232126 -0.18883684 -2.0145586 -2.4046497 -2.430755 -2.6205738 -1.0110747 -2.3940625 -0.90099925 -0.72183114 -1.1596649 -3.396661 -2.8229725 -2.3483877 -2.5106456 -2.3590143 3.0369215 -2.1416585 -2.2065113 -2.590549 -0.44332775 31.871824 -2.619005 -1.184376 -1.9076452 -1.1990021
2367 -2.6080935 -5.1110196 -6.9743333 -4.034908 -4.167378 -6.5219574 -0.6944065 -1.8586674 -1.97833 -7.4953027 -2.538674 -6.4372277 -4.0989704 10.576682 -6.350269 -7.43555 -2.1418064 -3.6415005 -8.41026 -0.79198176 -4.740424 -5.1692047 1.75238 -2.7304132 -4.392333 -3.9571855 -5.2905426 -3.596772 -7.7794747 -4.022493 -3.1691892 7.91149 -4.2363505 -2.7474716 -1.1139205 -7.809082 -3.6663823 -4.7299 -5.4200335 -2.1315134 -3.2956116 -7.0330863 -7.5467668 -5.786992 -3.6649494 -5.0374465 -5.649015 -5.0889754 -4.315355 -2.5945804 -0.55101645 -1.5699524 -0.6762337 4.0349116 -3.6104577 -4.4492593 -4.8748984 -7.115867 -4.3670974 -4.1853166 -1.0790089 10.619702 -1.6151882 -3.6770515 -2.9971793 -1.9660454 3.329003 -5.6373153 -5.830334 -6.232882 -3.0998762 -3.4898045 -2.8133838 -6.2942824 -5.8408127 3.9481983 -4.595014 -3.6328301 -3.673992 -6.188871 -2.4043367 -3.692183 -0.93405944 1.9237821 -2.9028213 -8.11737 -5.439346 -3.5309646 -5.1055045 -2.9209564 12.813994 -5.3630075 -5.7138424 -5.085268 3.8180707 68.531906 -4.9979434 -1.7776686 -3.243866 -2.2564118
1093 -1.4990062 -2.8640106 -3.4139671 -1.4072571 -2.2845197 -2.1256464 -0.11927249 -1.8105307 -1.6879978 -3.3241794 -2.1587622 -2.9964724 -2.5188284 -0.3590652 -3.382202 -2.7383614 -1.4662884 -1.346399 -3.6871517 -1.1843609 -2.0681508 -2.2469356 -0.51579374 -2.1425407 -1.8204829 -2.0965014 -3.0047157 -1.9746628 -3.415516 -2.6888075 -2.23259 9.042546 -2.3925636 -1.5376227 -1.4405669 -3.0303333 -1.72284 -0.6769673 -2.5185256 -2.1838167 -2.429879 -2.9628143 -3.1223354 -3.2562883 -2.630987 -2.6286123 -2.815812 -2.0078628 -2.8956537 -2.1513526 -0.9976001 -1.9052638 -1.8894253 -1.0752014 -2.4957197 -2.9075594 -2.693939 -2.9366245 -2.1426494 -2.7575293 -1.4560865 -0.103171304 -1.4945084 -2.4710202 -1.9006087 -1.9657555 -1.0380625 -2.7831972 -2.7081153 -2.1411412 -2.1543794 -2.4136899 -2.1463156 -2.933077 -3.262122 -0.22360925 -2.1260958 -2.6091359 -2.5449276 -2.7303274 -1.2751688 -2.573013 -1.014262 -1.0066398 -1.3178438 -3.5987058 -3.089916 -2.4998672 -2.876638 -2.4666722 2.6943052 -2.315476 -2.4899776 -2.7631767 -0.8991882 31.64374 -2.848248 -1.5325903 -2.2249982 -1.5079192
1090 -2.259321 -2.6755896 -3.5449955 -1.991352 -2.4569366 -3.4695828 -0.34455627 -1.6474828 -2.149939 -4.467703 -2.3689022 -3.70979 -2.6428242 0.07711068 -3.7123458 -4.118549 -1.0205122 -2.3956773 -4.875033 -1.004096 -3.0421112 -2.9351923 -0.3783271 -2.7331793 -2.937083 -2.5837743 -3.3985023 -2.8024004 -4.441635 -2.8318465 -2.4408624 13.645915 -2.6961823 -1.421034 -1.6133648 -4.2868857 -1.7164643 -2.1775606 -2.921911 -2.5824487 -2.5538409 -3.7145784 -3.9759285 -3.6443832 -2.835286 -2.9818947 -3.1261678 -2.2524347 -3.2745633 -2.581524 -1.2781979 -1.6662464 -2.1116056 -0.664847 -2.701902 -3.0781877 -3.0083537 -4.224405 -2.335319 -2.990058 -1.5084511 2.56108 -1.636575 -2.6800363 -2.9468257 -2.2936952 -1.0681381 -3.3798203 -3.6925035 -2.9966984 -2.458377 -2.6524796 -2.2574456 -3.71721 -3.5647264 1.539674 -2.5440278 -2.7419376 -2.742111 -3.1023881 -1.2085203 -2.8699532 -1.218163 -0.68965185 -1.624507 -4.7381315 -3.2306793 -2.7519636 -2.7296786 -2.730869 7.6358194 -2.867794 -3.2371247 -2.804862 -0.5643337 43.776062 -3.1217844 -1.8025668 -3.1144404 -1.15929
1271 -1.238314 -2.7093885 -3.3754976 -0.7111853 -2.692408 -1.8943512 0.5659728 -1.7091805 -1.8850641 -3.4088833 -2.135093 -3.1692894 -2.4218404 -0.6085436 -3.2313135 -2.4029815 -1.3763278 -1.4531428 -3.8305473 -1.8055584 -1.8797187 -1.962571 -0.61679566 -2.3809476 -1.3174127 -1.9952074 -2.8404078 -1.8904339 -3.4968998 -2.587093 -2.104095 6.875373 -2.2304742 -1.5156926 -1.9507799 -2.7398353 -2.325773 3.1785784 -2.93324 -2.218252 -2.341483 -2.5248992 -2.5897443 -3.0774593 -2.5582597 -3.2133424 -3.3354309 -1.7142648 -2.8523135 -2.1228988 -1.0097108 -2.1207042 -2.1904638 -1.1772693 -2.3840444 -2.8396456 -2.6250324 -2.1565642 -2.6551225 -2.6737597 -2.0660503 -0.29198638 -1.9239578 -2.3869016 -2.0767574 -2.1305919 -1.3823735 -3.1112666 -2.5645978 -1.6508414 -2.774192 -2.332959 -2.078451 -2.0211236 -3.101895 -0.40635943 -2.013008 -2.5053458 -2.413998 -2.6132412 -1.896402 -2.4751534 -1.6499697 -1.0505146 -0.93516266 -3.7259862 -2.8405445 -2.4984028 -2.7877142 -2.6066058 1.8219872 -2.7570493 -2.0505898 -2.745652 -1.6296567 25.47183 -2.6922402 -1.8921483 -2.3829024 -1.4198797
16 -3.1113398 -3.4158936 -4.552282 -1.5680169 -6.040123 -5.683435 -0.24733888 -1.3217586 -4.410053 -7.331838 -2.7188873 -6.9279747 -2.384219 4.3911757 -4.2505546 -5.603714 -0.95049375 -4.3161917 -8.63672 -4.373561 -3.92317 -3.4898415 -0.44452506 -4.3680263 -2.8820884 -2.9271908 -3.8743742 -4.764798 -7.939956 -2.3595777 -2.0080574 8.0664015 -3.5258343 -1.1306916 -4.155481 -5.7651 -4.9620566 2.6180592 -6.8266807 -3.201606 -2.7403812 -3.6560676 -3.531121 -3.7364228 -3.6468067 -6.3581834 -6.9398856 -2.4896665 -4.168554 -3.117709 -1.8830864 -1.3965132 -3.0211282 6.8357296 -2.9892612 -3.342182 -3.963866 -3.7491596 -5.435584 -2.8588245 -4.1931343 12.3784685 -4.4486923 -2.704419 -5.026775 -3.5827637 -2.6260433 -6.8682313 -4.8475833 -2.9151046 -5.4500823 -2.7366047 -2.369225 -1.427438 -3.6559837 0.03331542 -3.258955 -2.0705366 -2.105067 -4.19582 -4.5322585 -2.815188 -4.2087502 5.305547 -0.6763687 -8.536979 -3.3097584 -2.9169261 -3.2274017 -3.3250942 16.14652 -6.535385 -3.171335 -3.5471127 -2.8411603 32.65919 -3.765497 -4.065877 -4.908575 -1.1973909
2444 -2.2069519 -3.9304273 -4.6497293 -3.048012 -3.0941212 -3.9029553 -1.3816344 -2.22906 -2.3812242 -4.862664 -2.3965366 -4.408924 -3.32635 4.898024 -4.3305407 -3.9056878 -2.2961998 -2.4972532 -5.4887323 -1.1382602 -3.1564546 -3.4479394 1.2733628 -2.1403785 -3.2675645 -1.8403829 -4.063241 -3.1234078 -5.185298 -2.9793944 -2.5606797 12.126762 -2.598198 -1.9763645 -1.1985638 -4.0962315 -1.7359527 -0.72295254 -3.846199 -1.8260529 -2.754952 -4.2061963 -4.5234575 -4.2025437 -3.010764 -2.6627018 -3.2694337 -2.7506502 -3.4920385 -2.230354 -1.4688019 -1.0113039 -1.2739171 4.297023 -2.9111493 -3.6033325 -3.5216634 -4.803354 -2.418086 -3.3803048 -1.1705614 9.206767 -1.6806477 -3.016482 -1.27604 -2.0221446 -0.5078913 -3.4035847 -3.9191628 -3.7159517 -1.971315 -3.073342 -2.5543659 -4.191893 -4.190676 -0.90386385 -2.7215204 -2.9204834 -2.9277375 -3.4000652 -1.5343602 -3.1862676 -0.85703784 3.8295932 -0.63318807 -5.250316 -3.8768766 -3.0232294 -3.8772564 -2.7497544 9.322566 -3.2996445 -3.8683934 -3.696249 -0.17785658 39.52488 -3.845353 -1.5462803 -2.4068341 -2.4349885
1632 -1.2647532 -3.0521095 -3.9554334 -1.2339996 -3.2046025 -3.4862683 -0.57102823 -1.4301295 -1.9608996 -4.559536 -1.7356275 -4.22627 -2.4930742 5.065994 -3.5525525 -3.4092774 -1.4553808 -2.438711 -5.1648836 -1.5631036 -2.426274 -2.4266706 1.0997689 -2.071808 -1.7707323 -1.3718367 -3.1493766 -2.3052545 -4.827934 -2.1916473 -1.8326476 5.730839 -1.8559607 -1.543603 -1.5722361 -3.617646 -2.569481 2.4367094 -4.087095 -1.3868339 -2.0555828 -3.424031 -3.5836964 -3.2535405 -2.3489835 -3.259697 -3.5204773 -2.1219592 -2.771601 -1.7060107 -0.78652394 -1.0555995 -1.0430793 3.0749393 -2.2610748 -2.8552508 -2.9357438 -3.0567558 -3.0950978 -2.5614996 -1.6233311 6.6665726 -1.8563839 -2.2760246 -1.2432879 -1.6632296 -0.32811764 -3.3856938 -3.1673882 -3.0211504 -2.4330394 -2.259341 -1.8754082 -2.2935026 -3.377897 -0.3849601 -2.2502754 -2.144972 -2.16497 -2.9592204 -2.1501596 -2.3067796 -1.4611117 2.7740567 -0.53274024 -4.974555 -2.958269 -2.3010218 -2.930202 -2.2277455 6.736535 -3.6310272 -2.8688753 -2.9521177 -0.66092116 28.485994 -2.9857154 -1.8042246 -2.172229 -1.4995564
970 -1.4995998 -3.88984 -4.420497 -3.1189992 -2.1776977 -3.0861263 -1.566684 -2.171237 -1.3528744 -3.6230628 -1.8593807 -3.2876728 -3.2387135 4.018106 -4.021803 -3.1712947 -2.1916804 -1.6017138 -4.099599 -0.3391703 -2.4008584 -3.2134526 0.88780665 -1.6216307 -2.9198205 -1.506009 -3.717466 -1.8812954 -3.9094937 -2.9575098 -2.5835881 13.0446205 -2.121925 -1.8674154 -0.4569644 -3.5542228 -1.1593636 -1.376275 -2.7612135 -1.3116838 -2.46957 -4.3054333 -4.7687936 -3.9104965 -2.5707648 -1.8469454 -2.1507297 -2.6547182 -2.9792342 -1.6007999 -1.2722043 -1.1581548 -0.7429628 0.3045522 -2.7254558 -3.3871706 -3.3059387 -4.4344497 -1.8684124 -3.2118607 -0.28065607 4.2762394 -0.84174365 -2.8303783 -0.048319865 -1.4398571 1.6025596 -2.3819687 -3.3714375 -3.6148822 -0.9316115 -2.7317023 -2.4034004 -4.503258 -3.955568 -0.95350677 -2.3631802 -3.0109222 -2.9719021 -3.153633 -0.83236617 -2.97087 -0.06428888 0.5408314 -0.7577297 -3.8060253 -3.8620598 -2.7447665 -3.6042535 -2.2853224 2.7110953 -2.222602 -3.9324093 -3.4850972 2.3649156 38.424076 -3.4618301 -0.9226956 -1.653273 -2.2007625
2642 -0.90291816 -3.243935 -3.7695045 -2.0327127 -1.9765629 -2.1745946 -0.9427706 -1.9371519 -1.3132448 -3.1154518 -1.7106135 -2.7668893 -2.689225 2.2268064 -3.4098802 -2.198424 -2.0908597 -1.0516455 -3.3467667 -0.5888445 -1.6496031 -2.1820772 -0.07869854 -1.4342651 -1.8605196 -1.3421062 -3.0941489 -1.6910003 -3.208392 -2.4193895 -2.1161947 6.8883433 -1.9308405 -1.7367516 -0.5601975 -2.506909 -1.2590857 0.02783537 -2.4698064 -1.2471197 -2.1569903 -2.9940286 -3.2219846 -3.2256925 -2.2771537 -1.8328927 -2.0671523 -2.020212 -2.5754845 -1.4818931 -0.7134043 -1.2316602 -0.93971884 -0.14799957 -2.3694706 -2.8856196 -2.7435393 -3.099777 -1.7520914 -2.6922781 -0.5950344 2.3479729 -0.91613865 -2.3808858 -0.4160141 -1.3139464 -0.16244702 -2.0055048 -2.288897 -2.4038856 -1.0918906 -2.3524024 -2.0286825 -3.0503852 -3.204725 -1.1564146 -2.2326248 -2.4829216 -2.4712772 -2.802296 -0.9735305 -2.4883876 -0.4068528 -0.020383501 -0.5623785 -3.1834736 -3.11038 -2.403215 -3.1434405 -2.0192363 1.270078 -1.9965702 -2.59731 -2.9414773 -0.05957681 26.864912 -2.9789429 -0.81944484 -1.2290083 -2.082077
17 -1.8408091 -2.5288131 -3.2857354 -2.4742415 -2.4084744 -3.413166 -1.0695599 -1.1692494 -2.0162082 -3.809735 -1.5088116 -3.3354728 -2.192659 1.6016492 -3.120856 -3.4492939 -0.94014883 -2.8181436 -4.245876 -1.1384891 -2.9122627 -3.0971785 -0.22385728 -2.2012708 -2.877508 -1.7834324 -2.9329047 -2.594087 -3.9164448 -2.2653291 -1.790758 9.945331 -2.168835 -1.2130877 -1.2844616 -3.8055046 -1.7338341 -1.0489849 -3.0287108 -1.7273769 -1.832614 -3.2941666 -3.6434205 -2.9175432 -2.2709596 -2.548547 -2.8882647 -1.9726858 -2.7510293 -1.6926655 -1.726067 -1.1123329 -1.4436171 1.2804854 -2.1449158 -2.4933515 -2.8124702 -4.1749887 -2.3184001 -2.5191584 -1.0537205 4.8290925 -1.453322 -2.0322914 -2.0088995 -2.0660543 -0.64670116 -2.9902704 -3.3177288 -2.7339218 -2.2138855 -2.1033597 -1.6281117 -3.2571285 -2.9407926 -0.048441686 -2.0679953 -2.0858517 -2.0971818 -2.7220056 -1.4743437 -2.2362778 -1.2088851 0.61592364 -1.0705246 -4.249744 -2.7881293 -2.228785 -2.4122818 -2.3301558 6.03041 -2.5487356 -3.041432 -2.528129 -0.33005878 33.867966 -2.546808 -1.550639 -2.6762547 -0.97858715
24 -3.1621234 -2.4204056 -2.5103765 -3.7164743 -1.2478825 -2.3292313 -1.5703038 -1.9191633 -1.9332571 -2.8614547 -2.2531123 -2.4254339 -2.1884677 -1.1745752 -2.6603267 -2.2765055 -1.1729043 -2.1112752 -3.2466018 -0.47607443 -2.7126212 -3.559433 -0.8207943 -2.6284947 -4.1990404 -2.4784214 -2.812331 -1.9522022 -3.044337 -2.7567108 -2.4921343 20.277143 -2.8970544 -0.9323787 -0.7131556 -2.8138206 0.026572824 -3.1539981 -1.584726 -2.8599148 -2.3706043 -2.9394665 -3.277895 -2.8263173 -2.5109513 -0.88302845 -1.2146041 -2.1636636 -2.9704568 -2.390904 -3.0108287 -1.223058 -2.3852925 -0.96569073 -2.5911522 -2.3300815 -2.8978364 -4.716074 -0.5461454 -2.703667 -0.3584238 1.2662113 -0.89125425 -2.5340688 -2.6088989 -2.3648217 -1.2258037 -1.8043737 -3.3682256 -2.0653703 -0.8842595 -2.5429826 -2.2998476 -4.6050525 -2.5767763 -0.96660805 -1.9537848 -2.6911414 -2.54053 -2.3386931 0.6775881 -2.608762 -0.19092748 -1.0391217 -1.3310717 -3.0194385 -2.8532581 -2.4724295 -2.177801 -2.5502734 4.563703 -0.92806596 -3.21252 -2.3403127 -0.11913412 42.56403 -2.620598 -0.9703123 -2.821464 -1.1201878
2140 -2.3398967 -3.395891 -4.613275 1.1931847 -3.8145807 -3.286063 1.580505 -1.651198 -1.547424 -4.898206 -2.2625802 -4.33927 -3.1303728 2.4579685 -3.9386513 -3.4102478 -1.7615689 -2.6360905 -5.882451 -2.1590126 -2.5964305 -2.1699593 1.2938632 -1.5685405 -1.4553311 -1.8431962 -3.539945 -2.0145185 -5.1333356 -2.6601782 -2.444857 0.696504 -2.131934 -1.895346 -2.162271 -3.394523 -3.3126163 8.049767 -4.6732764 -1.7964054 -2.443854 -3.386168 -3.2800834 -3.7349763 -2.7433517 -4.217294 -4.5022936 -2.8289049 -3.3065183 -2.2642148 -0.5598951 -1.8736153 -0.38018608 -0.1250298 -2.6987576 -3.300399 -3.2438374 -2.3997684 -3.942185 -2.9979532 -2.4508703 4.861444 -2.3311489 -2.6471756 -1.6577152 -1.2450393 0.30885923 -4.0713167 -3.1559207 -3.091109 -3.2241056 -2.6976616 -2.3178048 -1.238702 -4.0248375 -0.45787558 -2.4091604 -2.5092933 -2.496742 -3.1803284 -2.8451557 -2.5862608 -1.9200696 -0.32387215 -0.79667735 -5.405953 -3.125152 -2.7339108 -3.6101863 -2.8047743 6.488451 -4.4889197 -2.778689 -3.495906 -1.2116276 26.946825 -3.2235 -2.3117864 -2.2866478 -1.5717167
1316 -1.9969553 -3.238725 -4.4769187 -0.15690976 -3.1130807 -2.9163177 0.63159275 -1.637027 -1.4195359 -4.3348536 -2.1362576 -3.7827003 -3.053438 1.0901177 -3.7583776 -2.9789908 -1.6813082 -2.4045062 -5.1552577 -1.7184772 -2.3669825 -2.1465402 -0.06866983 -1.5903682 -1.6926962 -1.9217249 -3.4162672 -1.8041134 -4.5293975 -2.675168 -2.4051106 1.4481306 -2.1392498 -1.9489521 -1.7114578 -3.1027718 -2.821146 5.9128966 -3.9346974 -1.7598866 -2.3335302 -3.1377966 -3.130606 -3.609193 -2.6338289 -3.71171 -3.895418 -2.8069236 -3.13422 -2.0875394 -0.51177144 -1.7901262 -0.5067835 -0.2893847 -2.5920048 -3.2138023 -3.1508834 -2.7006245 -3.3885238 -2.9959755 -1.9171746 3.247374 -1.8270279 -2.6310925 -1.5861661 -1.2459244 0.7876946 -3.6214771 -2.8183537 -2.6573734 -2.8194854 -2.6179388 -2.2504213 -1.7494633 -3.8275726 -0.59406674 -2.4110382 -2.5443952 -2.5447452 -3.1716857 -2.3701065 -2.5787995 -1.6660284 -0.43543473 -0.7217611 -4.8298397 -3.1447816 -2.6995893 -3.4739842 -2.762931 4.4609623 -3.779043 -2.5563104 -3.3770325 -0.932205 27.021929 -3.0684505 -1.8285891 -2.051434 -1.582186
1315 -1.4981881 -3.3492386 -5.231482 7.0738163 -4.897104 -4.283768 4.856753 -1.154627 -2.2942388 -6.4194045 -2.1935706 -6.278782 -2.9479125 2.463025 -4.342832 -4.322718 -1.0516214 -3.9155438 -7.483349 -3.2871728 -2.7565928 -2.0686033 -0.33142045 -3.0133328 -0.71267456 -2.2513406 -3.7564485 -2.3092096 -6.8889656 -2.680168 -2.1966789 -0.26485452 -2.3837435 -2.016446 -3.1007774 -4.4981194 -5.1258235 14.682978 -6.382774 -2.147847 -2.4012685 -3.281105 -3.2639654 -3.8809686 -2.9596927 -6.236106 -6.319412 -2.9632697 -3.57518 -2.3667574 -0.26817465 -1.986699 -1.4643987 0.6305538 -2.6657813 -3.4678695 -3.7523649 -2.3191383 -5.7067075 -3.1384802 -3.4738908 5.5975227 -3.1107697 -2.6926022 -2.95649 -1.9980459 -0.386854 -5.7912927 -3.4958038 -2.7680256 -5.0500007 -2.657821 -2.187092 -0.71604544 -4.2667155 0.39536673 -2.7932544 -2.4357572 -2.525318 -3.9161084 -4.2854557 -2.6251662 -3.5226686 -0.10902262 -0.57752794 -7.297363 -3.4349942 -2.8023367 -3.5080323 -3.25487 7.5370526 -6.324142 -2.4133768 -3.829918 -2.1809168 28.147308 -3.40898 -3.049011 -3.1626928 -1.060031
927 -1.9998312 -2.1412544 -2.834518 -2.3336704 -1.8859795 -3.2054355 -1.024879 -0.9025176 -1.471816 -3.350589 -1.2713537 -2.8873084 -1.8618135 3.0684261 -2.6102097 -3.2118824 -0.67360204 -2.6614556 -3.7904556 -0.63015586 -2.6478698 -2.8269503 -0.007347274 -1.6051464 -2.7838016 -1.5548763 -2.4733324 -1.9822674 -3.4587257 -1.9075148 -1.5497026 8.970746 -1.8369951 -0.96757156 -0.75821733 -3.4102166 -1.267592 -1.5401702 -2.5744207 -1.315704 -1.5052409 -3.0033584 -3.264542 -2.4761474 -1.8083674 -1.9692177 -2.294038 -1.892031 -2.256132 -1.3878617 -1.4838402 -0.6672918 -0.7396056 2.5012908 -1.7849363 -2.0970702 -2.304885 -3.937756 -1.7762825 -2.1063464 -0.543165 5.828969 -0.9466223 -1.7481396 -1.5689543 -1.4155943 -0.12193306 -2.4318516 -2.8842773 -2.6137643 -1.554056 -1.7720326 -1.408884 -3.1772168 -2.506708 0.17611593 -1.7182287 -1.7633799 -1.7657789 -2.314292 -1.001418 -1.8466271 -0.7480919 1.5623589 -0.9652917 -3.7144299 -2.3470712 -1.8466204 -1.9878458 -1.8682655 6.6620064 -2.1720016 -2.8094482 -2.1402378 0.83566797 30.796618 -2.0932045 -1.0504963 -2.106962 -0.72007847
18 -3.846031 -2.7659853 -3.7522118 -2.4376283 -2.0096092 -3.5248222 -0.94314843 -1.4935856 -1.2970686 -3.786553 -2.079578 -2.6785283 -2.9172573 -0.013468439 -3.493737 -3.4787233 -1.1688356 -2.9003332 -4.941503 -0.6293764 -3.2134805 -3.2078145 -0.46978256 -1.0680816 -4.023354 -2.4927447 -3.3406198 -1.8359963 -3.9425886 -2.9680138 -2.5248802 9.823378 -2.3872602 -1.6405386 -0.8838474 -3.6723945 -1.099636 -2.2407978 -2.6213298 -1.6001862 -2.4144142 -3.4127297 -3.3819973 -3.4781919 -2.2772279 -2.4513838 -2.8348246 -3.014715 -2.8724258 -1.9701004 -1.3962634 -1.2423816 0.63497233 1.3075751 -2.541982 -3.1755145 -2.8805082 -4.6635914 -1.649236 -3.161287 -0.76995623 6.615095 -1.0215876 -2.7180147 -2.1410565 -0.8585626 0.9820328 -3.1186545 -3.2220047 -2.7984157 -1.8285706 -2.7412283 -2.2927473 -4.047727 -3.5434315 -1.0885869 -2.0339065 -2.7578833 -2.7302482 -3.0205815 -0.85127324 -2.8215814 -0.9632558 0.0054042935 -0.7138831 -4.4984255 -2.769338 -2.7022665 -2.9078474 -3.0057344 10.503305 -2.7612092 -3.0333245 -3.124051 0.4553169 32.591534 -2.9987714 -1.1421595 -2.1849353 -1.2387259
2082 -1.4930917 -2.3460155 -3.520726 -0.8706519 -1.3126335 -2.3670485 -0.033541955 -1.0423203 -0.42407462 -2.8981557 -1.5456688 -2.5799882 -2.3598526 3.4101477 -2.9850976 -2.341481 -0.96493036 -2.0297387 -3.4874165 -0.12360723 -1.7894667 -1.8027457 -0.07054316 -0.9289172 -1.5807568 -1.6810395 -2.7150817 -0.6324242 -3.1324055 -2.3190367 -1.9009622 2.1206377 -1.518 -1.782201 -0.100949146 -2.5476632 -1.3590677 -0.3387272 -2.351218 -1.0064298 -1.7636855 -2.493346 -2.584289 -2.8062742 -1.7950697 -2.1186886 -2.1651459 -2.4659452 -2.2282155 -1.3357805 -0.35918006 -0.8172944 0.7788855 0.7396679 -1.9160932 -2.526897 -2.3486717 -3.061404 -1.6591958 -2.5105233 -0.19940995 4.1245975 -0.2862645 -2.110297 -0.8725144 -0.4496133 3.5937345 -2.077425 -1.8115284 -1.9967922 -1.2414535 -1.9672813 -1.7484163 -2.9161828 -2.9812107 -0.21812735 -1.679492 -2.1007798 -2.1665347 -2.6689022 -0.79108775 -2.026727 -0.36188734 -0.022725953 -0.5767935 -3.3791878 -2.6418633 -2.0707295 -2.535324 -2.0120206 4.2964125 -2.2723572 -1.936076 -2.7152562 1.8906405 27.167437 -2.3012955 -0.20340882 -0.8085988 -1.0069181
139 -3.8228185 -4.3930535 -5.347807 -3.2641919 -3.5453203 -4.8143764 -0.9216485 -2.3273222 -3.0014203 -5.9163117 -3.1426275 -5.0654526 -3.8418615 0.36060157 -5.0150704 -4.5909767 -1.8447472 -3.53295 -7.112728 -1.8920501 -3.9972856 -4.1691213 -0.9165926 -3.0977225 -4.7978816 -3.60684 -4.7733135 -3.322008 -6.574393 -3.9776847 -3.3679695 14.500861 -3.982631 -2.291911 -1.9075629 -4.7898517 -2.7142777 -2.0240905 -4.4112186 -3.155155 -3.466684 -4.765342 -5.077878 -4.8559375 -3.9244096 -4.2590146 -4.519485 -4.2024527 -4.332527 -3.1401799 -2.1688194 -1.6628535 -1.665595 0.12801385 -3.6450596 -4.2769117 -4.635177 -5.7913923 -3.1237283 -4.2200212 -1.7890795 7.3300858 -2.1020133 -3.825953 -3.507539 -2.4973416 -0.9306877 -4.8590474 -4.8316283 -3.4238327 -3.2110817 -3.7293568 -3.2265146 -4.899572 -4.7247987 -1.1255357 -3.4168842 -3.5754814 -3.6047878 -4.7874045 -2.1086712 -3.7325265 -1.8629557 -0.20120369 -1.2891614 -6.792123 -4.567774 -3.7815526 -4.2363396 -3.8869178 10.692542 -4.196473 -4.347383 -4.588204 -0.89344025 48.038002 -4.473822 -2.0694957 -3.7198071 -2.0001085
1786 -1.5480626 -1.9863894 -2.3320076 -2.846357 3.5490997 -0.97002137 -1.1347865 -1.3686464 0.4395777 -0.9059785 -1.3820295 -0.39228272 -2.0115576 0.20718977 -2.0771902 -1.0933517 -1.1438248 -0.7508927 -1.1029218 6.9742503 -1.3230933 -2.0932996 -0.31804112 -0.3033574 -2.6742697 -1.7686623 -2.2066736 -0.1873927 -1.0030737 -2.2130866 -1.8871378 8.903516 -1.6834697 -1.4279531 6.649705 -1.4075888 5.5641394 -3.1796467 0.96024275 -1.0076138 -1.5783699 -2.1243427 -2.4346812 -2.242901 -1.3337185 2.5121775 1.8489251 -2.3621318 -1.6720774 -1.0419134 -0.91809696 -0.41531324 1.0034343 -0.37698606 -1.759888 -1.9406608 -1.7285683 -3.701657 3.6521263 -2.2404754 7.699622 1.6383263 5.6498184 -1.9532864 -0.27059785 -0.22031581 3.9744446 -0.18992563 -1.2153287 -1.4326292 5.122487 -1.7458504 -1.7677128 -4.3318915 -2.1909356 -0.82565206 -1.3270802 -2.0485904 -2.071082 -1.8798285 6.3459992 -1.8823715 6.5608582 -0.53791946 -0.79231817 -1.0176497 -2.4062767 -1.7480773 -2.0518353 -1.3700083 -0.00346327 2.1657948 -1.9671834 -2.0256844 7.6944427 28.898912 -1.7915099 5.5761986 -0.006497598 -1.2270056
1560 -2.1500006 -2.3992105 -3.1888883 -1.6160339 -1.8237829 -2.7230663 -0.38853878 -1.2151805 -1.4420025 -3.311639 -1.8492794 -2.862279 -2.2119741 0.7698078 -2.8711088 -2.625498 -1.0211926 -1.918702 -4.0098877 -0.8977954 -2.2193594 -2.213452 -0.4901019 -1.5671369 -2.5199218 -2.038497 -2.689131 -1.7217277 -3.6586423 -2.2233403 -1.8315681 5.5231347 -2.0941904 -1.3988229 -0.8646849 -2.7547517 -1.5324671 -1.2305382 -2.5228198 -1.5615386 -1.9265369 -2.6335979 -2.6730075 -2.7216454 -2.110419 -2.3954716 -2.58826 -2.5368183 -2.3653326 -1.7391614 -0.8068285 -0.88709986 -0.5945056 0.52403367 -1.9822063 -2.4460623 -2.4633167 -3.2388012 -1.8113054 -2.4003503 -0.88387173 4.686438 -1.0520681 -2.0989857 -1.8986737 -1.1221999 -0.28438243 -2.7275226 -2.4460506 -2.05886 -1.6992369 -2.0616798 -1.8579724 -2.7357461 -2.7059357 -0.46655127 -1.9012492 -2.0287135 -2.015856 -2.759507 -1.1805016 -2.0834475 -0.9779114 -0.02637713 -0.70012015 -3.8749223 -2.5072198 -2.0767543 -2.3837562 -2.1383169 6.495226 -2.4376347 -2.2617276 -2.5268595 -0.3153793 27.06433 -2.4617612 -0.92165416 -1.7267828 -1.0886767
2145 -3.2000706 -2.1162398 -1.7946602 -5.3940606 7.485277 -1.5845616 -2.4758995 -1.5983638 0.034728408 -0.4204502 -1.347176 2.7449536 -2.12746 2.6379054 -1.9392124 -1.3033241 -1.5599909 -0.48663136 -0.9007864 10.769604 -2.2241237 -3.1283548 -0.07478454 3.634131 -4.9655147 -1.5829502 -2.0341928 -0.8749558 -0.5081684 -1.9257805 -1.8371328 11.901048 -1.7508291 -1.1129249 10.235755 -1.6105537 12.379089 -5.8566895 5.498992 -0.4181397 -1.5319811 -2.7679632 -2.995751 -2.1220615 -1.1259863 9.804451 7.787936 -2.5542064 -1.3811865 -0.8232009 -1.4588073 1.1046433 5.990746 3.402008 -1.5824429 -1.8466505 -1.2333733 -5.266062 11.461971 -1.9967978 11.86977 5.772564 7.546442 -1.7704977 1.4963354 2.1737823 4.7880793 3.5810127 -1.6010255 -2.2035196 11.518894 -1.7249489 -1.7105837 -5.930446 -1.8600483 -1.2513694 -1.0656523 -1.9470516 -1.7519327 -1.8075562 11.82045 -1.7458588 10.714794 1.7043004 -1.0638117 -0.72825617 -1.9006681 -1.5921959 -2.0918603 -1.0489931 5.0860705 7.098269 -2.9254155 -1.6595618 12.097731 30.4962 -1.7832136 8.269289 1.1453415 -1.7040201
19 -1.1773553 -2.3591783 -3.5744824 -0.15679365 -2.7692745 -2.9884877 2.3524632 -0.76733965 -1.3190049 -4.1042595 -1.4644747 -4.055919 -2.0868406 3.0233037 -3.0524015 -3.0912266 -0.6876282 -2.4780293 -4.7040668 -1.4742087 -1.8266166 -1.6719624 -0.17451482 -1.9349756 -0.9860043 -1.6349554 -2.6569324 -1.5872262 -4.3709292 -1.9454712 -1.5574026 1.4712969 -1.712043 -1.4795985 -1.4075807 -3.1915166 -2.8188083 4.103112 -3.9293568 -1.4158231 -1.7045637 -2.389321 -2.4591415 -2.7405813 -2.0934987 -3.5529618 -3.655249 -1.9974546 -2.4202719 -1.5950747 -0.33919454 -1.1368254 -0.8222887 1.5236102 -1.8575385 -2.4216676 -2.652829 -2.397698 -3.1659055 -2.2682235 -1.5605642 4.628381 -1.492994 -1.8888302 -1.8201649 -1.3554319 -0.13628447 -3.4057434 -2.310557 -2.0364807 -2.7570574 -1.8823475 -1.5425805 -1.549551 -2.9871075 0.2720912 -1.9950484 -1.769859 -1.8721554 -2.8358245 -2.1480086 -1.9080505 -1.6873388 0.9592028 -0.6633601 -4.6107817 -2.5601423 -1.9891022 -2.3023107 -2.1400898 5.6822324 -3.5912595 -1.737179 -2.6463282 -0.6790284 24.183516 -2.415837 -1.4703087 -1.8421357 -0.7111714
1939 -1.0185119 -1.6263056 -1.8868653 -1.6518993 -0.8241913 -1.6858634 -0.71573955 -0.9015841 -0.9535398 -1.8411791 -0.92113096 -1.7933077 -1.3757404 -0.05992765 -1.8244505 -1.7647895 -0.6632956 -1.3407494 -1.9677709 -0.2504506 -1.466401 -1.822905 -0.4041706 -1.3020679 -1.7030264 -1.1109302 -1.7479365 -1.1033863 -1.9684883 -1.4961772 -1.1824667 7.852056 -1.469603 -0.7411456 -0.29761025 -1.9482683 -0.5647593 -1.0048723 -1.324943 -1.0832845 -1.1463219 -1.8894485 -2.0989535 -1.7926515 -1.3129742 -1.0761524 -1.1524414 -1.4445409 -1.5641489 -0.9695577 -0.9969212 -0.6582692 -0.9117733 -0.20494273 -1.279097 -1.4999683 -1.6145409 -2.6681707 -0.8621406 -1.5966778 -0.16047423 1.5886399 -0.40657026 -1.265481 -0.87618667 -1.0783421 -0.119578056 -1.3016723 -1.6849034 -1.4710788 -0.85949975 -1.3251127 -1.1030482 -2.479159 -1.7587003 -0.20027344 -1.1477851 -1.367286 -1.4152659 -1.583957 -0.34923258 -1.3752562 -0.29188552 -0.26822576 -0.6844409 -1.9398041 -1.8023779 -1.3488951 -1.4128517 -1.321761 1.8913031 -0.88626426 -1.8199017 -1.4627376 0.6468408 21.587557 -1.5418391 -0.45865068 -1.2093196 -0.6662135
20 -0.83383924 -3.0548933 -3.6704967 -1.064379 -2.6942842 -2.2507749 -0.068261504 -1.6609658 -2.3489537 -3.9639556 -2.212232 -4.116281 -2.205929 -0.20129044 -3.290472 -2.481442 -1.5966405 -1.4334649 -4.155732 -1.8485205 -1.6810054 -1.8988011 -0.63113135 -3.0562685 -1.2227415 -1.9864753 -2.9631143 -2.355349 -4.2685905 -2.210522 -1.9825929 6.7131333 -2.5594811 -1.4650756 -1.5975901 -2.6969116 -2.4173741 3.529969 -3.4316926 -2.550782 -2.3626065 -2.3488977 -2.6294107 -3.026264 -3.0079947 -3.0153177 -3.190777 -2.0243614 -2.9542205 -2.2517824 -1.0704898 -1.3682725 -2.4589562 -0.5277063 -2.4185257 -2.7250218 -3.2061894 -2.5404367 -2.835974 -2.5072973 -1.7658256 1.7483903 -1.8137697 -2.3721836 -2.2273133 -2.6284416 -1.3856146 -3.1743953 -2.5727146 -1.6632217 -2.41005 -2.408855 -2.1462739 -1.9601208 -2.9371877 -0.38719326 -2.4582338 -2.2415004 -2.2551258 -3.0429564 -2.0174959 -2.359816 -1.4415824 -0.4550011 -0.8059289 -4.1359625 -3.3511388 -2.454935 -2.8151648 -2.2600172 2.429254 -2.7823408 -2.0799415 -2.8237169 -1.0986584 28.93309 -2.941273 -1.6896368 -2.1966507 -1.5707458
1072 -7.6759667 -8.801444 -7.5994906 -10.650814 -7.9936595 -9.248828 -4.305866 -5.6206126 -8.867937 -11.198367 -5.748808 -11.107946 -6.9373245 -1.7050047 -9.306222 -8.212344 -4.0180182 -6.6285987 -13.180745 -6.0676703 -7.4751854 -9.543248 -3.2748063 -9.51862 -11.213411 -6.097358 -9.495529 -8.592301 -12.960688 -6.845819 -6.9847956 62.069344 -8.963972 -2.6406705 -5.9439044 -9.360301 -4.131944 -5.3025713 -8.539637 -8.175395 -6.627205 -8.086929 -10.036583 -9.500596 -8.075747 -6.357971 -7.395631 -5.492812 -9.648415 -6.474846 -7.691196 -3.4326189 -8.1394615 -0.9256403 -7.3866363 -8.039187 -8.673599 -12.642959 -4.688804 -7.5373445 -5.199923 8.284572 -6.703351 -7.3848925 -9.095427 -7.872696 -5.6816726 -8.975386 -11.203483 -5.605312 -6.42345 -7.9599037 -6.5303345 -10.630278 -8.226516 -2.350593 -6.469269 -6.943073 -7.0202117 -7.318724 -3.6969998 -7.683086 -5.433523 -1.8097537 -2.1521037 -12.571923 -9.01636 -7.2290797 -7.716794 -8.082822 11.590599 -6.881393 -9.460055 -7.280168 -3.8721294 104.729126 -9.217673 -6.272487 -10.448706 -4.506837
2374 -0.90231895 -2.362569 -3.837376 4.9011884 -3.778118 -3.5876195 3.740601 -0.6569738 -1.8277311 -5.057814 -1.4936655 -5.1343474 -2.097714 2.1619208 -3.2957675 -3.5631585 -0.45240512 -3.324283 -5.7771926 -2.5357997 -2.15952 -1.6134253 -0.3886743 -2.6801097 -0.37578723 -1.4648868 -2.8355 -1.7139008 -5.433697 -2.004485 -1.5495862 0.9745709 -1.6638161 -1.3572382 -2.4148602 -3.692042 -4.086866 13.200008 -5.162273 -1.6260729 -1.7202322 -2.554011 -2.5730655 -2.8968332 -2.2329383 -4.981491 -4.9709163 -1.9884913 -2.6946707 -1.6813163 -0.47676134 -1.4460227 -1.5103067 0.6235266 -1.9509305 -2.6020706 -2.8949292 -1.953055 -4.5207663 -2.3828576 -2.7219484 4.066603 -2.4359016 -1.9575729 -2.1937134 -1.8198757 -0.48106977 -4.52242 -2.7383199 -2.0945556 -4.08453 -1.9434036 -1.530747 -0.70487607 -3.2147071 1.7393372 -1.9469076 -1.7612438 -1.9364942 -2.8567584 -3.4013646 -1.9724678 -2.889382 -0.07350372 -0.4911221 -5.718415 -2.6267562 -2.1159976 -2.3654044 -2.5300226 5.81879 -4.9055204 -1.87613 -2.7625384 -1.732075 23.241827 -2.5115469 -2.4049418 -2.5835538 -0.50491196
2375 -1.4259701 -1.4590617 -1.4627371 -2.521055 -0.88678056 -1.9907541 -1.1577578 -0.9333474 -1.3803387 -1.9827206 -0.96547663 -1.8532763 -1.3369527 -0.1305672 -1.7531729 -1.9555672 -0.48791286 -1.7246128 -2.0397117 -0.32298368 -1.8088194 -2.295132 -0.38286024 -1.741518 -2.3647342 -1.0598005 -1.776317 -1.3772482 -2.0475607 -1.5861229 -1.3221191 13.911683 -1.4283549 -0.4445056 -0.40062514 -2.2502608 -0.17250422 -1.523419 -1.2582115 -1.4209378 -1.280514 -2.0039432 -2.3402412 -1.7900943 -1.4110979 -0.69305575 -0.8183004 -0.8231822 -1.7189721 -1.1040735 -1.7749709 -0.64124614 -1.5278028 -0.24921647 -1.4341649 -1.5186213 -1.6126082 -3.2905686 -0.4942089 -1.6452506 -0.25060898 1.3120221 -0.6115469 -1.4186419 -1.1856216 -1.58006 -0.6710456 -1.2099314 -2.1697235 -1.5366849 -0.73460954 -1.4594784 -1.2443078 -3.122917 -1.6887028 -0.084370114 -1.0088825 -1.4636198 -1.5354284 -1.3733438 -0.103787065 -1.5870619 -0.28572944 -0.2681949 -0.8163315 -2.0387793 -1.8982729 -1.4894757 -1.1817598 -1.4759277 2.0318289 -0.6866518 -2.1401181 -1.2898668 0.35691643 26.703821 -1.5164826 -0.6745419 -1.7319481 -0.5420717
2269 -1.707168 -1.9367365 -1.4524927 -2.6782634 -1.9091558 -2.5209126 -1.0832498 -1.1535723 -2.465348 -3.2954204 -1.3675269 -3.074256 -1.1997956 -0.99637216 -1.7519087 -2.2861133 -0.66476077 -2.067754 -3.442192 -1.6811495 -2.1470964 -2.4005475 -1.070665 -3.052245 -2.949686 -1.8175749 -1.7424297 -2.1971347 -3.6733634 -1.4306372 -1.5068823 16.188173 -2.443452 -0.23639178 -1.5306456 -2.646612 -1.2963822 -1.5070933 -2.4495084 -2.3371649 -1.5389453 -1.9709561 -2.6038113 -1.8664458 -1.8936605 -1.7844927 -1.9633265 -1.0068706 -1.883993 -1.7287352 -2.369642 -0.8816706 -2.820768 -0.2863496 -1.7327204 -1.4714254 -2.3001916 -3.1207743 -1.4774112 -1.396478 -1.4263871 0.15768358 -1.677844 -1.6219149 -2.7155397 -2.3238225 -1.9034122 -2.505821 -2.9810994 -1.4103209 -1.6981429 -1.5949868 -1.3875026 -2.4929483 -1.5257643 -0.5424181 -1.7807133 -1.4325793 -1.2874297 -1.898774 -1.233141 -1.6782945 -1.5044018 -0.4594222 -1.2539343 -3.508866 -2.1069887 -1.5719384 -1.6018978 -1.5645186 2.789422 -1.8832871 -2.3556716 -1.5593947 -1.2167428 26.790674 -1.9339685 -1.7650378 -3.1091318 -0.80143976
2270 -3.241108 -1.7007837 -2.045467 -4.304084 1.9922714 -2.3984776 -1.9314804 -1.2615113 -1.1336118 -2.092355 -1.8035622 -1.191407 -1.7970896 -0.056358643 -2.2409241 -2.4317355 -0.6502804 -2.3870933 -2.200028 4.44978 -2.900395 -3.6230779 -0.6036049 -0.98010105 -4.4137025 -2.1456935 -2.5942328 -1.5991424 -1.9332479 -2.5099387 -1.9701585 13.192538 -2.3867881 -0.7503296 4.161071 -2.695563 7.2842155 -4.588817 -0.39299348 -1.7059158 -1.998996 -2.6622427 -2.758001 -2.2943618 -1.7816346 1.2699896 -0.25375834 -2.1110754 -2.337895 -1.7866455 -2.4341447 -0.40516123 -0.54875106 -0.09448612 -2.0869362 -2.3243952 -1.6282567 -5.5009847 5.145228 -2.4830172 5.761964 5.907964 2.558518 -2.1483574 -1.6845936 -1.2696074 -0.22378889 -0.80813456 -2.3535695 -1.8711056 2.1098576 -2.2325876 -2.0802174 -5.3566136 -2.0554814 -0.5369043 -1.116493 -2.169038 -2.0546844 -2.0124357 6.1372814 -2.2648916 3.346908 -0.5646884 -1.2809024 -2.3061922 -2.2751958 -2.2571852 -1.6217588 -2.0493267 5.504645 2.0758533 -2.753572 -1.6129204 6.6282377 36.711983 -1.822717 2.9138916 -1.3054677 -0.7397324
21 -1.5410026 -2.0446563 -2.5897048 -1.4028136 -2.6005611 -3.1295602 -0.42849836 -0.7789319 -1.8680788 -3.6458893 -1.1834224 -3.46158 -1.577573 2.8518841 -2.3858497 -2.9196641 -0.6456134 -2.3527968 -4.1760807 -1.511982 -2.2246747 -2.1535885 -0.09148264 -2.1298425 -1.8812723 -1.2272606 -2.1582422 -1.9696858 -3.9345722 -1.428435 -1.1829494 6.6312466 -1.5543337 -0.8937751 -1.4776767 -3.089074 -2.1921253 -0.16310506 -3.2965038 -1.251246 -1.3632035 -2.50543 -2.7081397 -2.2070901 -1.7403415 -2.78676 -2.9699264 -1.5772296 -1.9807847 -1.2204624 -1.0000944 -0.7660634 -1.341454 2.490086 -1.5206145 -1.871971 -2.124997 -2.7191446 -2.525245 -1.7269747 -1.4755955 5.0940104 -1.6149712 -1.4925948 -1.6607894 -1.6708252 -0.5869612 -2.9309652 -2.7556207 -2.2295418 -2.2831712 -1.5129871 -1.2313155 -1.8459523 -2.3075154 0.73871726 -1.5727412 -1.3663992 -1.4511555 -2.2130492 -1.8558892 -1.5000776 -1.5254891 2.1739917 -0.8314807 -4.1055427 -2.0644739 -1.5478146 -1.8624136 -1.7386255 6.322391 -2.9040763 -2.2531464 -1.991108 -0.7377762 23.90518 -1.9712038 -1.6066755 -2.1765213 -0.75789624
1043 -1.7812794 -1.5024658 -1.4007423 -2.6925576 -0.3511877 -1.6492455 -1.2421908 -0.9324383 -0.943252 -1.2227043 -0.77347565 -0.9829966 -1.2113656 -0.16090405 -1.4328283 -1.403558 -0.70777786 -1.3725346 -1.4591154 0.031630278 -1.756257 -2.239473 -0.46119976 -0.9706292 -2.7261224 -1.0597652 -1.4727602 -0.9232344 -1.3938849 -1.31255 -1.0616249 9.912824 -1.4509643 -0.53151405 0.014867663 -1.723821 0.41953135 -1.8722461 -0.60708994 -0.9618158 -0.98835367 -1.8726643 -2.1293476 -1.5258263 -1.034137 -0.35602126 -0.5185684 -1.1913518 -1.2645494 -0.6980267 -1.4664673 -0.612214 -0.804813 -0.15332697 -1.1225518 -1.2766832 -1.2685708 -3.0085151 -0.04396987 -1.3674431 0.78198016 1.42637 -0.101341985 -1.1495416 -0.75054514 -0.85519785 -0.13941404 -0.8417703 -1.9078419 -1.398405 -0.2959239 -1.1724008 -0.99075234 -3.002503 -1.3805494 -0.4718051 -0.9473688 -1.2246655 -1.2038819 -1.3396803 0.8029252 -1.2079085 -0.04849961 -0.3061253 -1.0157189 -1.4820346 -1.5008596 -1.1616824 -1.2920313 -1.2309073 1.47695 -0.24239722 -1.9565653 -1.1670259 1.0750234 20.880598 -1.2496172 -0.18282612 -1.2963746 -0.7223633
2310 -1.80959 -1.5106331 -1.6122589 -2.955998 -0.014246869 -1.5481184 -1.292365 -0.9491852 -0.55378896 -0.8859168 -0.7542781 -0.55032015 -1.4298166 0.7402859 -1.6067508 -1.3965477 -0.7882643 -1.1398394 -1.0293033 3.082745 -1.6515505 -2.2516625 -0.22114506 -0.6016038 -2.8440945 -1.0460333 -1.6160977 -0.816194 -0.9370057 -1.4309181 -1.1593188 9.608783 -1.254924 -0.8057294 2.5500245 -1.6836308 2.8560681 -2.3131335 -0.14228062 -0.69055873 -1.024356 -1.9606316 -2.188955 -1.6743304 -1.0733349 0.40329802 -0.09476357 -1.2530395 -1.3130183 -0.64702076 -1.2490395 -0.4872435 -0.36536035 -0.06294229 -1.1930637 -1.4058212 -1.28845 -3.4336936 1.4915162 -1.5539366 3.3356972 1.9348127 1.6119673 -1.2351552 -0.4446706 -0.5979352 1.4310639 -0.40828323 -1.734195 -1.5820998 0.84126794 -1.259007 -1.0401758 -3.4562168 -1.5921072 -0.390501 -0.96828216 -1.3656381 -1.4023339 -1.402969 3.3561826 -1.3293384 2.5812778 -0.11980623 -1.0298778 -1.0513905 -1.6173258 -1.2241633 -1.3523629 -1.2317218 2.2766953 1.1845592 -1.9823059 -1.3195868 4.240658 23.48488 -1.3267769 1.2069991 -0.8851312 -0.78589493
22 -1.6808516 -3.5834844 -4.840051 -0.651618 -3.4236152 -3.166477 -0.30287266 -1.8115103 -2.2271726 -4.7811127 -2.2041001 -4.71542 -3.053673 -0.5185371 -3.9775941 -3.0637214 -1.6591494 -2.463888 -5.6947675 -2.2694001 -2.5956628 -2.834538 -1.0271529 -2.9639506 -1.9954108 -2.5812483 -3.6122117 -2.152805 -5.349091 -2.9349797 -2.4199445 4.1298175 -2.8770967 -2.1877103 -2.0690765 -3.5253723 -3.4487941 1.478867 -4.378819 -2.2417092 -2.549126 -3.4055665 -3.6448193 -3.7153785 -2.9558256 -4.3928666 -4.5599046 -3.3415227 -3.1967342 -2.2622163 -0.8375891 -1.93332 -1.6236451 -0.73126453 -2.6716964 -3.277139 -3.6300893 -3.09787 -3.86343 -3.146088 -2.1740556 1.443391 -2.0816991 -2.7795513 -2.5056875 -2.1979012 -0.6346242 -4.4746184 -3.5123982 -2.47906 -3.52451 -2.8420625 -2.3280373 -2.4508379 -3.879772 -0.6429221 -2.78886 -2.8230035 -2.8050582 -3.8237045 -2.796429 -2.7336674 -2.2820373 -0.7414498 -0.7258428 -5.590627 -3.7246563 -2.789495 -3.6162107 -3.0550523 2.468913 -3.955653 -2.9872448 -3.6602902 -1.4842751 30.981058 -3.3887284 -2.1114838 -2.7883942 -1.656221
