1038 100
440 -0.26838145 -0.16944341 0.35962296 -0.27646866 -0.18119119 -0.13803074 -0.1614805 -0.22699073 -0.22023001 -0.2106581 -0.42092273 -0.08865917 -0.24655555 1.3498765 -0.55037034 -0.15027368 -0.44767174 -0.2803602 0.18147525 -0.119842745 -0.1266027 -0.13425234 -0.13147645 -0.15958434 -0.19961204 -0.30401787 -0.35391697 -0.2859665 -0.32392478 0.13230269 -0.23150575 -0.27445012 -0.093894675 0.9072266 -0.21885478 -0.14829801 -0.26225728 -0.042814944 -0.2211511 -0.23323059 0.7451076 -0.088542834 0.013334487 -0.2367589 -0.043014806 1.4019067 -0.21335207 -0.17066364 -0.31382522 -0.067166016 -0.02178709 -0.29896575 0.46584934 -0.20515001 -0.24501927 -0.31760255 -0.16435961 -0.19203296 0.023153879 -0.31960106 0.68664163 -0.1782258 -0.24629846 -0.25837502 -0.07692069 -0.18247321 -0.089603685 -0.14799732 -0.15710393 -0.07440093 -0.4590346 -0.15065132 -0.28734404 -0.40866956 -0.12228526 -0.27548718 -0.3657212 -0.31643683 -0.061318077 -0.10273682 -0.008089157 -0.051772207 -0.305831 -0.09987367 -0.13415803 -0.28257707 -0.17507993 -0.1733483 -0.2137332 0.60674244 0.278818 0.19168091 -0.28645203 -0.13729557 -0.29475123 -0.14120579 -0.09438039 -0.1714188 -0.18310086 -0.18192984
50 -0.007719858 -0.012084208 0.643814 -0.046641372 -0.112449765 0.1599516 -0.09364592 0.00048334152 0.0057784608 -0.17625324 -0.08871415 0.4337247 -0.14360325 1.2203705 -0.05571099 0.06350559 -0.15160783 -0.08241373 -0.05378749 1.5376886 -0.06408679 -0.09275269 -0.01621582 -0.1658387 0.8918749 -0.09733267 -0.052550446 0.4233453 -0.18682466 0.19956307 -0.090054594 -0.06020985 0.11081528 0.35525927 -0.19183105 0.050958976 -0.066840775 -0.025006229 -0.011098957 -0.13749963 0.27628228 -0.06887631 -0.04269054 -0.07573345 -0.13811933 0.5074995 -0.15925972 -0.06820651 -0.08137637 0.6003738 -0.08706792 0.025760172 -0.053473413 -0.11405814 -0.07669356 -0.12746297 0.09195106 -0.048757724 0.73335516 -0.021900559 0.21825378 -0.050950106 -0.0684857 -0.10259751 -0.0017459721 0.3097054 0.45094353 -0.12003296 0.36161214 0.10470922 -0.0084151635 -0.15382384 -0.055210914 -0.08581352 0.3814416 -0.026347524 -0.041594826 -0.03485466 -0.06692128 -0.10178039 0.304659 0.25856057 -0.13790725 -0.06011335 -0.14598213 -0.21599348 -0.0531268 -0.19989939 -0.10098281 -0.030764217 0.30973133 -0.0967406 -0.1769682 0.29930452 -0.16025294 -0.08246939 0.4281028 -0.056054004 0.3370679 0.018188396
103 -0.032046806 -0.12849773 1.3475596 -0.054711718 -0.09699113 -0.049031775 -0.025461031 -0.09186506 -0.092837386 -0.16068858 -0.15822321 -0.12628466 -0.18576236 1.5385958 -0.16007929 -0.09507971 -0.39220813 -0.1413811 -0.035911627 0.7760877 -0.004872919 -0.14025675 0.1641348 -0.2124267 0.22902176 -0.12842776 -0.12164437 -0.06078128 -0.2537428 0.6230167 -0.115992524 -0.12754136 0.065541364 1.3519428 -0.20488532 -0.087820135 -0.09414094 -0.010785996 -0.062586 -0.14064221 0.2265546 -0.06269471 -0.113114774 -0.05835105 -0.1383083 0.27886033 -0.08735823 -0.10201048 -0.12541105 0.2645489 -0.08270627 -0.12850837 -0.06857311 -0.10411475 -0.14404394 -0.18484075 -0.046571266 -0.0211122 0.39907873 -0.09556385 0.71241 -0.08325725 -0.06941836 -0.122864604 -0.03829494 0.25518999 -0.004268739 -0.10387962 -0.09731998 0.17530575 -0.09238859 -0.14595576 -0.064340346 -0.07647486 0.16196673 -0.11718601 -0.15656768 -0.09956571 -0.15858072 -0.10828952 0.032778814 0.26073745 -0.11623327 -0.071088746 -0.090636425 -0.18729512 -0.066126734 -0.23005758 -0.057023626 0.6288724 0.03417467 -0.12311623 -0.27875358 -0.08588139 -0.15821995 -0.18805821 0.3894319 -0.06716957 -0.015151965 -0.0797949
105 -0.1633765 -0.19013004 1.0795448 -0.045273382 -0.21067908 -0.19335748 -0.117639475 -0.08518406 -0.30645195 -0.21095589 -0.35762087 -0.32182312 -0.21192586 2.6111572 -0.37737772 -0.15306151 -0.59711826 -0.27617234 0.099148504 0.3133926 0.11945067 -0.06599909 0.41239652 -0.3463635 0.09352368 -0.23932384 -0.2210392 -0.14652327 -0.34615168 1.0227219 -0.17658098 -0.18555574 -0.012481417 1.9294647 -0.1575676 -0.0037792951 -0.30499277 0.7790056 -0.18019478 -0.20866425 0.615896 0.059822194 -0.031758722 -0.026306827 -0.14789027 0.14692432 -0.19590144 0.026064523 -0.14195633 -0.07803796 -0.15081076 -0.26807722 -0.103719495 -0.19838043 -0.23427533 -0.27564737 -0.24188598 -0.12936318 0.44317824 -0.17686336 -0.03400916 -0.12212312 -0.14285724 -0.15648891 -0.16545258 -0.014153525 0.14013733 -0.07679077 -0.09595547 -0.020580266 -0.27765417 -0.15906219 -0.20267057 -0.26763377 -0.0011702366 -0.23633566 -0.3238264 -0.20270383 -0.30174527 -0.14134026 0.30367458 0.05134198 -0.24878807 -0.040520605 -0.26235348 -0.23459767 -0.04536601 -0.17401958 -0.10703601 1.3965063 -0.018071944 -0.061331835 -0.27248818 -0.14476876 -0.14762561 -0.20024918 -0.052551616 -0.10666423 -0.1176597 -0.100473896
116 -0.12299563 -0.098046854 1.5384579 -0.108777784 -0.13424362 0.22668001 -0.17426673 -0.029352913 -0.024550905 -0.23405635 -0.13804315 -0.07347869 -0.1821525 1.0004398 -0.23015682 -0.11994753 -0.40650663 -0.21929352 -0.1159652 1.0204912 -0.011742185 -0.115221344 -0.048411395 -0.19101878 -0.021958569 -0.16496073 -0.18851338 -0.10325556 -0.2739617 0.17631285 -0.11449011 -0.13965563 0.32706326 0.47440863 -0.19065394 -0.17605287 -0.040156938 -0.112421885 -0.110327855 -0.16038948 1.3441448 -0.09873397 -0.05960943 -0.23864584 -0.12335479 0.83517206 0.021599278 -0.0983018 -0.20239484 0.14696528 -0.02689513 -0.14968616 -0.054140534 -0.114780955 -0.11056297 -0.1559962 0.17248714 -0.0810982 0.46117514 -0.10545579 0.40964082 -0.14589883 -0.07534265 -0.1763068 -0.046765827 -0.10483652 0.013106637 -0.24544613 -0.14328085 0.00055022724 -0.14254309 -0.16983514 -0.17940353 -0.15434991 -0.065290846 -0.079710536 -0.10822665 -0.13561587 -0.047810715 -0.14634238 0.01785399 0.06248051 -0.14789101 0.15383461 -0.13093108 -0.2607344 -0.19040357 -0.25420442 -0.09039473 0.3656937 0.031616468 -0.13085686 -0.32155117 -0.11840083 -0.23777778 -0.1948875 0.40843725 -0.22985215 -0.104297675 -0.19485244
135 -0.10070666 -0.1175401 -0.028983135 -0.062009163 -0.109892026 -0.020983864 -0.026644994 -0.066152565 -0.09257404 -0.06697314 -0.1548255 -0.10824417 -0.05295068 1.1242183 -0.11005743 -0.028301049 -0.21728519 -0.08469658 -0.043636292 0.51908326 -0.052638143 -0.044593304 -0.04013477 -0.1051833 -0.046222158 -0.09161388 -0.08195374 -0.073521875 -0.14153238 0.12510501 -0.06790185 -0.0887642 -0.033889927 0.31970713 -0.034211703 0.26954967 -0.0922386 -0.03023692 -0.034483064 -0.07647979 0.3757862 -0.03954203 0.13488749 -0.00018708185 -0.038576193 0.34965375 -0.031885255 0.034157135 -0.07313224 -0.047329936 -0.019538565 -0.13974606 -0.017084626 -0.02444363 -0.074631765 -0.11926987 -0.086580016 -0.062165596 0.5213724 -0.06841286 0.024879847 -0.05812199 -0.040527545 -0.10682102 -0.04872384 -0.052421052 -0.040335204 -0.07939305 -0.029398499 0.005072074 -0.12057946 -0.07409113 -0.123397544 -0.11633661 -0.10553568 -0.021982338 -0.10438322 -0.10668101 -0.06252793 -0.08561664 -0.027021376 -0.021879945 -0.06739804 -0.00094019476 0.53421134 -0.13954702 -0.07290556 -0.05852568 -0.038219817 0.2849955 0.33492205 -0.025567312 -0.073984884 -0.022798752 -0.07912322 -0.04691207 -0.076769106 -0.08935877 -0.06821515 -0.14023985
235 -0.06283646 -0.16743167 -0.071212135 -0.03284841 -0.110077076 0.33042082 -0.016355617 -0.06707454 0.1415661 -0.0014291399 -0.10447414 -0.07809641 -0.017729117 0.40042326 -0.014774275 0.33723864 -0.11883416 -0.046413332 -0.13102709 0.660411 0.6245813 -0.06854133 -0.062025137 0.051445 0.2318367 -0.045846064 -0.042736933 -0.10992747 -0.10032528 -0.09178664 -0.08159169 -0.109167054 -0.048476566 0.2119717 -0.045162015 -0.007744094 0.3237764 -0.16345948 -0.043627936 -0.13791186 -0.029266257 -0.0648297 0.52880156 -0.049166065 0.16390792 0.2950593 -0.057749357 -0.02691551 -0.08298437 0.06449356 -0.06789265 -0.111290134 -0.221594 -0.037187 -0.11272239 -0.095619135 -0.028942585 -0.07699757 0.4919433 -0.017379677 0.5988297 -0.043137755 -0.0028914951 -0.11983545 -0.008260963 0.0848269 -0.07787553 -0.16379975 0.60932714 0.39489385 -0.030311663 -0.08227338 0.2940286 0.42441785 -0.11577053 -0.056911808 -0.0716411 -0.09018015 -0.10568173 -0.20299903 -0.18213938 -0.004411559 -0.027189463 0.42550406 0.54942787 0.09236616 -0.04765011 -0.124533534 0.31920487 -0.0075454265 1.0171351 -0.059631925 0.12401776 0.41266838 -0.18519376 -0.11521814 -0.027098423 -0.0007089235 -0.104927205 -0.11720114
257 -0.18576047 -0.15869409 0.77014184 -0.16075487 -0.24728656 -0.16872615 -0.0649982 -0.18439348 -0.16790633 -0.1790927 -0.41075236 -0.05865342 -0.29708403 1.4426166 -0.4520807 -0.24581626 -0.58422107 -0.21677057 -0.040510584 -0.08653835 -0.016624445 -0.16373774 0.22913872 -0.27775472 -0.15596323 -0.2873769 -0.31659627 -0.27063727 -0.31856456 0.28585494 -0.23430012 -0.284763 0.1133723 1.748212 -0.20834899 -0.14018378 -0.24098842 0.4855574 -0.31683472 -0.30466977 -0.013269586 0.102172025 -0.11346934 -0.034293976 -0.05704978 -0.023500537 -0.29094133 -0.1050208 -0.19860624 0.19877629 -0.09659561 -0.26456425 -0.06147058 -0.22479104 -0.20775795 -0.21285856 -0.15574358 -0.12781274 -0.0088347895 -0.28461257 0.20977442 -0.23354618 -0.23365441 -0.270057 -0.15077984 -0.02060301 0.31610042 -0.038675696 -0.14762568 -0.02321154 -0.31997928 -0.19473355 -0.24807826 -0.16953102 -0.009190986 -0.33456284 -0.4314354 -0.24385539 -0.13794404 -0.11923545 -0.055690654 -0.021553716 -0.30064395 -0.13197696 -0.27019176 -0.19560075 -0.02600794 -0.27496538 -0.08740215 0.43192804 -0.0696539 -0.05455916 -0.19981621 -0.1893435 -0.24051808 -0.27625817 -0.11484879 -0.19625491 -0.093012236 -0.03495234
353 -0.017927552 0.14994866 1.9737855 -0.06040126 -0.06166441 -0.06526939 -0.047995027 -0.016095007 0.57205033 -0.23093939 -0.056153502 0.5904604 -0.2307236 1.7775539 -0.16120437 -0.036595967 -0.46575353 -0.1804366 0.42627513 1.3605335 -0.17709176 -0.06779021 -0.26313525 -0.25403568 1.0124665 -0.20344262 -0.0994298 0.14217752 -0.03600009 0.35174438 -0.1383959 -0.12391603 0.4479792 0.35999355 -0.25823867 -0.12725954 -0.028347448 0.12434672 -0.030628312 -0.044585176 1.7218904 -0.015745437 -0.08955528 -0.36226726 -0.28476676 1.3498425 -0.108975306 -0.13512085 -0.14652528 0.45719013 -0.07950346 0.5854234 -0.024854245 -0.13897312 -0.0118061295 -0.32750612 -0.110181406 -0.049461197 0.54031426 -0.034864467 -0.09967417 -0.09503317 0.17934065 -0.06585854 1.0248979 -0.032719593 0.18603252 -0.24934284 -0.11358 0.28765398 0.07591551 -0.12708357 -0.16386376 -0.030592168 0.35605207 -0.082629204 -0.09401309 -0.07735853 0.27051738 -0.04412699 0.13766491 0.6552305 -0.20250402 0.01241979 -0.3500021 -0.25546125 -0.17865244 -0.33049056 -0.10119239 -0.044046283 0.69998026 -0.30775124 -0.46133342 -0.01602366 -0.1596208 -0.21286559 1.2441205 -0.0896699 -0.010596609 -0.032802194
380 -0.089661874 -0.1175073 1.2264931 -0.15931144 -0.11705955 -0.11231591 -0.08146886 -0.097555496 -0.08056261 -0.17355432 -0.29192576 -0.10001134 -0.24507916 1.570716 -0.529391 -0.17043145 -0.4628553 -0.18429594 0.1552766 0.17677054 -0.20435873 -0.024720859 -0.045068208 -0.1542667 -0.05042102 -0.26605472 -0.21222587 -0.22886972 -0.33613935 0.64269406 -0.1426099 -0.21339194 -0.0018860921 1.0551971 -0.16535397 -0.09189304 -0.09062747 0.41189334 -0.13281792 -0.09140023 1.0080155 -0.069163635 -0.042335164 -0.31688106 -0.13928698 1.690517 -0.056429017 -0.15786162 -0.25556454 0.27292627 0.075186245 -0.16920142 -0.0059480276 -0.10479865 -0.10747377 -0.2746087 -0.055752244 -0.06609257 0.5383988 -0.1804247 0.15925871 -0.17076974 -0.07683693 -0.12369499 0.23849586 -0.09751193 -0.047169153 -0.17724358 -0.25386205 0.1840611 -0.14712493 -0.1384544 -0.1986925 -0.28440008 -0.10236897 -0.08295008 -0.2739166 -0.16758342 -0.12748466 -0.14240466 0.3905477 -0.02199435 -0.21365932 0.21141243 -0.12862751 -0.24845333 -0.15402377 -0.17441022 -0.075806886 0.30527934 -0.06138398 -0.023239074 -0.2704167 -0.05025616 -0.3628735 -0.09773641 0.33285183 -0.14706858 -0.044866186 -0.06264829
454 -0.42493722 -0.040367752 -0.12867405 -0.37320247 -0.3262236 -0.13381445 -0.20852712 -0.35310018 -0.09911018 -0.13897024 -0.22992758 -0.20605789 -0.3316271 -0.20814586 -0.36149037 -0.21369927 -0.49732852 -0.09248213 -0.3376964 0.25387228 0.50666153 -0.40480763 1.1624227 -0.075214885 -0.1803585 -0.123854496 -0.36915728 -0.32858488 -0.31114498 -0.25373077 -0.4362389 -0.37692547 -0.16683803 0.20211564 -0.40455517 -0.5550361 -0.4309117 -0.3084224 -0.42488623 -0.4656191 -0.020279402 -0.052324444 -0.13646515 -0.16148674 -0.015457459 -0.30797765 -0.41147843 -0.09868973 -0.17060153 -0.011597654 1.134216 -0.28644192 -0.04919184 -0.37285432 -0.20687442 0.21981707 0.5098054 -0.14596625 -0.14856134 -0.20468228 -0.28528035 -0.41805944 -0.1971669 -0.48709354 -0.08115163 -0.13433695 0.83019555 -0.12780976 -0.052093443 -0.20168972 -0.53955895 -0.3323361 -0.54250085 -0.122777976 -0.07539731 -0.38565502 -0.36743248 -0.31777084 0.97891325 -0.16602357 -0.32785696 -0.064177275 -0.48518458 -0.43596563 -0.08998168 -0.13970649 -0.19610561 -0.45250154 -0.2147011 -0.10244017 -0.33586058 -0.03773474 -0.2027421 -0.29711553 -0.35202238 -0.35117728 -0.07617956 -0.5923078 -0.22936323 -0.12835135
255 -0.10412699 -0.08692207 0.3317219 -0.1471021 -0.080959946 -0.092255235 -0.15531614 -0.14285977 0.1492607 -0.09015028 -0.17827134 0.48330933 -0.18397124 0.48690107 -0.2609876 -0.076208234 -0.21538217 -0.11189257 -0.056176793 -0.08501604 -0.08946334 -0.094977476 -0.05467422 -0.019988539 0.11756213 -0.17661585 -0.22235881 -0.16014741 -0.18255469 0.06880425 -0.13741931 -0.14489633 0.18157953 0.35855022 -0.1999679 -0.18903027 0.12867014 -0.037692964 -0.1772763 -0.17585067 0.16626391 -0.061660178 0.048350442 -0.09944972 0.19005883 1.239361 -0.09836028 -0.13415255 -0.18031228 0.23989774 0.5839438 -0.0854649 -0.011239665 -0.14636137 -0.01925737 -0.0969854 0.47874337 -0.08320782 -0.010275531 -0.11429509 0.19115013 -0.16470458 -0.10683296 -0.13707602 -0.033852864 -0.07068876 0.17491743 -0.15406637 -0.009731494 -0.042349573 -0.17621228 -0.18241546 -0.16421488 -0.21139781 0.1155864 -0.07829472 -0.14055641 -0.16602921 -0.017442334 -0.073212884 -0.031192929 0.041987076 -0.20746265 -0.10493808 -0.088291004 -0.19584489 -0.058194514 -0.17502151 -0.12796238 -0.056961626 -0.038947254 -0.07354605 -0.1657124 -0.04329149 -0.22821169 -0.12180095 0.14207028 -0.10483332 -0.0057453923 -0.07017929
404 -0.14314657 -0.14033864 -0.06476035 -0.15631892 -0.20246057 -0.23520605 -0.0828389 -0.24121876 0.15701757 -0.037909795 -0.013260371 1.2793897 -0.20464407 0.15752959 -0.14705436 -0.11291039 -0.18241961 -0.2502835 -0.1044006 -0.09562027 -0.07590652 -0.08602559 -0.18989475 0.5873881 -0.051291008 -0.13038217 -0.15209256 -0.2136805 -0.11460228 -0.11240399 -0.1774117 -0.12361316 -0.11081137 0.22312126 -0.17234164 -0.16258495 -0.1474669 0.5761676 -0.18215086 -0.12620078 -0.11272266 -0.14148305 0.6492188 -0.10482657 -0.13592641 -0.02621353 -0.15866584 -0.045707185 -0.14165913 -0.1479829 -0.00181757 -0.21546267 -0.09889986 -0.1997072 -0.13008046 -0.13125508 0.08143292 -0.13318299 -0.20234895 0.3019311 -0.11305578 -0.10421313 -0.062336523 -0.12686929 -0.18075375 0.42055845 -0.00027122797 -0.10818135 1.0404735 0.07388967 -0.20050803 -0.09063209 -0.18062578 -0.09295268 0.039652117 -0.21601005 -0.25326154 -0.25396496 -0.14284882 -0.04293963 -0.18083349 -0.05218896 -0.2529557 -0.17957003 -0.07697805 0.63499326 -0.0345038 -0.11621316 -0.14687392 -0.22568837 -0.019312613 0.07979715 -0.15658532 -0.1886357 -0.15495428 -0.16677967 1.365692 -0.22582622 -0.111726575 -0.07283001
511 -0.22764459 -0.23459683 -0.1598147 -0.13938494 -0.18318617 -0.06733405 -0.06073731 -0.17155659 -0.16660076 -0.07530897 -0.25614375 -0.1235699 -0.094325036 1.5960387 -0.18931885 -0.024787934 -0.28763065 -0.099508055 -0.054605294 -0.03858131 -0.077292226 -0.063548736 -0.04669576 -0.037714284 -0.15931486 -0.14672707 -0.10938056 -0.21750884 -0.1864229 0.34207317 -0.071916364 -0.13379343 -0.08914124 0.4145026 -0.0003074497 0.07659502 -0.10773065 -0.02430216 -0.10874438 -0.07282985 0.57173836 -0.042129856 0.5229714 0.022105463 0.8080746 0.08360908 -0.0007081017 0.08422374 -0.16946983 -0.11324421 0.34140936 -0.3314324 0.10709693 -0.012429726 -0.21168955 -0.19658029 -0.196271 -0.11735245 -0.027689591 -0.16312853 -0.044522416 -0.046883587 -0.08200195 -0.21576129 -0.14062436 -0.11611881 -0.104531586 -0.1468124 -0.04396257 0.08369493 -0.2999836 -0.0638337 -0.22714658 -0.24994183 -0.17793977 -0.14030138 -0.18694495 -0.19557846 -0.09114376 -0.111039594 -0.116194725 -0.05242532 -0.096682005 0.082474194 0.9125586 -0.14745669 -0.06618661 -0.028709788 -0.047796804 0.35675788 0.70796406 0.30454534 -0.09699942 -0.04437113 -0.116624705 -0.06641216 -0.15805356 -0.08609293 -0.14525633 -0.21781114
471 -0.18794172 -0.15577811 0.8825053 -0.1415265 -0.18800373 -0.040064774 -0.12443464 -0.07911515 -0.17474262 -0.19881885 -0.29278514 -0.20850098 -0.24180062 1.4736148 -0.3548717 -0.11844808 -0.45473644 -0.3348353 0.27109975 0.23725396 -0.09789627 -0.0543433 -0.048197776 -0.16861646 -0.06970164 -0.20001502 -0.25024968 -0.20335586 -0.27164268 0.12606469 -0.18176681 -0.2128636 -0.0466547 0.64702046 -0.15984942 -0.014800173 -0.23654722 0.16640387 -0.12452123 -0.14638 1.0372865 -0.023878302 -0.016161053 -0.32735133 -0.18140765 1.121429 -0.09539726 -0.13452499 -0.2405941 -0.09974929 -0.04701686 -0.18578656 0.15079415 -0.15229578 -0.21812852 -0.29981127 -0.19718294 -0.082239754 0.3672933 -0.22779928 0.49676052 -0.0844707 -0.18102147 -0.1151554 -0.11618467 -0.13574515 -0.09966111 -0.13554607 -0.15653782 -0.01685035 -0.31658494 -0.0633199 -0.2273361 -0.26768658 -0.19401923 -0.2026114 -0.26298565 -0.22214113 -0.07343262 -0.13811402 0.15349631 -0.042870596 -0.22225384 0.5811406 -0.09903063 -0.1611731 -0.2101161 -0.12714379 -0.08443057 0.6205243 -0.015309709 0.17259131 -0.29711163 -0.1162205 -0.20851338 -0.21230729 0.25819492 -0.11758324 -0.152205 -0.15656362
478 -0.18483135 -0.19924639 -0.14080589 -0.14942463 -0.17002435 -0.031200746 -0.020887097 -0.18005696 -0.15074973 -0.078909084 -0.22382236 -0.08070909 -0.099604204 1.5658537 -0.17436133 -0.02217987 -0.2725925 -0.0902193 -0.042646635 0.034916803 -0.086871006 -0.07850129 -0.09671408 -0.06307195 -0.1224044 -0.12461382 -0.11426496 -0.19370593 -0.18797715 0.11937687 -0.09115696 -0.14254193 -0.0731198 0.38163742 -0.026027774 -0.00081506075 -0.10733948 -0.067941666 -0.08786605 -0.06509829 0.6391104 -0.03427775 0.39672804 -0.006574943 0.55686986 0.22771867 -0.03116919 -0.008477082 -0.158393 -0.118926756 0.20707184 -0.28146854 0.09531845 -0.02084695 -0.16796796 -0.19641511 -0.16286922 -0.124713056 -0.008971087 -0.12783395 -0.021567062 -0.062218785 -0.07805664 -0.21286006 -0.10007393 -0.1185171 -0.11944585 -0.15274215 -0.043442797 0.07403255 -0.25671494 -0.070217036 -0.19683236 -0.22435029 -0.16938846 -0.11155089 -0.15816413 -0.17991284 -0.058094002 -0.1112567 -0.083793595 -0.05355792 -0.0809086 0.05474884 1.0122972 -0.17188409 -0.07888406 -0.061600845 -0.0395549 0.34314165 0.8304832 0.029401004 -0.09280398 -0.037170324 -0.12680039 -0.062121924 -0.12206036 -0.090551645 -0.10658442 -0.2092915
519 -0.1288242 -0.097424775 -0.010018611 -0.14855525 -0.17730775 0.033896748 0.32307127 -0.15648131 -0.1311314 -0.13471386 -0.27107129 0.14566204 -0.10389326 1.1009896 -0.17860214 -0.007298319 -0.33541533 -0.15540229 -0.06659979 0.74376017 -0.07105362 -0.107874155 -0.15634151 -0.19795087 -0.03722177 -0.14308362 -0.15013644 -0.045614272 -0.18393372 0.2439697 -0.12835386 -0.1511911 -0.03362481 0.44588912 -0.119353406 0.07676624 -0.16781168 -0.01589291 -0.09009648 -0.19129539 0.5129143 -0.025801763 0.2018768 -0.041315448 -0.106754445 0.43926877 -0.13483772 -0.05986586 -0.14293712 -0.073307045 -0.13323502 -0.13645275 0.011792945 -0.089843355 -0.1007812 -0.1670932 -0.16643748 -0.117757976 0.6999209 -0.13401552 0.2710265 -0.14304979 -0.11603924 -0.19873226 -0.09241176 -0.11962803 -0.06475785 -0.12258637 -0.013805658 -0.02490372 -0.23808984 -0.10406488 -0.19604926 -0.16122322 -0.1343813 -0.14032964 -0.17798015 -0.20043837 -0.017619137 -0.1397691 0.26957327 -0.050762065 -0.115421586 -0.0822079 0.40664476 -0.22667114 -0.09360647 -0.16618995 -0.108474754 0.42846233 0.5969764 -0.026309228 -0.10234785 -0.06688709 -0.12385978 -0.09934817 -0.0866273 -0.15238445 -0.1668517 -0.16541812
584 -0.4263228 -0.341704 -0.30644152 -0.34788537 -0.39759323 -0.24517933 0.07046913 -0.29588002 -0.30699235 -0.09678303 -0.4497264 -0.20595236 -0.08528201 0.57430696 -0.4760316 -0.06872814 -0.44913593 -0.27538422 -0.071182005 -0.0743363 0.44243732 -0.05562268 -0.0412996 0.4727811 -0.30903786 -0.20808831 -0.26901513 -0.28831738 -0.07360832 -0.058878433 -0.19624762 -0.26454446 -0.16491967 0.52361107 -0.05627958 -0.026257623 -0.30352527 -0.11775189 -0.24791317 -0.3650182 -0.013111067 -0.048246354 1.0877877 -0.06849718 0.6343887 -0.02306321 -0.25211823 0.23018357 -0.30181786 -0.24234577 -0.09445045 -0.47641388 -0.11613931 -0.1622105 -0.4062123 -0.17210378 -0.50158805 -0.23488413 -0.12446562 -0.33401123 -0.014155191 -0.10653744 -0.23281586 -0.31707618 -0.2857785 -0.30559185 -0.15027218 -0.23483856 0.6895449 -0.120516315 -0.53477514 -0.03328431 -0.3127826 -0.17658933 -0.24413727 -0.36924702 -0.48010537 -0.3188996 -0.26580614 -0.24411337 -0.1953249 -0.10390978 -0.15498362 0.019117527 -0.021739943 -0.06819364 -0.05759071 -0.04278896 -0.14236812 0.7155957 1.0099907 0.68316555 -0.00930696 -0.11634065 -0.36182463 -0.18127087 -0.12701117 -0.16848294 -0.5770762 -0.28771874
539 -0.03828105 -0.0661695 -0.0792297 -0.05968317 -0.037719484 0.14396319 -0.009637021 -0.096784554 -0.011419403 -0.07503524 -0.07307391 0.28337365 -0.05021819 0.77549446 -0.016844708 0.20204523 -0.12541845 -0.03822535 -0.06961923 0.185621 -0.077470936 -0.07634633 -0.061045416 -0.059165377 0.08671363 -0.049891382 -0.007897086 -0.08274286 -0.10750299 0.2765714 -0.04330438 -0.060379334 -0.029188925 0.088840604 -0.067695476 -0.025562799 -0.009398384 -0.03508047 -0.03822648 -0.03912106 0.564485 -0.02728498 -0.013858313 -0.029446527 0.348984 0.08613893 -0.01543342 -0.045463573 -0.06618982 -0.023118114 0.023892514 -0.08375343 0.20475732 -0.014882996 -0.03541869 -0.09401271 0.060096752 -0.040785808 -6.651655e-05 -0.036489557 -0.0047350326 -0.04323421 -0.038810045 -0.10877686 -0.027570536 -0.027272303 -0.046703797 -0.10930866 -0.0046129874 0.11931436 -0.11041178 -0.05278604 -0.101749174 -0.1352979 -0.0808024 -0.034463882 -0.026276732 -0.08409608 0.021327078 -0.062031295 -0.020891977 -0.0107794665 -0.0628829 -0.032021906 0.636404 -0.10619445 -0.0536663 -0.11478307 -0.023620669 0.08269917 0.72171116 -0.0452708 -0.079628706 -0.005935631 -0.0048278803 -0.037874978 -0.046435773 -0.05591262 -0.0028244758 -0.07078739
693 -0.023800557 -0.09370426 -0.09899806 -0.078757145 -0.060211923 0.22544816 -0.06379625 -0.09823966 0.19061235 -0.005972018 -0.0776838 1.012234 -0.058468264 0.32226637 -0.030660493 0.046708435 -0.0007528208 0.085373275 -0.04411715 -0.06467604 -0.069758765 -0.026405072 -0.04657712 -0.009318856 0.31164435 -0.10229831 -0.052207887 -0.07810307 -0.06946469 -0.032671224 -0.05975908 -0.02699098 -0.018647904 -0.018984245 -0.04101507 0.14552581 0.22762327 -0.019460058 -0.021555165 0.08127121 0.0636929 -0.052289575 0.12523179 -0.009527765 0.6601051 0.044849943 -0.0054005943 -0.05344077 -0.11419199 0.2148372 0.38653147 -0.07006096 0.20266324 -0.039939564 -0.020197738 -0.034774277 0.4679829 -0.007890421 -0.037867457 -0.016313553 -0.05104802 -0.023952365 -0.021161577 -0.10733004 -0.029068107 0.15890764 -0.019112099 -0.07552182 0.20946209 0.3036553 -0.116700746 -0.06603774 -0.075370215 -0.08296009 -0.01134405 -0.053970147 -0.05807228 -0.0892329 0.46424693 -0.031200042 -0.06911196 -0.02197044 -0.073779725 -0.085947245 0.5522781 -0.070625946 -1.492165e-05 -0.08165746 -0.021474851 -0.04131223 0.60271907 -0.0115747675 -0.04775757 0.004152227 -0.026469076 -0.020458955 -0.020359194 -0.013726547 0.32113564 0.1206884
475 -0.056418713 -0.025715474 -0.040656876 -0.14717919 -0.14841297 0.22624621 0.06783848 -0.10446346 -0.112751976 -0.063991584 -0.16614442 0.46032846 0.62587094 -0.023810823 -0.11979804 -0.15682128 -0.15615356 -0.15836729 -0.062197674 0.16888613 0.63679993 -0.08975706 0.018018428 -0.17877117 0.09130095 -0.08015161 -0.049887717 -0.09196674 0.16117951 -0.049180202 -0.09576873 -0.10994374 -0.034065813 -0.036930766 -0.041888185 0.5086775 -0.12883805 -0.12709484 -0.098689824 -0.2191587 -0.064540856 -0.08240373 -0.063012674 -0.06640707 -0.011001484 -0.03198711 -0.21480766 -0.123500325 -0.0685786 -0.032712188 -0.053826448 -0.06358331 -0.04331362 -0.15177046 -0.09699881 0.18572198 -0.062879264 -0.054985266 1.403631 -0.09388996 0.21986152 -0.12208434 -0.13604991 -0.090478905 -0.20574556 0.18352157 -0.087195896 -0.13623321 0.62235886 -0.038519096 -0.23261988 -0.10001321 -0.12448712 0.6096283 0.2760734 -0.13060549 -0.17154504 -0.13549505 -0.11322885 -0.10365667 -0.08586216 0.12659626 -0.17265311 -0.023914354 -0.14776684 -0.04674172 -0.10377627 -0.32398674 -0.027417038 0.12204368 0.20735969 -0.13059868 0.063265234 -0.060197096 -0.13765334 -0.18822801 -0.12525526 -0.08763678 8.833036e-05 -0.06900753
673 -0.0059004286 -0.06530844 -0.08505704 -0.13880919 -0.07978391 0.33057028 0.59501314 -0.1656621 -0.14688928 -0.08630818 -0.049448203 1.4830599 -0.013958635 0.48088458 -0.25964615 0.44409445 -0.11629168 -0.11382866 -0.27865544 -0.0010307491 0.10037139 -0.36875716 -0.10277742 -0.25881225 -0.09788303 -0.069480196 -0.17021975 -0.031935867 -0.13918678 -0.2295686 -0.09477706 -0.16989931 -0.051950913 0.47616816 -0.3606994 -0.104682736 -0.12978141 -0.00075930555 0.2719628 -0.09075835 -0.245273 -0.17988038 -0.11671002 -0.043480422 -0.116391316 -0.20667659 -0.34757394 -0.17735432 -0.08022591 -0.045258567 -0.011084342 -0.10083357 -0.13961439 -0.061529506 -0.2658256 -0.24034373 -0.1144764 -0.13137732 -0.006641935 0.2551835 1.8736457 -0.06606712 -0.12269124 -0.35776064 -0.17306249 -0.11127055 -0.08115071 -0.10228749 -0.063461356 0.13492198 -0.22407873 -0.14076494 0.15974534 0.7714802 0.3673374 -0.26279998 -0.21442151 -0.16076379 -0.10614499 -0.18012404 -0.115271114 0.6511 -0.14872639 -0.21820831 -0.110092126 0.3290323 -0.08341732 -0.3056407 -0.037735816 -0.052366298 0.18199697 -0.18546195 -0.17536221 -0.040335022 -0.49770376 -0.15117562 0.7693551 -0.11838199 -0.06240325 -0.2697812
701 0.21385697 0.30237648 -0.028577197 -0.064369164 -0.12329089 0.33809823 1.0057374 -0.072892524 -0.024719033 -0.059916742 -0.037463553 0.20055568 -0.057466354 0.015361927 -0.058042623 0.34386727 -0.07544746 -0.060623884 -0.13767447 0.042267352 0.0681715 -0.13071959 -0.0904451 -0.1555633 -0.016429165 -0.039865572 -0.080278434 0.11007798 0.092298806 -0.051110543 -0.1165568 -0.0967888 -0.055612095 0.25992146 -0.14908348 -0.0908609 -0.060406365 -0.06219379 0.0089605935 -0.114806786 -0.038401093 0.34330052 -0.122284316 -0.0073542083 -0.069990985 -0.06232062 -0.10189494 -0.012645883 -0.026492232 -0.06414933 0.030409478 0.012023648 -0.032753628 -0.058480848 -0.068022095 -0.025849743 0.14432378 -0.06118388 -0.032925498 0.19394708 -0.029471159 -0.08005495 -0.020072749 -0.12313431 -0.047510397 -0.13357995 -0.006855577 -0.0559631 -0.0025721558 0.065925576 -0.054204594 -0.06787185 -0.06422869 0.041290358 -0.032557335 -0.057521235 -0.10258664 -0.086513154 0.59718835 -0.07894396 0.030684084 -0.025262862 -0.013218763 -0.1150011 0.4105056 -0.069486186 -0.081908904 -0.1582954 -0.029199665 -0.016593039 0.26522443 -0.023498228 -0.051446225 -0.04645679 -0.028213248 -0.06371364 -0.020805974 -0.12909164 -0.07532893 -0.056114145
408 0.8934378 0.7740822 -0.04583315 -0.12108909 -0.17803352 0.5941251 1.299903 -0.12047645 0.082856536 -0.16203798 -0.0010871068 0.5349016 -0.06320246 0.0051615015 -0.13602003 0.5854993 -0.20130081 -0.12247264 -0.2839778 0.13335815 0.30955088 -0.30024633 -0.046394512 -0.3527226 -0.040880647 -0.009166394 -0.21263519 -0.020357037 -0.0044397064 -0.078790314 -0.2623075 -0.23011218 -0.16485918 0.30861667 -0.3680222 -0.21880095 -0.071446955 -0.13498634 -0.08560991 -0.2334558 -0.020409632 0.39311782 -0.32339308 -0.023972904 -0.12619023 -0.18476968 -0.18917856 -0.075545065 0.21279302 -0.03621857 -0.0036251924 0.09169277 0.1669218 -0.18716955 0.0071373195 0.18148041 0.955031 -0.10808194 -0.0357156 0.5586942 -0.06889956 -0.19729905 -0.013064421 -0.27364662 -0.09092955 -0.19291614 0.22040637 -0.14873509 0.1016833 -0.04139591 -0.12806122 -0.21739124 -0.10586541 0.11379887 -0.0075430535 -0.057394695 -0.089486085 -0.17117594 0.92069596 -0.1568329 0.019064248 0.022004373 -0.22925074 -0.30156127 0.68364537 -0.09083963 -0.20701174 -0.4742177 -0.06323599 0.013196006 0.49919894 -0.04190021 -0.09118463 -0.1793053 0.07238728 -0.23932722 -0.06706729 -0.28001368 -0.052420944 -0.045831483
734 -0.22674981 -0.18015923 -0.21978632 -0.20970567 -0.2014275 -0.100794934 -0.11952086 -0.20963721 -0.13108027 0.16652435 -0.2728115 -0.02134814 -0.13441956 0.026362814 -0.20261596 -0.06632363 -0.18616396 -0.056862887 -0.19471894 -0.20887151 0.52017534 -0.14158835 0.28054267 0.5705484 -0.13567905 -0.20390713 -0.1590723 -0.2444716 -0.0883119 0.098621756 -0.17366366 -0.11080021 -0.18458323 -0.0064754756 -0.047674216 -0.15716039 -0.05855738 -0.12283444 -0.19780932 -0.1993793 -0.08877684 -0.07338429 0.4531672 0.1480314 1.3809785 -0.16853625 -0.18816559 -0.0021548287 -0.18177478 -0.11529451 0.8390625 -0.37616473 0.017083133 -0.088454284 -0.23811638 -0.045790482 -0.11160406 -0.11616166 -0.23877223 -0.18732585 -0.037416574 -0.07938235 -0.13126655 -0.25270912 -0.16387327 -0.10301073 -0.1070691 -0.15332408 0.8846992 0.0024837423 -0.32836744 -0.124452405 -0.20666443 -0.2624703 -0.03005338 -0.25634962 -0.2883702 -0.18975572 -0.070952326 -0.101615384 -0.23153661 -0.046811394 -0.18370701 -0.12734094 -0.027699217 -0.0317576 -0.013543705 -0.16187017 -0.029406322 -0.06992034 0.8879615 0.57239974 -0.04728102 -0.063414216 -0.11848605 -0.121891335 -0.10723227 -0.07823563 -0.1700303 -0.12276783
507 -0.1187109 -0.089869 -0.10961641 -0.14963578 -0.11358038 0.08733754 -0.08724088 -0.17608826 0.18023439 0.057733256 -0.047561534 0.38353443 -0.09060244 -0.028681714 -0.012528571 0.26127955 -0.05288401 -0.0044943946 -0.12671316 0.21165788 0.03630678 -0.13226052 0.011541765 0.6533489 0.39005968 0.12958655 -0.019527905 -0.04598539 -0.119584024 -0.105180465 -0.12581985 -0.12630107 -0.050770164 0.04167735 -0.22022164 -0.12709554 0.16047901 -0.116784595 -0.10613685 -0.13795093 -0.05767032 -0.056644883 0.8011086 -0.0066951746 -0.017945772 0.35766926 -0.18881571 -0.11105092 -0.108298145 -0.016334025 -0.03672876 -0.06502464 -0.10161512 -0.10970167 -0.087927274 -0.0027471506 0.5725396 -0.03750759 0.15205547 -0.032829266 0.08075304 -0.12206326 -0.052422713 -0.123000674 -0.0468382 0.5706854 -0.012457739 -0.12340017 0.77743685 -0.041776054 -0.103836775 -0.12683846 -0.04456031 0.41983628 -0.03257648 -0.10255734 -0.057999667 -0.08549883 -0.0018322006 -0.075568974 -0.12475107 0.16758272 -0.11270815 -0.14303438 0.100440346 0.1334738 -0.053147495 -0.15119953 -0.045073796 -0.09475613 0.059245307 -0.077524714 -0.0025422336 0.3414115 -0.173557 -0.098978266 0.13122718 -0.06794592 -0.073407166 -0.03323826
720 -0.32526356 -0.28388754 -0.29138562 -0.27075538 -0.28978577 -0.085304245 -0.054938134 -0.25933698 -0.20364223 -0.022952018 -0.38010177 -0.11978185 -0.12663646 0.38519993 -0.32014364 -0.07339184 -0.26955074 -0.16739225 -0.13644487 -0.1247194 0.5039613 -0.07884647 -0.06659333 0.5782546 -0.2437398 -0.22439101 -0.23159872 -0.31364796 -0.089329995 -0.10849726 -0.19537698 -0.2124834 -0.18567453 0.0395069 -0.00044442565 -0.088545285 -0.12582292 -0.13550732 -0.19700086 -0.26904422 -0.039989736 -0.039028116 0.95282626 -6.553903e-05 1.1483295 -0.09426765 -0.19232093 0.17612207 -0.26363826 -0.2020678 -0.00811269 -0.45007443 -0.12967661 -0.09987197 -0.29487175 -0.15031968 -0.33994195 -0.19705988 -0.19370855 -0.233252 -0.055591255 -0.07625932 -0.11034061 -0.25102162 -0.24367566 -0.1590256 -0.20578213 -0.22017352 0.86522806 -0.033445224 -0.36187744 -0.10016151 -0.2362306 -0.1168432 -0.2023248 -0.291046 -0.37732938 -0.27969953 -0.14385499 -0.12836729 -0.2633579 -0.09057864 -0.15517144 -0.0107206 -0.008271846 -0.038654495 -0.04720856 -0.080699444 -0.018398436 0.049693428 1.5295088 0.27199918 -3.002286e-05 -0.07554545 -0.237475 -0.15558378 -0.10837612 -0.09926652 -0.3246934 -0.20502166
728 -0.16341774 -0.15824044 -0.15547392 -0.14021568 -0.12582801 -0.059919324 -0.04136068 -0.14073996 -0.06343267 -0.021057833 -0.1901978 -0.008552666 -0.07822125 0.14486441 -0.1284939 -0.0298785 -0.14582966 -0.068193294 -0.11820841 -0.08773662 0.19088408 -0.046290684 -0.012373851 0.40571013 -0.11965634 -0.1122972 -0.08762963 -0.1634203 -0.07284984 -0.018520195 -0.09715118 -0.105248645 -0.11198318 -0.008094589 -0.02173159 -0.07856637 -0.047215227 -0.06687865 -0.099307455 -0.14503329 -0.01852095 -0.05071035 0.40103102 -0.01920021 0.90782666 -0.081818454 -0.08834069 -0.01400927 -0.1410577 -0.07566167 0.08100382 -0.2532934 -0.053518828 -0.038591232 -0.14345874 -0.065657504 -0.12522797 -0.08172049 -0.13583538 -0.12063444 -0.020925267 -0.034837797 -0.07172551 -0.14657123 -0.118472554 -0.060527116 -0.13887964 -0.12513648 0.53143954 0.04520978 -0.19878945 -0.06395332 -0.13346724 -0.09838598 -0.10537141 -0.14040138 -0.17526752 -0.14413631 -0.07905439 -0.09156231 -0.15033829 -0.04532006 -0.082920805 -0.032070544 -0.0063249827 -0.0018008373 -0.022544963 -0.10253427 0.016517632 -0.0031811036 0.9547391 0.1577143 -0.0055871094 -0.019620905 -0.10404166 -0.09898202 -0.06046895 -0.04476727 -0.17590521 -0.10511702
778 -0.18048304 -0.22749999 -0.23210593 -0.11922884 -0.16574675 0.026220713 -0.15536745 -0.21811111 -0.07320871 0.24994618 -0.2386581 0.42250484 -0.08530105 0.19558299 -0.08478713 0.2513017 -0.07331431 -0.056360733 -0.2171284 -0.1131564 0.41275695 -0.08280658 0.10917793 0.4515113 -0.061958462 -0.17794679 -0.11390009 -0.14456339 -0.11935859 0.012934316 -0.1299594 -0.0804645 -0.14263864 -0.022249894 -0.052610047 -0.0170814 0.20543723 -0.11096795 -0.09496206 -0.12927756 -0.07424847 -0.088659145 0.84461224 0.48412296 1.454632 -0.11460417 -0.1274287 -0.024728497 -0.18075897 -0.063633844 0.40668887 -0.32147652 -0.051508125 -0.03233522 -0.21534553 -0.034519847 -0.062355675 -0.10169082 -0.17209306 -0.113244824 0.36082652 -0.0063384445 -0.08448017 -0.19956592 -0.14656238 -0.007607048 -0.16213484 -0.14787385 0.9372078 0.3426819 -0.23500419 -0.095098756 -0.11319164 -0.17717168 -0.05871134 -0.1767767 -0.19482821 -0.15482938 -0.033614352 -0.08805582 -0.18749234 -0.039819736 -0.10167449 -0.08629703 0.15156545 -0.016540242 0.021187784 -0.12194326 0.021706007 -0.060743816 1.0681387 0.3420713 0.11162457 0.15645109 -0.1524434 -0.0610581 -0.12364749 0.11681646 -0.15251087 -0.07126906
413 0.29087123 0.06547443 -0.056549955 -0.20395136 -0.20690504 1.1033704 -0.14346471 -0.20006311 0.123111404 -0.1352974 -0.091964096 1.3576795 -0.17499264 -0.16830377 -0.17643566 -0.07824264 -0.28634164 -0.037562657 -0.36621672 0.10409664 -0.086779706 -0.4494744 0.7939027 -0.18421917 0.5192509 -0.32185876 -0.38287398 -0.14223708 -0.2228316 -0.29546195 -0.26733258 -0.14054546 -0.21493828 0.5884331 -0.55064315 -0.34219328 -0.011859631 -0.20271087 -0.175027 -0.47654924 -0.2988008 -0.13505429 -0.32555243 0.12791236 -0.03956582 -0.082924716 -0.36453196 -0.14570408 0.7815896 -0.06528234 0.27952152 -0.17172383 0.040349 -0.3195847 -0.15739249 0.027672347 0.8206366 -0.08805002 0.16121674 -0.2087653 0.9958989 -0.17861055 -0.20284545 -0.2340041 -0.17382298 0.16120838 0.42929327 -0.19147196 1.5191108 -0.056073315 -0.28342938 -0.15988511 -0.014235519 -0.030978912 0.5731503 -0.27067629 -0.25501516 -0.22866969 -0.049936928 -0.11622038 -0.260096 0.46170467 -0.3004761 -0.4173007 -0.120938756 -0.066255115 -0.14266196 -0.7334949 -0.15173295 -0.25202522 0.40599573 -0.105921045 -0.10949544 -0.08255937 -0.1414829 -0.47769824 -0.049924437 -0.12463409 1.0607735 -0.16405149
985 -0.03264272 -0.014984257 -0.037953425 -0.09027647 -0.03577862 0.30163106 -0.017707681 -0.01367639 -0.040727008 0.341066 -0.08488994 -0.0592825 0.52107906 -0.07825636 -0.0715171 -0.11691826 -0.11567743 0.11391728 -0.15131943 0.05528433 0.47961223 -0.08870733 0.41196606 0.09551831 -0.022447065 -0.032850325 -0.15100612 -0.04552815 -0.10777097 -0.05911323 -0.057498932 -0.10575298 -0.1045748 0.2395419 -0.03723843 -0.03244203 -0.035064947 -0.040926732 -0.074646525 -0.13747841 -0.11492502 -0.04442619 -0.057970654 -0.011176917 -0.04940657 0.31103966 -0.13429111 -0.04155003 0.3054063 -0.027036106 0.22390553 -0.03349835 -0.057145864 -0.037686322 0.26770642 0.53850174 -0.032584902 -0.05046006 0.48191124 -0.10838808 1.0013936 -0.12789004 -0.078166135 -0.07845934 -0.06521659 -0.055591304 0.39839756 0.42537156 -0.036893487 -0.0384567 -0.09271493 -0.03286478 -0.02314442 0.7020683 -0.04417145 -0.0028265181 -0.07006123 -0.06695599 -0.0497109 0.32437113 -0.08658522 -0.018270863 0.21636277 -0.058690704 0.25915596 -0.03235964 -0.03017482 -0.102334835 -0.046630073 -0.010087266 0.39896625 -0.06987067 -0.02063012 -0.030664966 -0.09020763 -0.04495539 -0.14769657 -0.08803056 -0.07324134 -0.14260449
310 -0.0075951526 0.10229228 0.14177847 -0.036594503 -0.0021896735 -0.006134881 -0.035397653 -0.020700669 0.040274598 -0.069623105 0.014437817 0.0071477406 -0.037813347 -0.012529619 -0.02602975 -0.009055044 -0.10949087 -0.040427487 -0.050507974 0.12466868 -0.02257419 -0.0694133 -0.040111084 -0.057394862 0.03036179 -0.03520692 -0.046385106 -0.052713048 -0.028423717 -0.011891643 -0.03570683 -0.035419848 -0.006277376 0.02926223 -0.10526537 -0.103849255 -0.0035521702 -0.024762701 -0.04787254 -0.07100581 0.11288586 -0.019019049 -0.063672535 -0.06646274 -0.020742727 0.08413657 -0.01294637 -0.05318555 -0.023285756 -0.024446484 0.14962754 0.045697108 0.103592716 -0.0513618 0.112621 -0.030811518 0.11975041 0.03255501 0.05267694 -0.005944462 0.08971056 -0.048851058 -0.019100903 -0.016968993 -0.0030423421 -0.012837167 -0.018046333 -0.061584413 -0.012692976 -0.0015644584 -0.035953723 -0.029903859 -0.04693948 -0.020220319 -0.019647911 -0.01945207 -0.036564004 -0.026188094 -0.0024822808 -0.0035491486 -0.035227288 0.15311378 -0.069663405 -0.026415532 -0.046855126 -0.072017536 -0.04695048 -0.14111772 -0.033949602 -0.031671107 -0.025534635 -0.06439747 -0.079412095 -0.05571877 0.07008949 -0.082029186 0.092789814 -0.06916796 0.102198645 -0.032846306
974 -0.043987557 0.16463643 -0.030096507 -0.065916024 -0.03942588 -0.023071874 -0.05366541 -0.044815674 -0.017217405 -0.06418101 -0.054822803 -0.04454688 -0.028106267 -0.05443881 -0.0817815 -0.047624838 -0.13161439 -0.03362257 -0.06648753 -0.007758153 0.061350655 -0.066393115 -0.037764035 -0.028840154 -0.043535154 -0.04097677 -0.09968633 -0.094476536 -0.023926575 -0.04343353 -0.060700428 -0.055950135 -0.041770745 0.05077171 -0.093532644 -0.09671384 -0.049741846 0.046383504 -0.089196436 -0.1082189 -0.021016767 0.15431151 -0.031625494 -0.056560308 0.02764634 -0.020726858 -0.045163475 -0.050070938 -0.021765513 -0.057043936 0.21844551 -0.041930575 0.14397922 -0.082900286 -0.01827714 -0.0075740204 -0.010760443 -0.009524287 -0.0064949654 -0.042084653 -0.011356237 -0.049101245 -0.038724493 -0.026437117 -0.0496684 -0.020794883 -0.01859139 -0.020883912 -0.027834175 -0.01896452 -0.09031183 -0.02135345 -0.08300756 -0.042002145 -0.037044775 -0.07425415 -0.10179856 -0.05633083 -0.003278146 -0.0039424654 -0.05837485 0.0712759 -0.11670792 -0.030364946 -0.073556736 -0.08204045 -0.036361888 -0.11303427 -0.02751763 -0.023634747 -0.065514155 0.058462232 -0.044958066 -0.086748466 0.038699184 -0.082559906 -0.038187023 -0.083260775 0.094829485 -0.023236154
987 -0.04290129 0.3504348 -0.037538946 -0.08598358 -0.046892922 0.05526444 -0.080114804 -0.04590527 0.1760871 -0.08846466 -0.049238246 -0.041864045 -0.0006469652 -0.11952771 -0.113213554 0.06360861 -0.14496927 0.0036168844 -0.09220525 -0.0019104586 -0.05554092 -0.15187293 -0.033083845 -0.037394684 -0.010023352 -0.09931226 -0.13030599 -0.11399533 -0.044084873 -0.025961498 -0.04523368 -0.017317977 -0.05339968 0.043969024 -0.14947112 -0.1600706 -0.00022541657 -0.096535325 -0.12261176 -0.15369138 -0.047238648 -0.018672071 -0.10683 -0.12488251 0.055819966 -0.0072633824 -0.09112618 -0.055477407 -0.024049122 -0.033518925 0.2782248 -0.06269294 -0.012245248 -0.083204746 -0.032259893 0.12672451 0.19887613 -0.0044348612 -0.0006641865 -0.05503575 0.6447572 -0.095005386 -0.052248962 -0.042479824 -0.035788354 -0.0053939107 -0.025956089 -0.069632515 0.23222221 -0.030959139 -0.08754433 -0.030554056 -0.08556557 -0.09650331 -0.051267195 -0.12182663 -0.07865735 -0.032181937 -0.031518538 -0.038605444 -0.08943547 0.17608112 -0.15491815 -0.06321034 -0.11047701 -0.09425896 -0.042570293 -0.20223014 -0.0010988348 -0.0942897 -0.08811089 0.09056452 -0.05034876 -0.10057753 -0.0061771967 -0.10349663 -0.037768617 -0.09231566 0.94388026 -0.0070851967
36 -0.007174237 0.084096424 -0.01566546 -0.05980729 0.00071982294 0.045168716 -0.020844411 -0.016386641 -0.0063398667 -0.030306233 -0.03623283 -0.01908805 0.045165077 -0.06606113 -0.031859294 -0.0121446885 -0.07630338 -0.00750677 -0.06773298 -0.01436153 -0.0043473095 -0.06293911 0.1103863 -0.013352937 -0.008230152 -0.015650095 -0.029306788 -0.027992746 -0.04600547 -0.016528122 -0.038030233 -0.07344111 -0.052080065 -0.0016929891 -0.072629824 -0.07399706 -0.038520582 -0.031130051 -0.04975921 -0.076802224 -0.01351344 -0.043503094 -0.056115013 -0.056951232 -0.033717453 0.05721463 -0.089168146 -0.0593473 0.06618213 -0.020268975 -0.014861819 0.06608862 -0.011856011 -0.0238495 0.15519883 0.06842607 0.019531786 -0.0024560536 0.2681301 -0.020991618 0.19091897 -0.073564045 -0.037485562 -0.04523245 -0.014860019 -0.03746384 -0.019179614 0.04577595 -0.0053795646 -0.022920202 -0.043783225 -0.026842356 -0.026960535 0.08272762 -0.03340548 -0.009680695 -0.018843345 -0.018774463 -0.024895132 0.02448975 -0.022485873 0.046159267 -0.02586226 -0.052690126 0.10983917 -0.018103858 -0.037029397 -0.10797115 -0.0198894 -0.034373414 0.021814842 -0.033951174 -0.041857015 -0.021389002 -0.014764908 -0.0522211 -0.029307289 -0.0599342 -0.023912875 -0.054672427
422 -0.007174237 0.084096424 -0.01566546 -0.05980729 0.00071982294 0.045168716 -0.020844411 -0.016386641 -0.0063398667 -0.030306233 -0.03623283 -0.01908805 0.045165077 -0.06606113 -0.031859294 -0.0121446885 -0.07630338 -0.00750677 -0.06773298 -0.01436153 -0.0043473095 -0.06293911 0.1103863 -0.013352937 -0.008230152 -0.015650095 -0.029306788 -0.027992746 -0.04600547 -0.016528122 -0.038030233 -0.07344111 -0.052080065 -0.0016929891 -0.072629824 -0.07399706 -0.038520582 -0.031130051 -0.04975921 -0.076802224 -0.01351344 -0.043503094 -0.056115013 -0.056951232 -0.033717453 0.05721463 -0.089168146 -0.0593473 0.06618213 -0.020268975 -0.014861819 0.06608862 -0.011856011 -0.0238495 0.15519883 0.06842607 0.019531786 -0.0024560536 0.2681301 -0.020991618 0.19091897 -0.073564045 -0.037485562 -0.04523245 -0.014860019 -0.03746384 -0.019179614 0.04577595 -0.0053795646 -0.022920202 -0.043783225 -0.026842356 -0.026960535 0.08272762 -0.03340548 -0.009680695 -0.018843345 -0.018774463 -0.024895132 0.02448975 -0.022485873 0.046159267 -0.02586226 -0.052690126 0.10983917 -0.018103858 -0.037029397 -0.10797115 -0.0198894 -0.034373414 0.021814842 -0.033951174 -0.041857015 -0.021389002 -0.014764908 -0.0522211 -0.029307289 -0.0599342 -0.023912875 -0.054672427
833 -0.0021692484 0.032892346 -0.020672387 -0.083624326 -0.03918412 0.5454177 -0.06657015 -0.043594386 0.068956256 -0.022896508 -0.026719308 0.081243575 0.108048156 -0.05367374 0.10049623 0.26411307 -0.0327833 0.09023171 -0.16851453 0.18720487 0.13281617 -0.11919796 0.1964735 -0.0005125709 0.6284749 -0.020879477 -0.05325296 0.26128495 -0.10772636 -0.055187155 -0.07030957 -0.08076807 -0.09521897 -0.0020446044 -0.15974051 -0.018445533 0.18236779 -0.073628634 -0.07654869 -0.11426069 -0.07939153 -0.06679723 -0.031147007 -0.028705036 -0.035413206 0.10968875 -0.17366998 -0.07609012 0.29448965 -0.02021325 -0.024739584 0.006072173 -0.09638504 -0.04706399 -0.06506796 0.088741034 0.31578502 0.11766479 0.77864355 -0.03297926 0.84158045 -0.07347406 -0.057787854 -0.08929853 -0.04983371 0.09218964 -0.0047616246 -0.040613275 0.4979936 -0.011903755 -0.039202828 -0.042207252 0.35406268 0.3263451 -0.015250861 -0.013739592 -0.014035076 -0.020395044 -0.045692995 -0.06947616 -0.066438876 0.27568284 -0.022130877 -0.07965233 0.42973536 0.16272594 -0.06055283 -0.1627326 -0.027330682 -0.09533834 0.2570043 -0.043923374 -0.023459127 0.3301789 -0.060388114 -0.08113456 -0.07346777 0.103671044 0.1195326 -0.10375611
541 -0.13412783 0.137157 -0.088586286 -0.04279825 -0.15560488 -0.08445425 -0.07858546 -0.1072823 -0.09116635 -0.033243086 -0.1145929 -0.13949747 -0.01141383 -0.09679358 -0.1335312 -0.18610758 -0.2767569 -0.09924791 -0.05855291 -0.04473411 -0.0068701925 -0.022517657 0.051350664 -0.049103614 -0.14268056 -0.08538385 -0.20574938 -0.13526368 0.07312113 -0.056303002 -0.11792622 -0.1283842 -0.031914692 0.022408573 -0.026528342 -0.059875656 -0.07163449 -0.035037484 -0.22785413 -0.21999565 -0.1024565 0.40539792 0.0070397817 0.10405873 -0.009683611 -0.05352375 -0.066166796 -0.05226576 -0.04588483 -0.12706107 0.34550646 -0.1404869 0.051390596 -0.13471726 -0.02477937 0.37501436 -0.11485372 -0.045869123 -0.03642232 -0.11732181 -0.035650875 -0.058158416 -0.1333201 0.46073195 -0.11581104 -0.024999648 -0.026902074 0.51237696 -0.04355326 -0.049420297 -0.19321236 -0.03913004 -0.16632017 -0.06598903 -0.04659167 -0.114832126 -0.16021642 -0.10555847 -0.010682172 0.479972 -0.08087071 -0.042937804 -0.10895413 -0.02336832 -0.13154934 -0.098614044 -0.055784147 -0.035490427 -0.086918116 -0.027883692 -0.087419644 -0.0422484 -0.049549527 -0.11508127 -0.019321028 -0.09582798 -0.09970194 -0.13396548 -0.124812864 -0.1005121
382 -0.06488549 0.28970715 -0.038249966 -0.014129712 -0.0891067 -0.06423264 -0.07080492 -0.05655076 -0.050407257 -0.10083119 -0.08654385 -0.086910956 -0.022833247 -0.08633098 -0.057033446 -0.1307028 -0.19939403 -0.06366023 -0.061713934 -0.021925023 -0.0297429 -0.0043485537 -0.010373199 -0.047252577 -0.06974805 -0.04314828 -0.11802975 -0.06294273 0.26995164 -0.023609648 -0.08200748 -0.090373814 -0.03729706 0.010548519 -0.03205379 -0.05316614 -0.029062156 -0.026914055 -0.14308424 -0.15731786 -0.04070906 0.3622673 0.08225447 -0.0042755986 -0.008070531 -0.0005799776 -0.04925229 -0.032251704 0.12321188 -0.107119754 0.013496324 -0.060881745 0.20807339 -0.10755234 0.25822082 0.5096974 -0.047927186 -0.0033414438 -0.02241071 -0.079294644 -0.029483486 -0.031332545 -0.08226049 0.62054396 -0.057929363 0.001911033 -0.058280136 0.45077065 -0.013821668 -0.053172763 -0.121952794 -0.0144816665 -0.10512719 -0.032472324 -0.024810357 -0.06841935 -0.07667911 -0.05294874 0.024129156 0.5110506 -0.026978502 -0.0025680342 -0.07153981 -0.011942556 -0.12800889 -0.09997337 -0.104580425 -0.061630614 -0.06730264 -0.0013675004 -0.052438386 -0.0676773 -0.04827143 -0.08593627 -0.0067977854 -0.072835155 -0.061047804 -0.09565251 -0.11002809 -0.047532775
401 -0.023413477 0.43293437 -0.025307328 0.0072842296 -0.07041881 -0.058703285 -0.052952737 -0.044526856 -0.040000234 -0.12031368 -0.055376388 -0.06867431 -0.018539133 -0.08853804 -0.034501772 -0.13350622 -0.20655517 -0.071855895 -0.050930597 -0.011480965 -0.059339162 0.016913526 -0.044531543 -0.026472276 -0.06653389 -0.04246822 -0.108198225 -0.040124044 0.41339839 -0.015967755 -0.072572246 -0.07400387 -0.04054913 -0.010581431 -0.027648514 -0.03003003 0.06469461 -0.05848211 -0.13364136 -0.13153037 -0.03600966 0.69332993 0.2505278 -0.00582925 -0.030353835 0.16073936 -0.022906143 -0.053994697 0.20973328 -0.15907489 0.06492508 -0.019671155 0.3028902 -0.094330624 0.44817895 0.50333977 -0.044644415 0.12679516 -0.009345889 -0.066711344 -0.0002811 -0.010787402 -0.06985182 0.6532508 -0.039545126 0.059952322 -0.08925163 0.38883412 0.0028216615 -0.03701828 -0.0953881 -0.030052466 -0.07154667 -0.018146528 -0.020767557 -0.039801244 -0.067242384 -0.038475174 0.10503356 0.70572424 -0.013029987 0.043512903 -0.061197925 -0.0049512275 -0.13528429 -0.120383196 -0.09937315 -0.084779784 -0.05370904 0.059571728 -0.03818461 -0.110813215 -0.053409018 -0.06835555 -0.009491342 -0.0801019 -0.040552024 -0.09428419 -0.10022938 -0.070638426
760 -0.13412783 0.137157 -0.088586286 -0.04279825 -0.15560488 -0.08445425 -0.07858546 -0.1072823 -0.09116635 -0.033243086 -0.1145929 -0.13949747 -0.01141383 -0.09679358 -0.1335312 -0.18610758 -0.2767569 -0.09924791 -0.05855291 -0.04473411 -0.0068701925 -0.022517657 0.051350664 -0.049103614 -0.14268056 -0.08538385 -0.20574938 -0.13526368 0.07312113 -0.056303002 -0.11792622 -0.1283842 -0.031914692 0.022408573 -0.026528342 -0.059875656 -0.07163449 -0.035037484 -0.22785413 -0.21999565 -0.1024565 0.40539792 0.0070397817 0.10405873 -0.009683611 -0.05352375 -0.066166796 -0.05226576 -0.04588483 -0.12706107 0.34550646 -0.1404869 0.051390596 -0.13471726 -0.02477937 0.37501436 -0.11485372 -0.045869123 -0.03642232 -0.11732181 -0.035650875 -0.058158416 -0.1333201 0.46073195 -0.11581104 -0.024999648 -0.026902074 0.51237696 -0.04355326 -0.049420297 -0.19321236 -0.03913004 -0.16632017 -0.06598903 -0.04659167 -0.114832126 -0.16021642 -0.10555847 -0.010682172 0.479972 -0.08087071 -0.042937804 -0.10895413 -0.02336832 -0.13154934 -0.098614044 -0.055784147 -0.035490427 -0.086918116 -0.027883692 -0.087419644 -0.0422484 -0.049549527 -0.11508127 -0.019321028 -0.09582798 -0.09970194 -0.13396548 -0.124812864 -0.1005121
882 -0.040012814 -0.017859226 0.3306762 -0.034867626 -0.11329948 -0.1020368 -0.08125096 0.23856889 -0.2677814 -0.14434443 -0.06883716 -0.027897267 -0.091536954 0.454313 -0.047481447 -0.16863108 -0.099403046 -0.16872019 0.110734664 -0.057551045 0.58062035 0.085148804 0.2410767 -0.3019349 -0.10844755 -0.076015346 -0.10808903 -0.029492274 -0.020430064 0.5489896 -0.037703507 -0.01713181 0.20663983 -0.06597375 -0.087143935 -0.0462327 -0.16474085 0.16161042 -0.039853945 -0.11389654 0.3728633 -0.1692088 0.16924666 -0.018728271 -0.13169579 -0.04820805 -0.11224132 -0.3007836 0.20488176 -0.117586546 0.238677 -0.061104085 0.040983625 -0.10671915 0.25024498 -0.08491161 -0.28300312 -0.07140986 -0.06332724 0.01718076 -0.10107266 -0.0583196 -0.10443411 -0.18885444 -0.029695172 -0.08362047 -0.1345624 -0.07968077 -0.01508781 -0.06597161 -0.121458784 -0.5068936 -0.13093488 0.044367194 -0.059380688 0.19002168 -0.135311 -0.21396351 -0.13194232 -0.13281277 0.07363193 1.4223413 0.40473306 -0.0763681 -0.2951714 -0.151606 -0.21070878 -0.040786818 -0.13546728 0.058990516 -0.038903575 -0.35907176 -0.11491102 0.13232563 -0.22123788 0.008122545 0.032729268 -0.05031838 -0.10384549 -0.1968137
462 0.6121147 -0.030309021 0.51703835 -0.1256243 -0.16964921 -0.04667399 -0.048309676 -0.027371902 -0.38446945 -0.07032975 -0.022083288 -0.06143517 0.3877026 -0.012836768 -0.12223377 -0.14925912 -0.19524251 -0.1544071 -0.13754521 -0.10103875 0.8332488 -0.09870755 -0.064202346 -0.25504553 -0.12944788 -0.18125854 -0.16212425 -0.113650955 -0.05000074 0.016839217 -0.13205354 -0.08774151 -0.023402642 -0.0741132 -0.12251687 -0.20047677 -0.21919961 -0.055089872 -0.208118 -0.17316288 0.0686845 -0.24380259 -0.22527571 0.5400266 0.07309555 -0.14832887 -0.07538922 -0.18026377 1.063132 -0.17534266 -0.14366898 -0.09050399 -0.0621731 -0.24302347 -0.036660455 -0.05664999 -0.09650075 -0.040242787 -0.073563635 -0.037588846 -0.1063352 -0.13668263 -0.08302387 -0.1830374 -0.02921055 -0.14458267 -0.06727301 -0.030887557 -0.16409153 -0.018001325 -0.12986626 -0.23468451 -0.19520864 -0.10528016 -0.07635791 0.57548565 -0.22398613 -0.15455651 -0.2760075 -0.06772059 -0.05351125 1.9216893 -0.11774968 -0.14469944 -0.061943438 -0.1621726 -0.24601853 -0.06656894 -0.006751794 -0.0402083 -0.05530416 -0.19130644 -0.112171724 -0.06653746 -0.16014448 -0.058006566 -0.08003521 -0.17977083 -0.14108875 -0.18517467
494 0.112529635 -0.023750931 0.24572057 -0.13772236 -0.1615256 -0.06923824 -0.078636736 -0.027864998 -0.3653123 -0.046422582 -0.034310963 -0.04517704 0.22518194 -0.0067249225 -0.097568564 -0.16368492 -0.18381813 -0.1674308 -0.10862962 -0.10261812 0.72188586 -0.085522614 -0.06022342 -0.27476168 -0.11475358 -0.17561595 -0.16304417 -0.13701807 -0.023650113 -0.0056591104 -0.121988 -0.10875677 0.025473364 -0.061086178 -0.10491057 -0.1782143 -0.20623241 -0.021004869 -0.19795454 -0.15782933 -0.007870107 -0.21735255 -0.17167096 0.6481071 0.102541976 -0.122261085 -0.095353976 -0.17770219 1.0078108 -0.14692049 -0.15160803 -0.08954914 -0.059769887 -0.23849928 -0.050731447 -0.04575312 -0.15940396 -0.04553564 -0.09617293 -0.0043116272 -0.13054179 -0.15208954 -0.07129732 -0.19038793 -0.017178178 -0.122884646 -0.089698754 -0.033603586 -0.18854232 -0.02274148 -0.11529523 -0.31180057 -0.19826375 -0.10588693 -0.057511993 0.34675923 -0.20747589 -0.1971151 -0.29016978 -0.080526546 -0.049795587 1.9131234 -0.086874984 -0.13120979 -0.08354678 -0.17236504 -0.26234028 -0.036731992 -0.040614504 -0.03616446 -0.064662784 -0.18230848 -0.108199075 -0.05680815 -0.16933778 -0.06363354 -0.072686814 -0.138162 -0.19512226 -0.20313857
513 0.16837299 -0.015673248 0.21788973 -0.111832656 -0.13670085 -0.06498828 -0.051184095 -0.05040123 -0.3657873 -0.027971426 0.153905 -0.012940973 0.11018363 0.08595506 -0.051304366 -0.1443353 -0.15705776 -0.16564845 -0.08929637 -0.12202425 0.6385956 -0.072291344 -0.035903197 -0.24156897 -0.1121887 -0.18293558 -0.1152158 -0.09951051 0.055964533 -0.016106358 -0.09312542 -0.08559923 0.13732836 -0.06055669 -0.06872733 -0.16097794 -0.17875618 -0.068662524 -0.17701639 -0.13466214 -0.0037619711 -0.23709002 -0.14801928 0.5661641 -0.035313834 -0.11046501 -0.056662466 -0.19505525 0.6621755 -0.18248512 -0.13030757 -0.087407164 -0.06856031 -0.18647726 -0.030152444 -0.055000313 -0.168303 -0.025596974 -0.08673389 -0.0033197277 -0.1167348 -0.11107488 -0.07044818 -0.1783261 -0.004332473 -0.11746299 -0.15465428 -0.048851233 -0.16257338 -0.01082649 -0.07228636 -0.3476989 -0.15828788 -0.0725969 -0.06051003 0.19366558 -0.16456713 -0.1794246 -0.1786051 -0.05874127 -0.010709343 1.6798649 -0.03382968 -0.116930686 -0.075989194 -0.16838449 -0.25116852 -0.029546166 -0.022277616 -0.04250477 -0.04600453 -0.19776274 -0.103996396 -0.015270579 -0.14573893 -0.056804758 -0.0579662 -0.11694633 -0.15824611 -0.21357189
549 0.42268306 -0.03214552 0.3940258 -0.12872799 -0.1356721 -0.039335012 -0.058253556 -0.046500526 -0.39253226 -0.05697182 0.03291612 -0.06719822 0.33272898 0.16391793 -0.092907876 -0.14052577 -0.17643712 -0.16281304 -0.09970039 -0.096971266 0.53153235 -0.088719465 -0.087685965 -0.23338778 -0.132524 -0.18480389 -0.14013262 -0.13034186 -0.016209563 -0.0061582997 -0.10700852 -0.07691568 -0.011971014 -0.09400903 -0.095957756 -0.16525564 -0.20557897 -0.076643884 -0.19842952 -0.1479778 0.011109859 -0.2682889 -0.18217711 0.59678847 -0.023488043 -0.111147776 -0.051709153 -0.19183683 0.77345806 -0.18098997 -0.11381652 -0.1039355 -0.080906056 -0.2336415 -0.023989003 -0.07096556 -0.14811108 -0.026438097 -0.07311187 -0.043911535 -0.10733844 -0.13740383 -0.04391057 -0.185777 -0.018935425 -0.12393135 -0.15222766 -0.024979211 -0.17551313 0.0043432806 -0.0932527 -0.25396055 -0.17859998 -0.08081563 -0.07187531 0.36753532 -0.20744602 -0.14688396 -0.23304582 -0.07346282 -0.054676425 2.087251 -0.09740733 -0.13025995 -0.0649759 -0.15252703 -0.27117422 -0.024111828 -0.011579789 -0.018891033 -0.05197165 -0.19476609 -0.12599331 -0.045721393 -0.14556172 -0.04872361 -0.073291145 -0.13771032 -0.17352831 -0.22213669
550 0.56024987 -0.021349857 0.5627559 -0.11350087 -0.12531005 -0.026342422 -0.055666346 -0.03913076 -0.35835588 -0.07247902 -0.025548136 -0.04697741 0.34774414 0.02379147 -0.10344495 -0.13000874 -0.17277157 -0.13688426 -0.10533964 -0.07838178 0.5661573 -0.095169745 -0.08205249 -0.23175633 -0.11658794 -0.17429146 -0.14760764 -0.108266346 -0.042785514 0.0045081563 -0.11360308 -0.06652019 0.008953683 -0.103035346 -0.11664184 -0.18022232 -0.18291335 -0.07485566 -0.18289258 -0.15022908 0.07762636 -0.26223746 -0.21502617 0.54269296 -0.0069035413 -0.118218355 -0.054525662 -0.18887733 0.81937367 -0.1686037 -0.109507196 -0.079197936 -0.06852355 -0.22790268 -0.013089545 -0.06355699 -0.08016243 -0.016832652 -0.05543636 -0.04121828 -0.10338845 -0.14099072 -0.052548964 -0.17437893 -0.01752448 -0.12414124 -0.10319834 -0.03385138 -0.15887535 -0.0164507 -0.09201544 -0.20094346 -0.18287311 -0.081238404 -0.07498361 0.54498994 -0.20146911 -0.13652353 -0.22795562 -0.0595338 -0.040909074 1.9036775 -0.10986676 -0.13982697 -0.068094485 -0.15153208 -0.24898402 -0.06192821 0.04725159 -0.031455394 -0.04360266 -0.19962204 -0.11771609 -0.04895631 -0.14410429 -0.05541244 -0.06485839 -0.16235898 -0.12809364 -0.19294968
551 0.39560017 -0.012144885 0.39543915 -0.076540545 -0.09840908 -0.052450832 -0.039260056 -0.013122936 -0.25334558 -0.060204644 -0.0013295234 -0.024246937 0.2453239 0.037675284 -0.059809145 -0.07209185 -0.124212496 -0.12057936 -0.09821787 -0.059102047 0.5453558 -0.06224373 -0.058834076 -0.19149716 -0.069369964 -0.12185892 -0.09709281 -0.08135633 -0.035811182 0.03150944 -0.09312995 -0.047447797 -0.00034033507 -0.04167516 -0.08402391 -0.13512512 -0.16026144 -0.042732786 -0.13495344 -0.10614033 0.10512185 -0.17808309 -0.17622338 0.39321616 -0.018894387 -0.08449019 -0.039988607 -0.12925611 0.70022154 -0.10920149 -0.12124931 -0.063228324 -0.04276214 -0.16966368 -0.0023729745 -0.046976604 -0.050323136 -0.03389779 -0.050080597 -0.00089435204 -0.08237178 -0.09956756 -0.051543154 -0.1245052 0.0010737032 -0.08962906 -0.049393345 -0.016352223 -0.11262107 -0.004781982 -0.07200461 -0.18369749 -0.13789734 -0.07662853 -0.031707298 0.48227078 -0.13808747 -0.11897235 -0.18566836 -0.06915899 -0.03527535 1.4064634 -0.06676211 -0.09540233 -0.052165397 -0.10094847 -0.18743992 -0.060388435 -0.021064691 -0.035398554 -0.043896798 -0.12699094 -0.08676112 -0.05949064 -0.09728346 -0.033712577 -0.03635863 -0.1282259 -0.10116748 -0.14225215
782 0.6521394 -0.011160194 0.5418095 -0.073846124 -0.08553341 -0.010094432 -0.027158022 -0.036990155 -0.23926683 -0.086122684 -0.0128801735 -0.019497892 0.18830195 -0.008549057 -0.05441159 -0.096099265 -0.14406595 -0.100467704 -0.09479992 -0.037845474 0.29731566 -0.08760061 -0.02457499 -0.16107287 -0.0679433 -0.10741109 -0.088254854 -0.04676646 -0.03764714 0.07149181 -0.098352484 -0.07872976 -0.0020897598 -0.07941844 -0.11924099 -0.14540274 -0.14172204 -0.058391638 -0.0969377 -0.13014355 0.14765003 -0.20690739 -0.17114167 0.18497036 -0.018017298 -0.08526674 -0.062287975 -0.1699763 0.6973801 -0.11027893 -0.071949355 -0.02735874 -0.020346647 -0.15429758 0.109467596 -0.0417451 -0.02710647 -0.006765873 -0.029067654 -0.006558489 -0.06571403 -0.10135076 -0.068730764 -0.12636629 -0.006025419 -0.09003483 -0.0351536 -0.03365457 -0.092223264 -0.039520077 -0.07649901 -0.14846098 -0.14407697 -0.0692369 -0.0474652 0.57407707 -0.1316038 -0.091071665 -0.15430497 -0.054675665 0.04189533 1.3053555 -0.09684195 -0.10860639 -0.0729438 -0.101820305 -0.18704636 -0.12109657 -0.0165114 -0.03329363 -0.017817412 -0.20445994 -0.108865514 -0.047628112 -0.08949631 -0.0632446 -0.038690016 -0.13858324 -0.067195855 -0.11337178
798 -0.120839134 -0.019141506 -0.012892661 -0.043150432 -0.20438059 -0.09563079 -0.07674248 -0.04231538 -0.15778764 -0.078914516 -0.11178855 -0.059253722 -0.12805167 -0.029823828 -0.034495555 -0.17436409 -0.12912557 -0.11078874 -0.037990738 -0.08839621 1.3599657 -0.019916408 0.95666146 -0.2061638 -0.11813714 -0.12142507 -0.17529999 -0.039413687 -0.046867073 0.25297692 -0.08565362 -0.058684923 0.35702032 -0.011194355 -0.03393069 -0.12921168 -0.104988754 0.26546416 -0.033463 -0.19763309 -0.012511446 -0.038282212 0.46029153 -0.02455372 -0.054345526 -0.103137754 -0.20372117 -0.22480567 0.097931646 -0.12995535 0.6239338 -0.13692825 -0.024694057 -0.051272612 -0.053365298 -0.020183984 -0.28623423 -0.118776515 -0.12672547 -0.04756575 -0.07759129 -0.045771834 -0.23916733 -0.17214794 -0.10928061 -0.07314524 0.4871803 -0.07007088 0.31566763 -0.106897295 -0.22052236 -0.43333682 -0.1281508 -0.06062106 -0.02429963 -0.079411834 -0.11875307 -0.22387767 -0.12367898 -0.08677653 0.16392441 0.31636268 0.25395447 -0.04349923 -0.2612028 -0.09067176 -0.03691163 -0.08718596 -0.19184999 -0.09562114 -0.14494215 -0.25356945 -0.07378359 -0.06551237 -0.22612958 -0.061401993 0.006262563 0.013889987 -0.08221691 -0.12329131
823 -0.03121726 -0.035740387 -0.004044661 -0.027972165 -0.1942019 -0.08730083 -0.094397396 -0.017905692 -0.09359235 -0.10944202 -0.13830732 -0.056822088 -0.1237665 0.0022290424 -0.076827 -0.16595328 -0.122678876 -0.10851302 -0.0506629 -0.07294116 1.2430874 -0.005410778 0.7501328 -0.22468069 -0.077420406 -0.07611354 -0.16938986 -0.032820337 -0.06732032 0.1152858 -0.10636506 -0.11650868 0.2027336 0.22886182 -0.058156587 -0.12058306 -0.11016538 0.51827645 -0.029293835 -0.16764471 0.21516332 -0.0027995636 0.23999296 -0.024974084 -0.030715663 -0.07827919 -0.16796461 -0.16996919 0.38565975 -0.083947085 0.3131245 -0.10425311 0.01954385 -0.07806038 -0.014151804 0.113977015 -0.23859768 -0.101841286 -0.1143232 -0.07207129 -0.1106498 -0.03917743 -0.2113053 -0.14458156 -0.09405075 -0.07801199 1.2683133 -0.051291574 0.035124768 -0.106322326 -0.19801556 -0.3300093 -0.14883679 -0.07000009 -0.026737774 -0.06531718 -0.11613474 -0.20450686 -0.17861097 -0.08253566 0.09191762 0.08180015 0.0052434653 -0.049194824 -0.21946983 -0.07896267 -0.042843264 -0.08592028 -0.1735602 -0.07458543 -0.11012548 -0.19016469 -0.08851717 -0.09498895 -0.2021664 -0.043522857 -0.031082412 -0.02085442 -0.10899527 -0.076976664
828 -0.029953992 0.070671 0.2969405 -0.11351549 -0.21916373 -0.094152756 -0.10913726 -0.021404106 -0.3463708 -0.12043615 -0.08652225 -0.034234848 -0.061216164 0.14899388 -0.09223969 -0.22344553 -0.21737134 -0.19095863 -0.095911905 -0.13244733 0.95650476 -0.050557625 0.2556671 -0.40453625 -0.14459783 -0.14030384 -0.1782174 -0.08514654 -0.035683233 0.11618677 -0.1359948 -0.17032358 0.19708511 -0.014208865 -0.09327233 -0.16542292 -0.2391105 0.12650931 -0.1561809 -0.18831739 0.09286494 -0.14333133 -0.04001824 0.282491 -0.10397136 -0.11844333 -0.17161158 -0.27348346 0.7183899 -0.13089673 -0.072188385 -0.1419942 -0.024345232 -0.16413565 -0.03696642 -0.035140496 -0.34010452 -0.11240345 -0.124596536 -0.022160143 -0.14887114 -0.14166312 -0.18134771 -0.24327277 -0.047153115 -0.12399528 0.021906644 -0.019441493 -0.14290115 -0.063696496 -0.16649994 -0.5327609 -0.22048524 -0.035135716 -0.042374626 0.1206114 -0.20661643 -0.30148944 -0.25397792 -0.13121486 -0.017932292 1.3140032 0.05026914 -0.12851639 -0.28214517 -0.14532702 -0.25634763 -0.09813807 -0.13473709 -0.06114107 -0.06843234 -0.28177926 -0.122169554 -0.07142105 -0.28096628 -0.047572207 -0.086054504 -0.08144017 -0.20807295 -0.22700095
1009 0.010470286 0.19389772 -0.042030603 -0.048127484 -0.023468515 -0.021058662 -0.03147704 -0.035767835 0.21564548 -0.05399112 -0.02565909 -0.01556196 -0.03237155 -0.04584995 0.02150486 -0.009645775 -0.043770175 -0.034747124 -0.07414275 0.21801874 0.060862456 -0.046576936 0.15269496 -0.056184925 0.027932163 0.027154215 0.030226976 -0.014137468 -0.022523304 0.32756484 -0.04827437 -0.03557063 -0.008515145 -0.0040107197 -0.095948234 -0.08167466 -0.060822587 -0.059328325 -0.025758276 -0.105545245 0.05995272 -0.040855404 -0.08173295 -0.019703949 -0.048646998 0.07780063 -0.071673654 -0.064953044 -0.024442896 -0.0026572568 -0.022856263 0.23740676 0.22678337 -0.041013457 -0.015586506 0.26128867 0.16725816 -0.0037032298 0.18711889 -0.018312931 0.07243925 -0.042482577 -0.026498768 0.16810893 0.0042014904 -0.03150569 -0.024513608 0.063826755 0.06104966 -0.016325563 -0.024525357 -0.027358575 -0.02816226 -0.060845196 -0.020016594 0.055568352 0.19531894 -0.033016425 0.0056299604 -0.017847633 0.3068326 0.08428006 -0.027129844 -0.030084303 -0.025587762 -0.054883737 -0.04525006 -0.116343096 -0.01216385 -0.012695617 -0.025156874 -0.047640048 -0.024904689 -0.041517045 0.23856114 -0.07130767 -0.041655127 -0.033936013 -0.018913804 0.052340977
762 0.33093113 -0.049901552 -0.09146373 -0.161865 -0.024735145 0.6329244 -0.0023453187 -0.08791744 -0.11402961 -0.14248316 -0.14461122 -0.08025876 -0.15338846 0.3575055 -0.18859169 -0.10318368 -0.23076026 -0.030888602 -0.24634413 -0.0067222537 0.29114255 -0.16933948 0.10854058 -0.15388846 0.045308676 -0.08477824 -0.12348815 -0.12183102 -0.14490405 -0.05955283 -0.1943139 -0.087526515 0.013006911 -0.003070843 -0.056078076 -0.16712515 -0.07114944 -0.15003137 -0.14718285 -0.1122605 -0.02313265 -0.029464697 -0.0670599 0.49204072 0.4364601 -0.12330343 -0.067053415 0.04243789 0.70498836 -0.08596979 -0.07163482 -0.1754673 0.23377162 -0.05329758 0.31071898 0.027400162 -0.12844394 -0.0964586 -0.025217319 -0.094806634 0.8566802 -0.119830154 -0.09842923 -0.201663 0.62798905 -0.09252106 0.5386689 0.11926512 -0.18102098 0.24556078 -0.12520532 -0.16159526 -0.11426615 -0.12646936 -0.029465256 -0.1516667 -0.19216773 -0.10309446 -0.031130075 -0.09669753 -0.046921458 -0.05037665 0.26811707 -0.14074694 -0.20148574 -0.10698916 -0.0807044 -0.17381985 -0.06734697 -0.020691833 -0.10093246 -0.11978954 0.6389215 -0.11724211 -0.15935324 -0.11048895 -0.08215946 -0.18072502 -0.155835 -0.1262577
592 -0.21579419 -0.035318937 -0.14087062 -0.18996947 -0.092586525 -0.07213247 -0.18313079 -0.28758222 0.101367176 -0.054686386 -0.059132922 0.48235905 -0.06481513 -0.13019904 -0.13793826 -0.059433497 -0.24269608 -0.042727273 -0.02468676 -0.045510978 -0.03505199 -0.114903286 -0.085270025 0.4243559 -0.15947658 -0.17017797 -0.18253332 -0.11808405 -0.09272112 0.0030035004 -0.054488957 -0.12839529 -0.13099033 0.006327581 -0.064675875 -0.12534653 -0.104425624 -0.16949277 -0.22184172 -0.16656701 -0.12756999 -0.07668462 -0.12090371 -0.15040024 1.367093 -0.1744907 -0.0540873 -0.083831534 -0.061866987 -0.062948726 0.011395469 -0.21519403 -0.11416662 -0.0829942 0.03849654 0.14309563 -0.12312936 -0.10919475 0.040813185 -0.051911682 -0.08065904 -0.16223791 -0.122854196 -0.23602593 0.8932272 -0.040777024 -0.15397203 0.1530573 0.13649397 -0.0728707 -0.114305966 -0.022139855 -0.17572041 -0.30697885 -0.057211872 -0.24543224 -0.11890153 -0.112061284 -0.007930547 -0.011631883 -0.043578595 -0.019716129 -0.09044381 -0.072483055 -0.1514959 0.15886664 0.33485577 -0.07173654 -0.02210879 -0.16406548 -0.068454705 0.19728155 0.14028247 -0.13302888 -0.13601676 0.44239607 -0.067159854 -0.16327934 -0.0032174073 -0.10523009
459 -0.15764669 0.3215696 -0.08764795 -0.27872637 -0.10228827 0.7682778 1.2222724 -0.24030884 -0.30560791 -0.01818713 -0.111099996 -0.063487895 -0.06534503 -0.19467114 -0.4721472 -0.23505838 -0.5659104 -0.06847439 -0.18577676 -0.073962025 1.0363302 -0.37483105 -0.023465374 -0.34724388 -0.28176412 -0.32408753 -0.41061297 -0.29875204 -0.05066928 -0.4890492 -0.23078315 -0.38146868 -0.06935425 0.1837499 -0.36495036 -0.32208034 -0.4756148 -0.2924559 -0.3602417 -0.31532097 -0.14887045 -0.08945733 -0.60823053 -0.13604264 -0.20715259 -0.5660379 -0.13368702 -0.25976214 -0.21834455 -0.098142155 0.16925216 -0.45787516 -0.0667896 -0.2335813 -0.23250072 -0.14753048 -0.14586036 -0.11916756 -0.1666889 -0.08529674 -0.12386619 -0.5631613 -0.071009286 -0.4660236 0.60681725 -0.15980457 -0.054152645 -0.013016859 -0.29132125 -0.1487612 -0.3748837 -0.2479868 -0.42493653 0.20570955 -0.042324025 -0.44240138 -0.4452413 -0.38597128 0.15100029 -0.01731226 -0.0503546 -0.046274897 -0.7212206 -0.36803052 -0.36881334 -0.2585662 -0.25001028 -0.42389056 -0.1580627 0.049057685 -0.2524458 -0.1044932 0.15900597 -0.29487666 -0.3306753 -0.14358218 -0.10415262 -0.8481019 -0.066855066 -0.24674459
547 -0.11514961 -0.042884063 -0.084105566 -0.13081475 -0.028863443 -0.04911347 -0.07146743 -0.1661049 0.071121894 -0.03168005 -0.049756646 0.3805455 -0.036897272 -0.030458406 -0.033339802 -0.008071368 -0.145923 -0.049237844 -0.0028049143 -0.061788052 -0.0040403395 -0.08698676 -0.0393389 0.40321556 -0.12225481 -0.06474445 -0.100841634 -0.07574561 -0.067342766 0.09565091 -0.048221663 -0.08615073 -0.067575924 0.050020147 -0.064213134 -0.072910205 -0.036934886 -0.14372288 -0.12062215 -0.1066943 -0.09896672 -0.06395974 -0.077037334 -0.071627185 0.7969904 -0.15077786 -0.067315176 -0.07125607 -0.05594761 -0.011915919 -0.04368493 -0.13221532 -0.04948405 -0.03332145 0.054057267 0.11719367 -0.044941496 -0.047442067 -0.03649053 -0.020625124 -0.045801256 -0.08264957 -0.08522682 -0.123410515 0.54838645 -0.024744794 -0.1363252 0.00034108013 0.012436558 0.009484399 -0.07877994 -0.071004726 -0.082944 -0.20121983 -0.026815424 -0.13322638 -0.059965767 -0.06208201 0.07427724 0.06981087 -0.008877695 0.06858863 -0.0534288 -0.072447054 -0.11321916 0.1309565 -0.004845647 -0.074631296 0.12715107 -0.10116636 -0.03474995 0.04165011 0.15265885 -0.08896783 -0.050002497 0.36495146 -0.04160827 -0.11630422 0.42074776 -0.0700638
1016 -0.01151118 0.17400047 -0.009959999 -0.038251158 -0.029398186 -0.024981854 -0.018689645 -0.04395665 0.10779377 -0.06277698 -0.017091202 0.09541944 -0.026000142 -0.043664705 -0.015499005 -0.008473012 -0.06902525 -0.049570646 -0.061543476 0.07094989 -0.011160445 -0.06470183 -0.019515434 -0.075377755 -0.020855306 0.028849088 -0.028817434 -0.04119092 -0.04202668 -0.006820235 -0.040839583 -0.037124373 -0.016637838 -0.008069023 -0.0805393 -0.059482694 -0.054841608 -0.06171437 -0.048496086 -0.079597905 0.03488277 -0.043001764 -0.08037118 -0.06095397 -0.03190529 -0.031170106 -0.06627841 -0.047520395 -0.03414935 0.23913462 -0.0380849 -0.02082083 0.049293138 -0.061858453 -0.002753472 -0.009689453 0.15430889 -0.006768243 0.1379925 -0.007983663 0.06405331 -0.04297533 -0.0351117 -0.032061905 -0.005394596 -0.030005936 -0.03303871 -0.000156945 -0.018397251 -0.0026955437 -0.038567364 -0.04143915 -0.033207618 -0.04034963 0.031538837 -0.03866595 -0.009508896 -0.053589266 0.14384836 -0.01720841 -0.013217858 0.06663747 -0.066470906 -0.057204563 -0.062485505 -0.008085719 -0.033665575 -0.13080187 -0.020146351 -0.030614695 -0.022470033 -0.05694123 -0.04289701 -0.051470883 0.069800034 -0.08898404 -0.019764367 -0.075294144 -0.00015222505 -0.0066043544
853 0.011558 -0.004280427 -0.03574383 0.102704115 -0.008217587 -0.015005479 -0.017282674 -0.028075298 -0.016275251 -0.03267331 -0.011057793 -0.02069382 -0.026056934 -0.032171577 0.013591478 -0.003184579 -0.04564005 -0.02862407 -0.042812902 -0.007784018 0.051829528 -0.017923156 -0.0070545613 -0.03236568 -0.019195227 0.063893795 -0.02049179 -0.012576018 0.10084292 -0.0058522993 -0.030281281 -0.030576492 -0.0056808884 -0.007445345 -0.041781656 -0.03236204 -0.028181702 -0.0064022304 -0.020514458 -0.046830423 -0.003364099 -0.0040781754 -0.01684009 -0.003984792 0.03446936 -0.0031971359 -0.031163588 -0.036739845 0.097655736 0.07465986 -0.0030431466 0.02359769 0.0059377607 -0.03250584 0.24712123 0.016959105 -0.02232471 0.01584633 -0.0011790082 -0.015285701 0.045493003 -0.023982016 -0.019445574 0.037070107 -0.004193626 -0.03138025 -0.015598684 0.07342702 -0.001917002 -0.0061663566 -0.025407404 -0.025235087 -0.021417735 -0.010483781 -0.016014447 -0.006000968 -0.03287957 -0.0134062385 0.056421835 0.032893326 -0.023360211 0.05957152 -0.018456895 -0.022921545 -0.024451667 -0.018855492 -0.017745284 -0.03517025 -0.004711851 -0.01112585 -0.019540472 -0.0351053 -0.010146547 -0.014973487 -0.036040872 -0.02536193 -0.039734416 -0.02441338 -0.014445014 -0.026458561
937 -0.035836503 -0.010835565 0.33714592 -0.046701714 -0.07434716 -0.023424512 -0.10275437 -0.036717758 -0.047980845 -0.09929302 -0.017321592 -0.117348075 -0.048272636 -0.0064391936 -0.036777783 -0.021675397 0.5771282 -0.08196857 -0.027556855 -0.03836878 -0.04198895 -0.030703625 1.1325788 -0.09798042 -0.04876567 0.22022057 -0.01199942 -0.045038622 -0.040069755 -0.031354394 -0.027032508 -0.09037242 -0.096596755 -0.059844848 -0.088773385 -0.038552538 0.18509597 -0.042319864 -0.04545271 -0.0525253 -0.13066243 -0.079003885 0.28035998 -0.055319477 0.037550867 0.051102195 -0.11267693 -0.11772754 -0.004106304 -0.063365966 0.08386696 -0.07375793 -0.012870786 -0.06952196 -0.03495519 -0.018859763 0.0233025 -0.010963581 -0.023997413 -0.023989527 -0.01893693 -0.06097576 -0.048093986 -0.06167189 0.18862548 0.011749107 -0.031892918 0.3118057 -0.07070013 -0.02477296 -0.010281934 -0.08220442 -0.015518853 -0.0725885 0.024304539 -0.0219169 -0.014412309 -0.09892701 -0.040677797 0.33624622 -0.028435035 0.11680117 -0.06148697 -0.082674354 0.26818165 -0.0389089 -0.011910379 -0.020682864 -0.071683265 -0.056706596 -0.036983345 -0.029039884 -0.046277355 -0.04073168 -0.07007049 -0.07055311 -0.04640385 -0.10473353 -0.029371724 -0.074990936
531 -0.08795116 -0.049751073 -0.010161054 0.0072918814 -0.09151431 -0.015291864 -0.09881442 -0.027768387 0.13211936 -0.07903285 -0.013494851 -0.082618564 -0.103038386 0.35244498 -0.043987703 -0.018022947 0.81711674 -0.06569093 -0.00989587 0.100542255 -0.0317264 -0.0125049595 1.3549137 -0.11434301 -0.052913077 0.06173981 -0.046099734 -0.040834766 -0.032008864 -0.067976765 -0.031076599 -0.10517205 0.065201074 -0.067797326 -0.04469089 -0.04041675 0.5671131 -0.05539319 -0.045534033 -0.10788959 -0.13270251 -0.09314986 0.008844566 -0.04002508 0.0017260201 -0.0060085948 -0.12998785 -0.09117994 0.38448074 0.030692603 -0.013457884 -0.05022916 -0.06245299 -0.14512028 -0.05040812 0.18488553 0.48523372 -0.09323153 -0.020112254 -0.0695237 -0.0021425546 -0.07502272 -0.12947924 -0.03266267 -0.0056943237 -0.00015641228 0.1904589 0.41787902 -0.015732307 -0.0076723294 0.004266508 -0.1064195 0.01104822 -0.049761187 0.73313135 0.105763525 -0.026760403 -0.12624016 0.021448832 -0.003988779 -0.09388753 -0.012830137 -0.02086672 -0.07838716 0.441838 0.2561571 0.15858124 0.23090523 -0.051499404 -0.1297103 0.6501883 0.06663898 -0.07292972 -0.053938784 -0.058497645 -0.081789896 -0.035763055 -0.096814565 0.1362114 -0.05873343
932 -0.038418613 -0.0014023632 0.17314982 -0.004654394 -0.026641998 -0.020455455 -0.059882153 -0.03164923 0.045453012 -0.0810005 -0.0015528396 -0.047739904 -0.047688898 0.11001065 -0.0018322088 -0.005731649 0.5147301 -0.042718966 -0.01756659 0.011218481 -0.022600714 -0.044929188 0.3821203 -0.09428572 -0.008064182 0.083158456 -0.01009925 -0.033087373 -0.029003337 -0.009599151 -0.013775559 -0.04652326 0.0869265 -0.042332865 -0.07306075 -0.045035914 0.30513304 -0.032893207 -0.0073776483 -0.07135972 -0.052469786 -0.0698764 -0.008694951 -0.056954842 -0.020774804 0.02011602 -0.074438445 -0.07290529 0.09239753 -0.008112901 -0.0003500566 -0.014448905 -0.022698047 -0.08527676 -0.03429058 0.0055216067 0.2979264 -0.03160081 0.012000825 -0.034354027 0.03530371 -0.03279906 -0.080464706 -0.028621534 0.117114305 -0.02888665 -0.020694626 0.14505649 -0.019218523 -0.0014754888 0.101352744 -0.091761485 0.055054463 -0.069446184 0.16648693 0.00357759 0.14092614 -0.06118349 0.06602177 -0.0047470573 -0.029005948 0.061774857 -0.0322061 -0.069466114 0.17700578 -0.009796731 0.020619536 0.115667835 -0.032545317 -0.061528344 0.18346767 -0.0388519 -0.03453135 -0.03527221 -0.035967436 -0.04986758 -0.020322626 -0.059554398 0.104519725 -0.041562375
981 -0.022057964 0.4040963 -0.014420817 0.17427702 -0.027639523 -0.008919391 0.015602154 -0.024655214 -0.008574917 -0.074261114 0.26203415 -0.004692458 -0.0026795075 -0.040416073 -0.00064807275 -0.037501544 -0.092013136 -0.024579605 -0.054943293 0.06300623 -0.008284113 -0.038877863 -0.025195947 -0.019513858 -0.003848061 -0.022676783 -0.025656393 -0.045598347 0.075800404 -0.0062239207 -0.004416765 -0.005921309 0.032969266 -0.01640069 -0.064589456 -0.056507494 0.114972785 -0.07472064 -0.00057485106 -0.056670208 0.08823395 0.09970177 -0.056002762 -0.06432666 0.01655969 0.022809248 -0.036894742 0.09235334 -0.03047046 0.16363291 -0.0043634954 0.01155859 -0.019432753 -0.02760978 0.17993416 -0.00093935954 -0.0017832741 0.053342134 0.45341623 0.36741775 -0.02085909 -0.044577558 0.0038290955 -0.029383231 0.0069650523 -0.049670037 -0.026493391 -0.037477523 0.3686254 0.1404 -0.012068049 -0.01153376 -0.025069017 -0.015144098 -0.021714618 -0.016637154 -0.0059515573 -0.0010109909 0.045904335 -0.011454701 -0.007697192 -0.009744267 0.06517424 -0.014950732 -0.058201976 -0.026316524 -0.03452724 -0.03688508 -0.029330587 -0.032808036 -0.012583983 -0.04452766 -0.008391991 -0.043989114 0.012001308 -0.029837055 0.12966795 -0.06019775 -0.039921258 -0.02622866
955 -0.015172771 0.07866896 -0.034567114 -0.048201796 -0.020464342 0.026177038 -0.01588681 -0.05519283 -0.044736262 -0.07843261 -0.05635087 -0.0002808772 -0.012455096 -0.01865519 -0.06986567 -0.027759314 -0.08818822 -0.011263686 -0.033017464 -0.019066814 -0.0064979005 -0.072760634 0.112623945 -0.022196857 -0.05684149 -0.0443389 -0.047190547 -0.042148083 -0.04420631 0.022970278 -0.034475908 -0.04585271 -0.037145335 -0.009410807 -0.0092278365 -0.045472834 -0.051343203 -0.08108044 -0.03149578 -0.05473289 -0.033655353 -0.026480867 -0.05572567 -0.03121309 0.002379369 -0.07064205 -0.063423716 -0.0075244918 -0.026601454 -0.040978562 0.0023225322 -0.07763315 0.08848493 -0.0443937 -0.010270339 -0.008722347 -0.01594007 -0.046863604 -0.014754166 -0.042502154 0.014977451 -0.05067811 -0.03179458 -0.06683851 0.006003104 -0.0029401928 0.107846335 0.007064499 -0.034958713 -0.01186494 -0.045642763 -0.037362117 -0.046661813 -0.036121022 -0.0040273983 -0.0517855 -0.055271864 -0.018317237 -0.011857418 -0.037534628 -0.017514331 -0.010587488 -0.073855355 -0.03964884 -0.063165575 -0.024132986 -0.021942433 -0.09081642 -0.0095635895 -0.013162749 -0.040619772 -0.02337649 0.019110076 -0.011678143 -0.013307402 -0.03042144 -0.013093921 -0.06512389 -0.02855298 -0.057230163
1036 -0.03430737 -0.035031974 -0.024129514 -0.033247676 -0.0029576104 -0.015980482 -0.01880997 -0.030208245 -0.034033943 -0.06984781 -0.027661854 -0.039189424 -0.032906774 -0.01806224 -0.02742436 -0.015758937 -0.078068495 -0.040250994 -0.010563775 0.10909479 -0.036462333 -0.01547538 -0.037757587 -0.043763038 -0.032894474 -0.011212555 -0.020859491 -0.02717377 -0.0032848548 -0.01436473 -0.04739357 -0.033486195 -0.020136995 -0.02003863 -0.039841175 -0.022675855 -0.05699725 0.022454562 -0.035348713 -0.029339612 -0.008870047 -0.022394462 -0.022026194 -0.04364592 -0.0023866207 -0.012456533 -0.0658671 0.3308532 -0.026199495 0.6865173 -0.036876466 -0.008933141 -0.0043943836 -0.024065673 0.017081458 -0.045249205 -0.039015412 0.11673752 0.10751446 0.104307175 -0.016751446 -0.021208068 -0.02652649 0.0014738045 -0.0015143648 -0.03348929 -0.034383185 0.00086056814 -0.031651597 -0.01720488 -0.04553178 -0.007830924 -0.013920463 -0.027890254 -0.061059404 -0.037894364 -0.053101804 -0.031698957 0.009228747 -0.013082065 0.06476697 -0.01066564 -0.033894416 -0.03808358 -0.024067199 -0.0036190741 -0.020540452 -0.02143249 -0.04044586 -0.033737447 0.2222975 -0.0715616 -0.024452342 0.006348122 -0.02914503 -0.031014815 0.14949237 -0.048152536 -0.020337323 -0.030184586
822 -0.05395875 -0.037608434 -0.047883887 -0.03193903 -0.05530373 -0.030617071 -0.041699115 -0.047210738 -0.034032468 -0.06434172 -0.075267024 -0.0250695 -0.032979127 -0.030568471 -0.050681937 -0.05698808 -0.05776633 -0.069077894 -0.053627945 -0.025800591 -0.013633357 -0.02837885 -0.0021932193 -0.019959137 -0.035111047 -0.034517772 -0.041353524 -0.073432334 -0.03799669 -0.046387635 -0.034282748 -0.06519672 -0.017401775 0.04617371 -0.035889305 -0.027311498 -0.060951676 0.31144413 -0.0536671 -0.07436889 -0.035484727 0.04780247 0.013809938 0.056420293 0.46441343 -0.021053007 -0.030540992 -0.009741515 -0.027599096 -0.00779678 0.10146112 -0.052860666 0.125727 -0.05230094 -0.031684283 -0.024205063 -0.058228534 -0.01075629 -0.015376081 -0.027038474 -0.03229851 -0.021917028 -0.026226217 -0.010453575 -0.034871418 -0.029697374 0.12166314 0.0068822913 -0.055329002 -0.026590575 -0.082523786 0.2266472 -0.051195532 -0.0011004005 -0.012779749 -0.06684955 -0.06420578 -0.05442319 -0.001808837 0.26709464 -0.0549194 -0.01769122 -0.037864275 -0.019917507 -0.036897182 -0.00077875855 0.051771544 -0.052790582 -0.024655383 0.0023645386 -0.014194387 -0.0069785165 -0.023448706 -0.04463625 -0.013372001 -0.05904388 -0.048652533 -0.054530323 -0.043101646 -0.043184113
377 -0.13711809 -0.20380254 -0.2405405 -0.15248378 -0.03456073 0.4360595 -0.07898667 -0.1318251 -0.22147016 -0.24992545 -0.1550291 1.0303031 -0.31372923 0.85415196 -0.3142079 -0.27001318 -0.35046202 -0.20252495 -0.023313828 -0.17056273 -0.16307639 -0.12529588 -0.173188 -0.08419508 -0.20926435 -0.21010946 -0.13363962 -0.2861797 -0.28252852 -0.26895377 -0.16935876 -0.27114028 -0.011570771 0.2687224 -0.14955665 -0.18363671 -0.33944717 -0.007966246 -0.13483404 -0.1048426 -0.14696448 -0.05709765 -0.10271948 -0.11608745 -0.010340388 -0.27242875 -0.1512401 -0.08300558 -0.25642297 -0.12005629 0.11463673 -0.16828735 -0.011865824 -0.20225012 0.49510947 -0.19541238 -0.16434698 -0.027253339 -0.08132384 0.40631363 -0.08147107 -0.0678804 -0.119275965 -0.19461073 -0.14421038 -0.041538034 -0.068284 -0.057537403 -0.120059066 -0.059838127 -0.26101047 -0.090907596 -0.23631983 -0.18695644 -0.09949946 -0.27458173 -0.332409 -0.1840473 -0.101231135 -0.14864033 -0.21351615 -0.026376385 -0.2552952 -0.23065534 -0.15797375 0.75512975 -0.05353687 -0.34346396 -0.054211613 -0.06997159 -0.105634965 -0.15251534 -0.20601916 -0.15459245 -0.28256133 -0.14263706 1.3350277 -0.21303855 -0.04805866 -0.096191324
332 -0.11767 -0.21602009 -0.25301784 -0.2890435 -0.014284099 -0.13759726 -0.0686686 -0.2073109 -0.28425875 -0.30533832 -0.27660546 1.1478429 -0.3059481 1.1530426 -0.55696553 -0.23810671 -0.5161606 -0.28344262 -0.018605363 -0.15871795 -0.22143726 -0.22585654 -0.2723387 -0.19618781 -0.28637323 -0.45497116 -0.42528453 -0.39767748 -0.21920963 -0.17083272 -0.30422372 -0.2819917 -0.08922867 0.3927205 -0.419022 -0.34652874 -0.42745224 -0.039692678 -0.24810468 -0.13157563 -0.15191452 -0.36410415 -0.21784209 -0.17448458 -0.040643282 -0.43797 -0.22006981 -0.18143785 -0.21040164 -0.2755167 0.3001319 -0.17797533 -0.1272375 -0.33264416 0.06261561 -0.33428463 -0.3663156 -0.11359719 -0.087458886 -0.02350444 0.083844915 -0.14240995 -0.30681944 -0.34493756 -0.16957493 -0.20363727 -0.13080095 -0.12189102 -0.19567136 -0.06899411 -0.46166158 -0.13524124 -0.40992132 -0.28138635 -0.15153043 -0.39929485 -0.553828 -0.2809994 -0.1870688 -0.41191706 -0.25336578 0.12267041 -0.44302446 -0.23693965 -0.32201877 1.9957174 -0.11062076 -0.5530282 -0.12409981 -0.014134742 -0.1706612 -0.3128242 -0.31233728 -0.20368178 -0.48721138 -0.15628932 1.6205696 -0.36041233 -0.017283482 -0.19701341
556 -0.03893037 0.19337294 -0.090475135 -0.06337844 0.16711345 -0.096103065 -0.06601452 0.49619257 0.36431503 -0.04566796 -0.11696483 -0.1224108 -0.08738395 0.5035389 -0.02851596 0.3766691 0.4732179 -0.06639463 -0.021854287 -0.03978595 0.5996636 -0.19818994 0.039357875 -0.13442783 -0.0060309283 1.0805614 -0.024575317 -0.15048416 0.10282309 0.24167116 -0.04402211 -0.039102722 -0.010191417 -0.011120092 -0.08347298 -0.1025522 -0.051490422 0.18492472 0.20485742 -0.052780546 0.47084683 -0.07734609 -0.05815945 0.12763944 0.25888512 -0.035170373 -0.26721218 -0.10749707 -0.048333474 0.66682595 -0.116081275 -0.064648315 -0.025885059 -0.09549768 -0.009239063 0.8273362 -0.049803708 -0.18718724 0.78830105 -0.04096346 -0.021918628 0.4345523 -0.027465254 -0.12664245 1.3731978 0.059072163 -0.09095659 -0.011498652 0.19950467 0.06803608 -0.07428076 0.08886629 -0.011687874 -0.25646326 0.65762776 0.33026993 -0.03485099 0.06297313 -0.009106923 -0.20024274 -0.04315947 0.110403955 -0.057751574 -0.045411535 -0.053124823 0.27290908 -0.09444545 0.1624711 0.23400566 -0.007352669 -0.042212874 0.07180819 0.3521294 -0.0064969496 -0.10306855 -0.058918215 0.30715996 -0.04655936 -0.010092667 -0.047900643
410 0.085512996 -0.005585838 -0.030615939 -0.03519206 0.12558839 -0.09446534 -0.05477826 0.4728214 0.433337 -0.05363459 -0.040285666 -0.023323087 -0.03226137 -0.0030231804 0.11946854 0.587031 0.34655806 -0.10326826 -0.048253346 0.18921432 -0.06079016 -0.013266467 -0.04689334 -0.071655184 0.17759563 0.42521966 -0.012389574 -0.058447864 0.10992111 0.31656462 -0.08172814 -0.023909358 -0.024054538 -0.025680412 -0.122910224 -0.08825618 -0.03407376 0.19783464 -0.0015471884 -0.06568183 -0.0102616465 -0.09320912 -0.020844925 0.1637414 0.009551324 -0.009205084 -0.09867286 -0.011902262 0.16264087 0.34942302 -0.103649296 0.05284314 -0.012243579 -0.11039644 0.44247213 0.6669216 -0.0015834406 -0.078317694 0.17981789 0.05060519 -0.0016298958 0.1068656 -0.046601083 0.08921735 0.57530653 -0.035190564 -0.024448326 -0.059430808 0.5943774 0.29991055 -0.04061183 0.01554513 -0.029176787 -0.1459996 0.16345863 0.6958526 -0.06301429 -0.02667283 0.14668566 -0.071978085 -0.027887268 0.08344792 -0.06528038 -0.022824222 -0.057956178 0.026008796 -0.0620735 0.16154519 0.17485785 -0.04216936 -0.02650549 -0.107295476 -0.03352425 -0.0042884685 -0.028189568 -0.10127213 0.07380217 -0.029306341 -0.030714601 0.09760187
444 0.060534585 -0.016714685 -0.08672159 -0.010533287 -0.01481355 -0.10526544 -0.07447656 0.15046977 -0.01717042 -0.0717575 -0.021784198 -0.037557255 -0.059555043 0.13770404 -0.043514837 1.0375619 -0.04035884 -0.1418998 -0.066920154 0.4093697 -0.04110522 -0.08340242 -0.07325828 -0.13879387 0.13161385 0.12865993 -0.052398514 -0.0052578445 0.15647258 0.5453796 -0.099748254 0.08023425 0.09292553 -0.033428337 -0.17454538 -0.09258882 -0.07282894 0.0040774136 -0.050797492 -0.07404154 -0.06656195 -0.14009868 -0.07114332 0.5570149 0.10000386 -0.07975255 -0.16898082 0.28982773 0.4361134 0.31868452 -0.14162968 -0.021456672 -0.017034136 -0.15298465 0.23155536 1.060877 -0.058093634 -0.1741689 0.32153112 0.0864443 -0.00045094267 0.03393015 -0.061553787 -0.028966734 0.27158836 -0.057010185 -0.044036053 -0.03542862 0.7678624 0.36167338 -0.0441346 0.0033204257 -0.049543172 -0.25334388 0.5209682 0.31438196 -0.09622814 -0.032146096 0.08735418 -0.10017667 -0.0059967833 0.026975214 -0.051384468 -0.014335896 -0.1370685 -0.0008444868 -0.034718715 0.089132994 0.14513695 -0.034341432 -0.021692498 -0.13559173 -0.0023323426 0.006474018 -0.053759594 -0.13799481 -0.007335757 -0.06589966 -0.06021148 -0.06977823
515 -0.0049763913 -0.004091937 0.10042491 -0.008879897 0.09908109 -0.053102177 -0.023545649 0.010412868 0.15835282 -0.04667722 -0.023426116 -0.00090054946 -0.026935732 -0.008105578 0.0022634007 0.25006983 -0.020286972 -0.0555509 -0.02321071 0.04823163 -0.04672722 -0.016127793 -0.02328363 -0.038073923 0.19032457 -0.0019260548 -0.024446374 -0.0336591 -0.027986053 0.14600529 -0.04471186 -0.027746508 -0.0076019713 -0.018262949 -0.06557443 -0.049768656 -0.03153284 -0.00041584607 -0.0039327596 -0.04454848 -0.0069262916 -0.048151225 -0.024979774 -0.0310222 -0.021479022 -0.004640651 -0.05158582 -0.00498474 0.032051027 0.052856453 -0.03933662 0.03449691 0.052478813 -0.033041395 0.22543658 0.05475698 0.08112994 -0.0022238006 -0.0011534103 0.062019754 -0.013747585 -0.01168057 -0.034410425 -0.017093452 0.1083792 -0.026301458 -0.03267139 -0.036637284 0.26410767 0.20499437 -0.036175072 -0.019225495 -0.028800283 -0.07600253 -0.008539902 0.22563502 -0.031747904 -0.015606177 0.12159243 -0.04175124 -0.0079378085 -0.010134265 -0.02868008 -0.027969355 -0.027232302 -0.011282001 -0.018897371 -0.00665776 0.03282153 -0.023375807 -0.01666468 -0.073386386 -0.0339992 0.05469126 0.02238765 -0.07872089 0.14356515 -0.029318992 -0.025732568 -0.015941557
632 -0.02518612 -0.00045229794 0.30338252 -0.04080842 -0.016725725 -0.04144576 -0.009537839 0.4428742 -0.0020240392 -0.06162676 0.1264785 0.39695114 -0.084324665 -0.053945113 0.065541625 -0.046197902 -0.06879555 -0.052780986 -0.032473475 0.34589097 -0.045554038 0.007703088 -0.06359418 -0.07734862 0.19065544 -0.05393795 -0.09584442 -0.018316582 -0.054264147 -0.052576937 -0.07198032 -0.07086906 0.32819432 -0.019988177 -0.09679299 -0.10749221 -0.03768667 0.13537784 -0.01462757 -0.09740752 -0.050610602 -0.024486871 -0.030298984 -0.021440474 -0.029617578 -0.003787864 -0.058134712 -0.0642982 -0.023105292 -0.0061605545 -0.011854677 0.20352893 0.05979447 -0.08185797 0.029338429 -0.03331797 -0.018407747 0.024348356 -0.024274873 0.18774672 -0.07507659 -0.04671721 -0.017683944 -0.0043056454 -0.06435844 -0.017568436 -0.046077017 -0.02039111 0.45872045 -0.002769837 -0.057917457 -0.051291145 -0.082191214 0.16099906 0.00026936084 0.6513501 0.23201598 -0.047530275 0.3799256 -0.0073094624 -0.005855054 -0.037151765 -0.051086277 -0.055350363 -0.04084305 -0.03269541 0.11339188 -0.051901497 -0.025182301 -0.09290063 -0.035523683 -0.095671885 -0.10687082 -0.073256 -0.021090766 -0.070200734 0.19193071 -0.09269121 0.44138554 -0.044723958
248 0.029269349 -0.08557017 0.52654064 0.3601003 0.07213219 -0.13489172 0.091997065 -0.046484224 -0.0006736184 -0.061273824 0.4473307 0.08954747 0.49473128 0.47736952 0.080976814 0.07846939 -0.09049123 -0.11549001 0.15442878 0.1723518 0.0641873 -0.019435568 -0.027513517 -0.11117852 0.354393 -0.016836394 -0.003660518 -0.012629223 0.058990452 0.046825726 -0.0304614 -0.046490368 -0.026868552 -0.048972573 -0.13297854 -0.05221436 -0.041334752 -0.008186592 0.18972334 -0.0014141187 -0.055165123 -0.0055996007 -0.053166617 -0.12863696 0.029190347 0.19549587 -0.033882894 -0.11456766 -0.18905677 0.5660687 -0.02329838 0.21983048 -0.05208511 -0.030036842 0.16403778 -0.056023616 0.73394066 0.005878371 0.1832718 0.36599436 -0.021171153 0.06943698 -0.03653999 0.17942892 0.0030947402 0.1658003 -0.019212393 -0.08030743 0.32932127 0.11278825 -0.020456746 0.5849271 -0.018305024 -0.1189832 0.048964456 -0.029073766 0.23329227 -0.056830224 0.64221454 -0.089155525 0.5032795 -0.046998303 -0.01938082 0.03208705 -0.106051885 0.15481754 -0.050718844 -0.07912716 0.12758493 0.3910423 -0.017353198 -0.055039227 -0.06401327 -0.023961658 0.27966392 -0.12407146 1.0036151 -0.07449161 -0.0068331505 0.13395908
345 -0.14510113 -0.19221447 -0.038479995 -0.09234988 -0.16434667 -0.14223991 0.023603342 -0.12454615 -0.102192305 -0.09326373 -0.13561545 -0.011221553 -0.022993935 0.0012460127 -0.1471579 -0.17177099 -0.19549614 -0.15245537 -0.07302461 -0.01851249 0.24362406 0.44998884 -0.07255336 -0.16323979 -0.09163322 -0.12885469 -0.1385702 -0.060540766 0.018232618 -0.010804749 -0.113819696 -0.17438136 0.047623955 -0.09638794 -0.093101 -0.08740181 -0.14543267 0.49533543 -0.06681997 -0.15347406 -0.12345093 -0.0833791 -0.034652796 -0.07100168 0.06861724 -0.03744917 -0.11008375 -0.025718367 -0.17921257 -0.06574904 0.20417306 -0.14180905 -0.050595935 -0.14365475 -0.12709075 -0.06156711 -0.097876005 -0.07966119 -0.057276387 -0.09239148 -0.02651968 0.0666938 -0.12504789 0.33966994 -0.1615039 -0.049423166 -0.0480904 -0.0029537417 0.8667661 -0.1526836 -0.16761643 0.7245747 -0.13951488 -0.13054772 -0.050926175 -0.05729989 0.3903482 -0.20090298 0.25236824 -0.062391102 0.026858322 -0.07535794 -0.11211529 -0.042996366 -0.15295984 0.27231565 -0.01575435 -0.091278456 -0.074383855 -0.008341812 -0.07084043 0.19986276 -0.080393925 -0.1724198 -0.09871203 -0.16698708 0.36127853 -0.112129204 -0.13100843 -0.08760738
983 -0.037476096 -0.0013762199 0.31855437 -0.006041893 0.17791879 -0.009222954 -0.014310782 -0.039639007 -0.018979905 -0.059201997 -0.018332912 0.022161912 0.060610473 -0.02626425 -0.004106508 -0.028806806 -0.0783981 -0.032113787 -0.030975157 -0.022353685 -0.045234643 -0.06081252 -0.0017169424 -0.04274376 -0.012052142 -0.011943187 -0.03104969 -0.034221075 -0.04368912 -0.016058745 -0.04722251 -0.029477054 -0.007884799 -0.009922947 -0.03974727 -0.06955123 -0.023073947 -0.031093597 -0.046722468 -0.062467735 -0.0051138834 -0.04086634 -0.046196036 -0.035269465 0.1027816 -0.02049779 -0.05212928 -0.06845731 -0.023442738 0.09030879 -0.008149492 -0.00740619 -0.017955067 -0.062271502 0.066636726 -0.044590067 -0.0031736009 0.1679671 -0.0057718484 0.109767124 0.032870334 -0.05268213 -0.036018476 -0.043080967 0.057756722 -0.03288807 -0.022365617 -0.022214703 -0.009315438 -0.0065475064 -0.050103705 -0.03211922 -0.04947955 -0.016652474 -0.019942664 -0.0020681587 -0.018682906 -0.025961434 0.1253306 0.027333876 -0.046158955 -0.020134103 -0.032371055 -0.063595116 -0.050780084 -0.032487646 -0.033301383 -0.0915303 0.039909996 -0.033036802 -0.012922366 -0.053824868 -0.027041769 -0.031151658 0.13007046 -0.06447483 -0.006723154 -0.064956 -0.03528042 -0.0393125
560 -0.14302942 -0.015204932 0.34989804 -0.102861404 -0.005000082 0.10054448 -0.01572928 -0.14645307 -0.1245324 -0.14261197 -0.12722747 -0.02988254 -0.07700673 -0.068909995 -0.12317486 -0.015607829 -0.114455365 -0.054688495 -0.06617238 -0.017140632 -0.030572152 -0.17151253 -0.026271185 0.11131709 -0.08183838 0.31890455 -0.081080824 -0.22647014 -0.02628322 -0.09702833 -0.055195905 -0.07928061 -0.12946731 0.19729804 -0.1110635 -0.11250808 -0.12242939 -0.0691901 -0.040327467 -0.18878095 -0.083817035 0.19657408 0.056616466 -0.04091329 -0.023818078 -0.10709206 -0.13579948 -0.09609534 -0.08147848 0.039987203 -0.087276995 -0.1820005 -0.0266375 -0.12093202 -0.082430154 -0.046855543 -0.071499154 -0.03952495 -0.039800663 -0.08052843 0.08752397 -0.1394686 -0.09063849 -0.11849632 0.47711673 -0.06831672 -0.031404823 -0.03285224 -0.043090317 -0.059181046 -0.21003027 -0.0735076 -0.11349386 -0.09130149 -0.057938058 -0.024740143 -0.1219777 -0.2014371 0.08099404 0.6100275 -0.098742776 0.124178424 -0.14472713 -0.07453429 -0.16709627 0.085820004 -0.14416187 -0.11756022 0.30472806 -0.03750355 0.057709415 -0.025875514 -0.027081525 -0.09992593 -0.058934193 -0.1139422 -0.07557606 -0.14425369 -0.10864862 0.26337767
222 -0.14598852 -0.12567978 1.1560299 -0.11073001 -0.11566575 -0.20262578 -0.08559201 -0.08774692 -0.06428755 -0.082489766 -0.25239548 -0.13896121 -0.24003597 0.98928416 -0.29053542 -0.09811794 -0.30091384 -0.2156004 0.31934214 -0.03884049 -0.00071968214 -0.0145114055 -0.049846362 -0.16289058 -0.0144715635 -0.21414094 -0.22780295 -0.17286049 -0.19243376 0.20129152 -0.17356424 -0.15024552 0.028334815 1.0416727 -0.12057804 -0.08041078 -0.21434648 0.6853644 -0.1330097 -0.14046597 0.38384056 -0.030780682 -0.034439202 -0.23340736 -0.21127443 0.28497836 -0.2864803 -0.13229029 -0.20110391 0.46730378 -0.15430725 -0.06533035 -0.028359098 -0.20819996 -0.09157445 -0.19895487 -0.11993346 -0.06947913 -0.016259149 -0.1796384 -0.006439282 -0.10714065 -0.117442094 -0.1297078 0.20809749 -0.008810567 -0.016830316 -0.018161658 -0.07741993 0.19796997 -0.15724908 -0.142831 -0.16479713 -0.109272264 -0.047788292 -0.23540579 -0.28563845 -0.13340604 -0.037155014 -0.04246882 -0.009696028 -0.07882768 -0.18435633 -0.11163517 -0.27423173 -0.1439139 -0.09140383 -0.07296374 -0.05091795 0.03655181 -0.046537124 -0.1319999 -0.19172594 -0.09035497 -0.20946756 -0.18524936 0.27376616 -0.061397046 -0.06611905 0.76985914
64 -0.0058005503 0.023456462 0.48713988 -0.01867186 -0.0134609705 -0.009002841 -0.009623482 -0.016101334 0.17743957 -0.051723897 -0.030469878 0.16852365 -0.038045716 -0.002960772 -0.03801444 -0.027965767 -0.07185501 -0.034274783 -0.01966978 0.113547646 -0.042975795 -0.03015777 -0.030637149 -0.04890771 -0.013478637 -0.044306368 -0.050967928 -0.03223875 -0.06469705 0.2352717 -0.018141437 -0.041395165 0.14630029 0.047876883 -0.060380768 -0.077750266 -0.0038846692 0.02880015 -0.033504035 -0.041202437 0.23811936 -0.023181552 -0.05003776 -0.043817945 -0.028262341 0.07124012 -0.0046978346 -0.049610835 -0.044930547 0.103824005 -0.03053974 -0.012664504 0.06892377 -0.034143385 0.00016821036 -0.032955643 0.06997684 0.03266354 0.10925732 -0.01905857 -0.03925163 -0.04921863 -0.01352221 -0.031649753 -0.016796878 -0.022865832 -0.025663292 -0.041828603 -0.034060117 -0.010439649 -0.027972275 -0.045713156 -0.04270349 -0.04743282 -0.012348401 -0.01267302 -0.02538836 -0.03565691 -0.005765056 -0.009459776 0.15596963 -0.012421167 -0.052896958 -0.030171746 -0.035929035 -0.06661473 -0.025487939 -0.06535193 -0.029560799 -0.033376154 -0.026880905 -0.041309003 -0.07099791 -0.032597955 -0.03512438 -0.039386682 0.11151031 -0.05593252 0.037494544 -0.012404724
66 -0.019358004 -0.00036576838 0.47687042 -0.048451137 -0.02820105 -0.009069337 -0.034500834 -0.04375653 0.1135882 -0.071987614 -0.038752265 0.35348386 -0.07021718 0.058212392 -0.035858884 -0.043741312 -0.058937788 -0.048504997 -0.031487722 0.32261014 -0.032276988 -0.025895644 -0.019862248 -0.06920155 0.0175724 -0.047127146 -0.017344207 -0.009798697 -0.07639681 0.2390468 -0.036067914 -0.052792918 -0.0072128847 0.008273961 -0.07659408 -0.057827532 -0.03663173 -0.019379674 -0.021734154 -0.092804514 0.30140454 -0.028561307 -0.034479927 -0.034521755 -0.057622254 0.16227418 -0.069005325 -0.060330756 -0.042461317 0.07432392 -0.06682079 -0.021761505 0.10477667 -0.022076206 -0.028015032 -0.028141072 0.17811453 -0.0023860342 -0.0007106699 -0.049320646 0.15349682 -0.037480365 -0.034205344 -0.02418198 0.010061063 0.10781425 0.06673023 -0.023220643 -0.0141399205 0.13203795 -0.028587861 -0.056641456 -0.036754884 -0.072648965 -0.005457753 -0.024233222 -0.022453813 -0.04007442 -0.00016546027 0.011056015 0.30432558 0.04334931 -0.0476334 -0.040580757 -0.07292747 -0.07986999 -0.0092130145 -0.08754345 -0.034610398 -0.016342204 0.00546889 -0.06090181 -0.07075329 -0.0063873837 0.057720248 -0.060721416 0.11654584 -0.04951777 -0.022222778 -0.009111938
201 -0.02092559 0.07499126 0.80469745 -0.08142582 -0.05291126 -0.0043439246 -0.03355512 -0.037241668 0.17214468 -0.11858133 -0.085861176 0.48112828 -0.053249996 0.30343768 -0.06777716 -0.05936609 -0.106884934 -0.075507335 -0.020965613 0.6310017 -0.026982963 -0.0672233 -0.05732087 -0.11745546 0.20330575 -0.07510189 -0.064730965 0.31997165 -0.09368756 0.30854613 -0.060831573 -0.06504882 -0.008566487 -0.004627797 -0.11533494 -0.026501393 -0.07070532 0.017103275 -0.03245069 -0.10850704 0.41118622 -0.071667165 -0.06518752 -0.05868886 -0.11726655 0.22816174 -0.081664644 -0.09028294 -0.08850784 0.16639075 -0.10361978 -0.020659998 -0.010677785 -0.09444251 -0.027537743 -0.062067397 -0.0004892819 -0.016155923 0.5264646 -0.039405327 -0.0041215657 -0.08454356 -0.035739902 -0.050877284 -0.015979929 0.12741143 -0.017616892 -0.05513223 0.019744977 -0.00715341 -0.06079444 -0.09418132 -0.09820982 -0.07145085 0.1777427 -0.019391244 -0.06437756 -0.07188132 -0.02043165 -0.04470823 0.29121917 0.16589454 -0.10342953 -0.07056074 -0.11519247 -0.11164651 -0.06325152 -0.17282088 -0.11864021 0.12500516 0.1159178 -0.09530442 -0.15043043 -0.040907513 -0.034628216 -0.07544557 0.16384386 -0.08820834 -0.040548667 -0.04942308
958 0.12372562 0.0052627996 -0.038885444 -0.016649133 -0.013321972 0.098614186 -0.033763167 -0.046035334 0.25230092 -0.03815804 -0.010838562 0.52702075 0.20310578 -0.04002675 0.270084 -0.006754604 -0.017286353 -0.04782123 -0.039378297 0.13115841 -0.003825655 -0.027657581 -0.0080612535 -0.05655399 0.3278647 -0.017338801 0.13994767 -0.030949999 0.023913983 -0.020455508 -0.02823254 -0.008514797 0.024945721 -0.043021962 -0.047898907 0.13222769 0.034657758 -0.0518164 0.0007856935 -0.04548436 0.19230708 -0.04354116 -0.03873178 -0.032041755 0.0010010675 -0.0048502274 -0.048513077 -0.056870054 -0.04001836 0.06356958 -0.011697746 0.003073087 -0.0022120406 -0.05075574 0.090887606 0.17153122 0.32191926 0.058495574 0.33506557 0.110780984 -0.01888092 -0.03374523 -0.018072126 -0.0070738457 -0.02213415 0.2105954 -0.029614586 -0.053795993 0.21483575 0.08855373 -0.05037227 -0.008058149 -0.03756991 0.031145051 0.1529401 -0.006237007 -0.006089738 -0.046506975 0.15315889 -0.0015440065 -0.032400146 0.012839325 -0.061820626 -0.03680022 -0.025252683 0.007954333 -0.03076762 -0.13457921 0.011461139 -0.028341725 0.21844213 -0.07664132 -0.022320837 -0.008760039 0.10549502 -0.075326726 -0.022056002 -0.029094568 0.30680072 0.27614847
